356 100
C 0.1487 -0.024485 -0.11403 0.12473 0.088895 0.09323 -0.43589 -0.1662 -0.068569 -0.10046 -0.21437 -0.043655 -0.048017 -0.063923 -0.293 -0.072804 -0.071884 -0.0016906 -0.037393 0.24794 0.17745 0.16592 0.031194 -0.15522 -0.13662 0.11567 0.2861 -0.34749 -0.31113 0.33966 0.07111 0.13849 -0.026714 -0.06904 -0.26068 -0.049279 0.2675 -0.23899 0.3066 0.2826 0.23073 0.085351 -0.043848 -0.021184 0.061072 -0.1216 0.17367 0.053582 0.20509 0.11956 -0.15228 -0.0092875 -0.054216 0.0044589 -0.096959 0.06295 0.12559 -0.19843 -0.086567 -0.052913 0.19874 0.11533 0.024547 -0.24964 -0.12915 0.12221 -0.033798 -0.116 0.29379 -0.10278 -0.13107 0.15224 -0.032487 -0.25405 -0.20573 0.020305 0.084139 -0.098148 0.3248 -0.13987 0.20336 -0.017728 -0.082782 -0.23784 -0.10716 0.085708 -0.090379 0.15259 0.023247 0.012726 0.040655 -0.033086 0.29706 -0.0086209 -0.14651 0.010102 -0.10474 0.19729 -0.022596 -0.035442 
label 0.15336 -0.023519 -0.11252 0.12423 0.090969 0.093234 -0.44955 -0.16714 -0.075476 -0.10563 -0.22187 -0.045969 -0.054537 -0.064625 -0.29504 -0.078202 -0.069143 -0.0089544 -0.034309 0.25714 0.17671 0.16176 0.03196 -0.14855 -0.15064 0.12435 0.29238 -0.34678 -0.31987 0.34525 0.079006 0.14116 -0.02145 -0.068403 -0.25914 -0.05496 0.26677 -0.23802 0.31074 0.29312 0.22637 0.075856 -0.05158 -0.027823 0.063046 -0.12265 0.17959 0.057045 0.20936 0.11864 -0.15392 -0.011616 -0.050339 0.00049431 -0.10006 0.068412 0.12887 -0.20495 -0.090727 -0.0602 0.20336 0.11481 0.026559 -0.2516 -0.12444 0.12605 -0.028309 -0.11479 0.29347 -0.10742 -0.12504 0.15547 -0.028351 -0.25517 -0.20691 0.02877 0.079205 -0.10627 0.33211 -0.13703 0.20853 -0.017274 -0.09049 -0.23013 -0.10757 0.088574 -0.095514 0.15841 0.027085 0.014409 0.031383 -0.034598 0.29317 -0.0068825 -0.14545 0.016777 -0.10983 0.19304 -0.020382 -0.032974 
</s> 0.16818 -0.033849 -0.11793 0.12612 0.093814 0.090736 -0.47197 -0.18212 -0.065909 -0.096619 -0.23783 -0.046769 -0.058782 -0.07138 -0.30631 -0.073298 -0.07031 -0.012452 -0.042518 0.26706 0.19096 0.16181 0.026303 -0.1531 -0.15142 0.125 0.30789 -0.37062 -0.33741 0.35847 0.086042 0.15181 -0.028792 -0.066863 -0.27516 -0.063114 0.26989 -0.23797 0.33121 0.30864 0.22403 0.085936 -0.047447 -0.028312 0.069386 -0.12175 0.19331 0.06692 0.22136 0.12995 -0.1609 -0.013091 -0.046942 -0.0029897 -0.11357 0.07718 0.13488 -0.21922 -0.10207 -0.06581 0.2217 0.12603 0.033673 -0.25357 -0.13676 0.13537 -0.038355 -0.12193 0.30825 -0.11907 -0.12433 0.16406 -0.026923 -0.27243 -0.22373 0.030322 0.092222 -0.11177 0.35186 -0.15064 0.22403 -0.019878 -0.098403 -0.24513 -0.11251 0.082602 -0.10043 0.17325 0.032507 0.011839 0.026217 -0.035614 0.30929 -0.0083707 -0.14871 0.015276 -0.11459 0.20337 -0.013716 -0.022664 
and 0.19627 -0.034812 -0.14249 0.15534 0.11515 0.12006 -0.56049 -0.20912 -0.094205 -0.12467 -0.27798 -0.053871 -0.072515 -0.076798 -0.36192 -0.092304 -0.089655 -0.012772 -0.041468 0.32005 0.22281 0.20179 0.038612 -0.184 -0.1821 0.15439 0.3621 -0.4374 -0.39705 0.4264 0.097662 0.17138 -0.025235 -0.080832 -0.31957 -0.065366 0.33321 -0.29804 0.39013 0.36116 0.27884 0.095434 -0.065084 -0.035332 0.07669 -0.1536 0.22434 0.070974 0.25922 0.14954 -0.19126 -0.014668 -0.061303 0.0019093 -0.12112 0.082072 0.16057 -0.25286 -0.11306 -0.077847 0.25177 0.142 0.027325 -0.31445 -0.15491 0.15944 -0.037896 -0.14344 0.36682 -0.13573 -0.1569 0.19384 -0.038648 -0.31882 -0.25865 0.033853 0.09893 -0.1272 0.41284 -0.1719 0.25842 -0.020454 -0.11034 -0.28978 -0.13059 0.10534 -0.11834 0.19561 0.026369 0.01941 0.035791 -0.045804 0.36499 -0.0021842 -0.18172 0.02476 -0.1356 0.23994 -0.027284 -0.03823 
of 0.15748 -0.023423 -0.11576 0.12488 0.093891 0.10163 -0.45144 -0.17305 -0.074974 -0.10232 -0.22093 -0.042423 -0.056693 -0.057925 -0.29288 -0.075208 -0.067835 -0.010273 -0.036506 0.26037 0.18094 0.16317 0.03183 -0.15238 -0.14545 0.12318 0.29882 -0.35482 -0.3156 0.34669 0.081871 0.13863 -0.024602 -0.072393 -0.25872 -0.049959 0.26869 -0.23679 0.31988 0.29631 0.22668 0.079748 -0.050489 -0.024173 0.069528 -0.1307 0.18413 0.06373 0.20823 0.11868 -0.15794 -0.0078183 -0.052659 0.0017164 -0.1012 0.072729 0.12568 -0.2022 -0.095403 -0.062903 0.20684 0.10909 0.025361 -0.2491 -0.12495 0.13255 -0.031535 -0.11764 0.29341 -0.10721 -0.13032 0.15745 -0.031425 -0.25651 -0.20584 0.024709 0.08125 -0.10462 0.33226 -0.13636 0.21486 -0.020466 -0.091698 -0.23921 -0.10878 0.085945 -0.095097 0.16324 0.026485 0.016507 0.035061 -0.034772 0.29874 -0.0049155 -0.14929 0.017728 -0.11247 0.1921 -0.020495 -0.030855 
the 0.20009 -0.029551 -0.1454 0.16518 0.11935 0.12127 -0.58408 -0.21702 -0.097932 -0.13314 -0.28624 -0.056837 -0.070842 -0.080123 -0.38393 -0.09973 -0.090328 -0.01587 -0.038257 0.32962 0.22711 0.21472 0.043295 -0.19734 -0.19074 0.16397 0.37843 -0.45485 -0.41401 0.45258 0.10673 0.18502 -0.029477 -0.086885 -0.33449 -0.068215 0.34996 -0.31133 0.40565 0.38156 0.29234 0.099244 -0.065392 -0.034379 0.085639 -0.15849 0.23057 0.072516 0.27072 0.15663 -0.20216 -0.019474 -0.065525 0.0051722 -0.12788 0.088696 0.16945 -0.26441 -0.11954 -0.081569 0.26783 0.14535 0.034986 -0.32792 -0.16076 0.16883 -0.040827 -0.15425 0.37694 -0.14057 -0.16593 0.20151 -0.036439 -0.33346 -0.27229 0.037386 0.10519 -0.1367 0.43114 -0.18105 0.27459 -0.023319 -0.11502 -0.30269 -0.1345 0.11479 -0.12932 0.20667 0.028792 0.022454 0.045539 -0.046728 0.37747 -0.0041415 -0.19199 0.019419 -0.13944 0.24714 -0.025816 -0.042472 
to 0.16236 -0.028 -0.11649 0.12701 0.090131 0.095562 -0.44636 -0.1648 -0.069612 -0.10413 -0.22185 -0.03664 -0.053141 -0.061282 -0.29234 -0.072992 -0.069638 -0.0060809 -0.034522 0.2529 0.17971 0.16694 0.035521 -0.15055 -0.1495 0.12584 0.29001 -0.35476 -0.31924 0.3488 0.080592 0.13517 -0.026668 -0.066094 -0.25996 -0.050666 0.26864 -0.24156 0.3136 0.291 0.22315 0.082713 -0.046181 -0.027727 0.071044 -0.12534 0.18106 0.053817 0.20718 0.1208 -0.15423 -0.012586 -0.051259 0.0039816 -0.10102 0.06593 0.12909 -0.20847 -0.090579 -0.057838 0.2062 0.11638 0.022069 -0.25422 -0.13283 0.12853 -0.030531 -0.11666 0.29321 -0.10311 -0.12858 0.16069 -0.031322 -0.25204 -0.20806 0.027111 0.082713 -0.1057 0.33323 -0.1387 0.21291 -0.010933 -0.089222 -0.23208 -0.10552 0.08694 -0.094877 0.16423 0.024512 0.017244 0.029039 -0.035165 0.28736 -0.0078146 -0.14896 0.016045 -0.11289 0.18854 -0.014599 -0.029204 
in 0.20646 -0.03482 -0.14997 0.16197 0.11558 0.12509 -0.58464 -0.2184 -0.094452 -0.13454 -0.28487 -0.05988 -0.070203 -0.079645 -0.37566 -0.096428 -0.096531 -0.012886 -0.04646 0.33063 0.23064 0.20951 0.038438 -0.19737 -0.19658 0.15916 0.38094 -0.4518 -0.42043 0.44444 0.10745 0.18569 -0.024367 -0.085647 -0.34005 -0.069094 0.35097 -0.30978 0.40945 0.38283 0.29565 0.10651 -0.068994 -0.037415 0.083294 -0.15488 0.22835 0.074108 0.27412 0.15782 -0.20332 -0.020654 -0.068611 0.0037673 -0.13054 0.087091 0.16952 -0.26474 -0.11834 -0.07981 0.26925 0.14196 0.03217 -0.33228 -0.1644 0.16585 -0.04184 -0.15094 0.37775 -0.14022 -0.16531 0.20239 -0.039948 -0.33098 -0.26978 0.039077 0.10066 -0.13467 0.42646 -0.18547 0.2695 -0.021951 -0.11905 -0.29917 -0.14421 0.11118 -0.12479 0.20498 0.036104 0.022035 0.041243 -0.044862 0.37742 -0.010992 -0.19624 0.021474 -0.14114 0.24962 -0.021983 -0.039275 
To 0.12261 -0.02431 -0.089328 0.098556 0.076991 0.069306 -0.34848 -0.12956 -0.059377 -0.08461 -0.17104 -0.0322 -0.042742 -0.045761 -0.23033 -0.060869 -0.055799 -0.0089176 -0.021664 0.20187 0.13952 0.12439 0.026311 -0.11898 -0.11233 0.092009 0.23036 -0.26905 -0.2463 0.27163 0.05939 0.10915 -0.016079 -0.051633 -0.20083 -0.047772 0.21624 -0.18492 0.24111 0.22619 0.17082 0.056413 -0.037095 -0.018584 0.047459 -0.10047 0.14081 0.048362 0.16098 0.094575 -0.12327 -0.0044419 -0.038502 0.0031617 -0.078525 0.053084 0.10386 -0.15959 -0.074217 -0.044417 0.15883 0.090656 0.019152 -0.19446 -0.099765 0.098116 -0.018101 -0.092854 0.23058 -0.084485 -0.099974 0.11542 -0.02543 -0.19883 -0.15955 0.024802 0.061894 -0.079149 0.25968 -0.10394 0.16645 -0.014875 -0.072992 -0.18105 -0.084186 0.068942 -0.069733 0.12236 0.018054 0.01113 0.022919 -0.028615 0.23068 -0.0027276 -0.11632 0.016998 -0.088558 0.15212 -0.017133 -0.025189 
for 0.13868 -0.025644 -0.10213 0.11162 0.077919 0.089606 -0.39224 -0.14843 -0.064926 -0.090999 -0.19577 -0.04176 -0.049109 -0.057565 -0.26559 -0.067795 -0.066975 -0.0093204 -0.031889 0.22433 0.15844 0.14433 0.030167 -0.13097 -0.13055 0.1072 0.25994 -0.31338 -0.28208 0.30597 0.072702 0.1265 -0.018859 -0.06321 -0.22825 -0.047812 0.23619 -0.21218 0.27576 0.25336 0.19618 0.068714 -0.047901 -0.022228 0.054686 -0.10774 0.15842 0.048559 0.17753 0.10534 -0.13769 -0.011407 -0.045594 0.002387 -0.086745 0.060354 0.11548 -0.18053 -0.084424 -0.049779 0.18019 0.099989 0.025081 -0.21816 -0.11168 0.11358 -0.029927 -0.096012 0.26009 -0.095977 -0.11107 0.13567 -0.022576 -0.22536 -0.18111 0.025238 0.069752 -0.091745 0.29305 -0.12551 0.18829 -0.016272 -0.076649 -0.20616 -0.097918 0.075253 -0.086787 0.14086 0.024264 0.0091582 0.028218 -0.029397 0.26217 -0.0039534 -0.1324 0.01423 -0.098239 0.17204 -0.017796 -0.027875 
be 0.15464 -0.020106 -0.11 0.12721 0.090466 0.096971 -0.44338 -0.16803 -0.076067 -0.1035 -0.21231 -0.041156 -0.050324 -0.060847 -0.28846 -0.073815 -0.065877 -0.0092711 -0.030933 0.25828 0.17631 0.16068 0.037243 -0.15038 -0.1456 0.11607 0.29634 -0.34303 -0.31968 0.34433 0.079745 0.13718 -0.025429 -0.069629 -0.25091 -0.058438 0.26965 -0.23209 0.30351 0.28461 0.21963 0.076802 -0.057781 -0.027033 0.06407 -0.12073 0.17615 0.061013 0.202 0.11784 -0.15723 -0.017508 -0.046113 0.0025963 -0.096642 0.067804 0.1294 -0.20097 -0.087467 -0.059145 0.20687 0.11906 0.024064 -0.2414 -0.12637 0.12969 -0.030389 -0.11883 0.28984 -0.10062 -0.12095 0.15427 -0.028831 -0.25194 -0.20724 0.026756 0.082591 -0.10279 0.33338 -0.1384 0.20356 -0.017026 -0.090871 -0.23323 -0.10045 0.082885 -0.089352 0.15354 0.021442 0.014527 0.035029 -0.029309 0.28585 -0.0085989 -0.14377 0.016118 -0.10159 0.18726 -0.019792 -0.032659 
will 0.12674 -0.021291 -0.093861 0.10545 0.074344 0.076296 -0.36521 -0.13801 -0.060116 -0.084272 -0.18154 -0.03496 -0.04278 -0.050794 -0.24138 -0.063173 -0.05613 -0.0090208 -0.025272 0.20731 0.143 0.13447 0.02797 -0.12322 -0.12089 0.10132 0.24021 -0.28536 -0.26136 0.28421 0.065333 0.11697 -0.020686 -0.055152 -0.21261 -0.046128 0.22141 -0.19965 0.25828 0.2404 0.181 0.063685 -0.041875 -0.021947 0.053258 -0.10232 0.14639 0.050466 0.17311 0.098551 -0.12836 -0.011281 -0.040715 0.0010085 -0.08089 0.056071 0.10377 -0.16933 -0.072911 -0.05158 0.16726 0.091304 0.017306 -0.20282 -0.09851 0.10402 -0.026563 -0.094532 0.24344 -0.086586 -0.10686 0.12575 -0.024868 -0.21065 -0.16778 0.021785 0.069153 -0.087777 0.27155 -0.11327 0.17157 -0.01372 -0.073321 -0.18963 -0.089079 0.071437 -0.076322 0.12975 0.0202 0.010968 0.025098 -0.028327 0.24103 -0.0017955 -0.12033 0.015619 -0.088844 0.15682 -0.015069 -0.024632 
Understand 0.14316 -0.023122 -0.10171 0.1139 0.080931 0.0863 -0.40653 -0.15116 -0.066277 -0.092163 -0.20001 -0.038271 -0.04951 -0.055772 -0.26559 -0.068915 -0.065441 -0.0070033 -0.03033 0.23173 0.15953 0.14747 0.027713 -0.13751 -0.13399 0.11162 0.2672 -0.31558 -0.28642 0.31173 0.072087 0.12628 -0.022438 -0.060195 -0.23288 -0.048873 0.24347 -0.2136 0.28392 0.26443 0.20493 0.070734 -0.045792 -0.024661 0.058548 -0.11032 0.1626 0.052349 0.18893 0.10894 -0.1409 -0.011798 -0.043569 0.0041205 -0.088063 0.059499 0.11654 -0.18778 -0.084049 -0.054243 0.18634 0.10217 0.02138 -0.22816 -0.11312 0.11785 -0.030264 -0.10453 0.26568 -0.094932 -0.11582 0.14159 -0.027428 -0.23108 -0.1874 0.024529 0.072153 -0.093923 0.30007 -0.12545 0.18956 -0.014611 -0.081213 -0.21053 -0.09629 0.079 -0.087641 0.14323 0.021571 0.014098 0.028643 -0.031084 0.26416 -0.0042117 -0.13493 0.013919 -0.098245 0.17336 -0.018773 -0.027 
able 0.15906 -0.026419 -0.11868 0.12824 0.089547 0.097093 -0.45744 -0.17261 -0.073248 -0.1088 -0.22638 -0.043625 -0.056395 -0.066614 -0.30126 -0.078986 -0.070072 -0.0096312 -0.03537 0.25961 0.18126 0.16628 0.033716 -0.15764 -0.14842 0.12351 0.30036 -0.35355 -0.32384 0.35006 0.081657 0.14295 -0.021615 -0.069585 -0.26322 -0.053832 0.27114 -0.24359 0.31853 0.29698 0.22902 0.075945 -0.051532 -0.025855 0.065932 -0.12158 0.18032 0.054996 0.2131 0.11986 -0.15674 -0.013504 -0.052199 0.0034118 -0.10331 0.06539 0.13061 -0.20557 -0.094468 -0.06363 0.20765 0.11274 0.024519 -0.25703 -0.12659 0.13091 -0.034873 -0.11501 0.30111 -0.10846 -0.13153 0.15776 -0.028156 -0.25866 -0.21241 0.027659 0.083162 -0.10619 0.33651 -0.14197 0.21227 -0.017427 -0.09328 -0.23647 -0.10766 0.086257 -0.095459 0.15867 0.026407 0.015303 0.033848 -0.03528 0.29639 -0.00066869 -0.15027 0.017241 -0.10781 0.19283 -0.02065 -0.032831 
Students 0.16126 -0.025432 -0.1178 0.12996 0.093305 0.096257 -0.46265 -0.17189 -0.076536 -0.107 -0.22751 -0.042432 -0.057856 -0.063005 -0.30316 -0.077453 -0.072305 -0.0090138 -0.035371 0.26423 0.18196 0.16758 0.033726 -0.15642 -0.15242 0.12485 0.30327 -0.36174 -0.32912 0.35706 0.084612 0.1456 -0.023829 -0.071591 -0.26558 -0.057821 0.27681 -0.245 0.32473 0.2997 0.23011 0.082592 -0.052999 -0.025808 0.06703 -0.12639 0.18687 0.058586 0.21665 0.12177 -0.15839 -0.013122 -0.050959 0.0028172 -0.1035 0.070149 0.12947 -0.2108 -0.09503 -0.063069 0.21077 0.11482 0.028263 -0.25991 -0.13051 0.13045 -0.033683 -0.11574 0.30397 -0.11114 -0.13021 0.16068 -0.029994 -0.26345 -0.21467 0.028512 0.081624 -0.10929 0.34118 -0.14336 0.21408 -0.01677 -0.092248 -0.24022 -0.11083 0.089799 -0.096966 0.16509 0.023098 0.012219 0.033404 -0.033069 0.30177 -0.0079943 -0.15272 0.016273 -0.11284 0.19722 -0.015545 -0.033376 
basic 0.12231 -0.018686 -0.088827 0.098156 0.072178 0.075765 -0.35776 -0.13316 -0.062495 -0.080072 -0.17313 -0.033194 -0.046033 -0.050154 -0.23127 -0.059353 -0.05669 -0.0098888 -0.026636 0.20145 0.14265 0.12686 0.026667 -0.11813 -0.11419 0.095153 0.23103 -0.27764 -0.25561 0.27376 0.06512 0.10701 -0.016873 -0.054439 -0.20305 -0.043587 0.21163 -0.1881 0.24803 0.23287 0.17992 0.063579 -0.039204 -0.021571 0.050025 -0.096808 0.14233 0.044515 0.16653 0.095436 -0.12092 -0.0075279 -0.04026 0.00013623 -0.079912 0.05359 0.10074 -0.16307 -0.07357 -0.045263 0.16244 0.090565 0.021953 -0.19952 -0.10022 0.10061 -0.024195 -0.093205 0.2334 -0.085082 -0.10143 0.12388 -0.025543 -0.20314 -0.16465 0.019796 0.064908 -0.084006 0.26566 -0.10853 0.16772 -0.012295 -0.071582 -0.18053 -0.087283 0.066548 -0.074883 0.12443 0.020678 0.010022 0.022959 -0.026008 0.23107 -0.0029395 -0.11534 0.014716 -0.088238 0.15285 -0.017643 -0.024873 
a 0.10874 -0.019075 -0.072311 0.084379 0.065335 0.067412 -0.29916 -0.11333 -0.040718 -0.066617 -0.14252 -0.025124 -0.041526 -0.040074 -0.19134 -0.05512 -0.040598 -0.00052946 -0.022397 0.16905 0.11921 0.10849 0.025373 -0.098001 -0.094308 0.084118 0.1953 -0.23262 -0.21145 0.23269 0.062508 0.087132 -0.017851 -0.047297 -0.17015 -0.035499 0.17305 -0.15407 0.21202 0.18639 0.13851 0.053197 -0.03357 -0.018826 0.041177 -0.07856 0.11717 0.037567 0.13694 0.079842 -0.093931 -0.0017449 -0.034617 -0.0057126 -0.067011 0.04688 0.090232 -0.13976 -0.065651 -0.038771 0.13962 0.067831 0.025349 -0.16553 -0.079094 0.088385 -0.018824 -0.077797 0.19939 -0.076494 -0.088305 0.1021 -0.011776 -0.15924 -0.13113 0.015395 0.055461 -0.072973 0.22427 -0.086536 0.1329 -0.010219 -0.059572 -0.14916 -0.072601 0.054138 -0.065937 0.098748 0.019466 0.012337 0.023099 -0.014536 0.19879 0.0052785 -0.095382 0.0021267 -0.069152 0.12492 -0.011737 -0.022033 
concepts 0.15107 -0.025103 -0.10999 0.11921 0.087675 0.091225 -0.43012 -0.16108 -0.072035 -0.097044 -0.21331 -0.041638 -0.052444 -0.059804 -0.28174 -0.07252 -0.068 -0.0098229 -0.031687 0.24439 0.1697 0.15831 0.02947 -0.14465 -0.13993 0.11558 0.28147 -0.33649 -0.30555 0.33285 0.077061 0.13531 -0.022313 -0.064803 -0.24652 -0.050151 0.25667 -0.23011 0.30091 0.27864 0.21666 0.076045 -0.04724 -0.024278 0.062577 -0.11787 0.16994 0.056232 0.20192 0.11267 -0.14887 -0.013112 -0.050181 0.0017853 -0.09522 0.063343 0.12579 -0.19543 -0.088539 -0.056425 0.19719 0.10801 0.025332 -0.24167 -0.11922 0.1237 -0.028337 -0.10969 0.28096 -0.10149 -0.12145 0.14989 -0.02683 -0.24276 -0.2004 0.02466 0.076353 -0.10148 0.31775 -0.13338 0.20036 -0.017369 -0.086851 -0.22209 -0.10341 0.080636 -0.092186 0.15281 0.024409 0.012485 0.029454 -0.034466 0.28067 -0.0068301 -0.14086 0.016303 -0.10396 0.183 -0.019556 -0.028141 
software 0.13189 -0.019398 -0.096881 0.10476 0.078005 0.080238 -0.37751 -0.14092 -0.059217 -0.088196 -0.18832 -0.037054 -0.046526 -0.050655 -0.24906 -0.064762 -0.057918 -0.010209 -0.029022 0.21788 0.15059 0.13868 0.027439 -0.12892 -0.12375 0.10712 0.2472 -0.29506 -0.27052 0.29275 0.067846 0.12003 -0.02071 -0.057572 -0.21716 -0.045514 0.22609 -0.20416 0.26282 0.24874 0.18959 0.066533 -0.044209 -0.022063 0.053382 -0.10379 0.15093 0.049569 0.17477 0.10028 -0.1282 -0.011584 -0.041936 0.002901 -0.085489 0.058626 0.10719 -0.17056 -0.079487 -0.049783 0.17536 0.095397 0.024479 -0.21128 -0.10526 0.10952 -0.026606 -0.096831 0.24635 -0.090213 -0.10872 0.13032 -0.023608 -0.21245 -0.17458 0.021718 0.070291 -0.089819 0.27994 -0.11617 0.17633 -0.013949 -0.076373 -0.19506 -0.090332 0.072428 -0.081382 0.1339 0.021559 0.011521 0.027086 -0.029959 0.24841 -0.0051025 -0.12519 0.013701 -0.092253 0.16266 -0.015746 -0.02679 
techniques 0.13444 -0.021882 -0.099001 0.11069 0.077606 0.084809 -0.39128 -0.1469 -0.062878 -0.088486 -0.19283 -0.037505 -0.049617 -0.055108 -0.25743 -0.066607 -0.061923 -0.0084836 -0.031934 0.22297 0.154 0.14192 0.026511 -0.13151 -0.1276 0.10907 0.25655 -0.30496 -0.27838 0.30222 0.071959 0.123 -0.020216 -0.058772 -0.22368 -0.048623 0.23445 -0.20842 0.27442 0.25371 0.19598 0.069493 -0.044697 -0.023316 0.054155 -0.1054 0.15648 0.051217 0.18151 0.10535 -0.13684 -0.010623 -0.045836 0.0029012 -0.088185 0.059323 0.1127 -0.17899 -0.081718 -0.051528 0.17951 0.099085 0.020393 -0.22005 -0.11057 0.10999 -0.029664 -0.098434 0.25724 -0.094128 -0.11086 0.13594 -0.025932 -0.22311 -0.1837 0.02286 0.071063 -0.091938 0.28905 -0.12232 0.18291 -0.013692 -0.077574 -0.20393 -0.093904 0.076362 -0.083741 0.13879 0.02223 0.014037 0.029563 -0.028386 0.25508 -0.0052932 -0.12827 0.014018 -0.096066 0.16833 -0.017442 -0.026817 
understand 0.14703 -0.023826 -0.1052 0.11837 0.082112 0.0898 -0.41774 -0.15545 -0.068938 -0.094502 -0.20537 -0.038973 -0.052327 -0.056542 -0.27382 -0.069451 -0.067331 -0.0081666 -0.032039 0.2392 0.16388 0.15175 0.029536 -0.14153 -0.1375 0.11348 0.27302 -0.32506 -0.2954 0.32207 0.07412 0.13015 -0.02339 -0.06182 -0.24017 -0.051276 0.25191 -0.22 0.294 0.27308 0.2111 0.07329 -0.048551 -0.024215 0.060207 -0.11458 0.16756 0.053683 0.19584 0.11169 -0.14516 -0.010997 -0.045153 0.0029879 -0.092216 0.061862 0.11906 -0.19213 -0.086578 -0.055491 0.19144 0.10485 0.021606 -0.23526 -0.11703 0.12033 -0.031819 -0.10865 0.27433 -0.09841 -0.12007 0.14501 -0.027829 -0.23807 -0.19436 0.025371 0.074508 -0.097431 0.30976 -0.12981 0.19498 -0.014964 -0.084013 -0.21682 -0.09855 0.080849 -0.089289 0.14873 0.022401 0.014345 0.030123 -0.031665 0.27208 -0.0038361 -0.13765 0.015199 -0.10124 0.17962 -0.018124 -0.028436 
different 0.18159 -0.028977 -0.13237 0.1455 0.10395 0.11162 -0.52174 -0.19544 -0.085624 -0.12001 -0.25735 -0.04986 -0.063643 -0.071555 -0.34188 -0.08791 -0.081682 -0.010525 -0.039339 0.29649 0.20632 0.18743 0.036723 -0.17478 -0.17052 0.14293 0.33931 -0.40552 -0.36955 0.4004 0.094263 0.16325 -0.026969 -0.079709 -0.29862 -0.06468 0.30881 -0.27609 0.36449 0.33781 0.26035 0.091603 -0.058147 -0.0321 0.073686 -0.14349 0.21037 0.067028 0.24138 0.1368 -0.18001 -0.014459 -0.060767 0.0019434 -0.11773 0.078572 0.1491 -0.23701 -0.10516 -0.070152 0.23966 0.12955 0.030093 -0.29307 -0.14535 0.14914 -0.035416 -0.13227 0.3413 -0.12185 -0.14809 0.18036 -0.034412 -0.29469 -0.24014 0.031023 0.091901 -0.12319 0.38489 -0.16147 0.24098 -0.018701 -0.10369 -0.26631 -0.12351 0.1003 -0.11177 0.1857 0.030341 0.01865 0.039192 -0.03885 0.33874 -0.0053239 -0.1704 0.017588 -0.1266 0.22374 -0.019551 -0.036 
design 0.13926 -0.021283 -0.1028 0.11484 0.078725 0.085399 -0.39818 -0.14904 -0.065829 -0.088632 -0.19538 -0.036425 -0.047875 -0.057577 -0.26249 -0.066048 -0.061624 -0.0089721 -0.03008 0.2291 0.15978 0.14526 0.025789 -0.13708 -0.13178 0.10866 0.25925 -0.3087 -0.28323 0.30848 0.07314 0.12562 -0.021122 -0.061805 -0.23091 -0.051422 0.23848 -0.21015 0.27913 0.25851 0.19827 0.071822 -0.047712 -0.023383 0.058004 -0.10851 0.15821 0.051637 0.18664 0.10336 -0.13877 -0.0093834 -0.04496 0.003483 -0.090573 0.057517 0.11646 -0.1821 -0.080764 -0.054629 0.18327 0.10072 0.023732 -0.22365 -0.11013 0.11321 -0.026434 -0.10293 0.26122 -0.095443 -0.11416 0.14121 -0.027377 -0.22745 -0.18622 0.022898 0.0728 -0.094658 0.29571 -0.12444 0.1853 -0.016331 -0.079001 -0.20608 -0.094708 0.076619 -0.084402 0.14103 0.022586 0.014376 0.024901 -0.032528 0.26027 -0.0049428 -0.12887 0.013668 -0.099389 0.16816 -0.016014 -0.026503 
as 0.13228 -0.021384 -0.096311 0.11008 0.074737 0.081578 -0.37443 -0.13577 -0.065954 -0.083613 -0.18247 -0.037343 -0.043671 -0.046722 -0.25057 -0.054742 -0.060254 -0.007708 -0.028882 0.21507 0.14919 0.13907 0.026037 -0.12275 -0.12522 0.09775 0.24207 -0.29293 -0.26103 0.28556 0.067657 0.11558 -0.021122 -0.054061 -0.21267 -0.044576 0.23043 -0.1961 0.26229 0.24182 0.18665 0.065749 -0.042053 -0.019455 0.053159 -0.10154 0.14891 0.051055 0.17189 0.097508 -0.12956 -0.0041057 -0.039989 -0.0037186 -0.085233 0.055968 0.10252 -0.16689 -0.079063 -0.04813 0.17663 0.099206 0.023083 -0.21629 -0.10406 0.10598 -0.028367 -0.096802 0.24138 -0.088518 -0.10244 0.13199 -0.022313 -0.21587 -0.17489 0.023239 0.066219 -0.093934 0.27733 -0.11164 0.17447 -0.018726 -0.078112 -0.19088 -0.088583 0.073467 -0.076458 0.13705 0.020144 0.01552 0.024816 -0.029353 0.2467 -0.010921 -0.12029 0.017656 -0.086301 0.16078 -0.015759 -0.018073 
Apply 0.12783 -0.020815 -0.095922 0.10362 0.073507 0.079265 -0.36782 -0.13757 -0.060768 -0.084873 -0.18159 -0.033853 -0.046977 -0.054031 -0.24226 -0.064287 -0.056925 -0.007939 -0.028399 0.21053 0.14642 0.13454 0.026299 -0.12481 -0.11948 0.10354 0.23988 -0.28922 -0.26287 0.28492 0.066786 0.11497 -0.018964 -0.056991 -0.21404 -0.044248 0.22221 -0.19587 0.25795 0.24088 0.18404 0.066413 -0.0424 -0.024112 0.05033 -0.10245 0.14761 0.04814 0.1716 0.0982 -0.12754 -0.0085556 -0.042957 0.0023496 -0.083166 0.058233 0.10708 -0.1692 -0.075498 -0.050117 0.16821 0.093426 0.020288 -0.20726 -0.10625 0.10527 -0.025924 -0.097856 0.24236 -0.085943 -0.10328 0.12906 -0.024555 -0.21115 -0.17268 0.020039 0.063265 -0.086684 0.27327 -0.11308 0.16857 -0.013067 -0.073773 -0.18948 -0.087601 0.071827 -0.079382 0.12984 0.02023 0.013589 0.02503 -0.028546 0.239 -0.0033774 -0.11941 0.014324 -0.090255 0.15774 -0.015442 -0.028097 
using 0.22576 -0.040876 -0.16513 0.18301 0.13056 0.13941 -0.65112 -0.24369 -0.10405 -0.14711 -0.32246 -0.061588 -0.078657 -0.092162 -0.42749 -0.11117 -0.10209 -0.01338 -0.047918 0.37057 0.25801 0.23799 0.046391 -0.21945 -0.21385 0.17794 0.42422 -0.50795 -0.4629 0.49931 0.11758 0.20284 -0.036671 -0.098042 -0.37549 -0.080096 0.38926 -0.34642 0.45281 0.4237 0.32508 0.11384 -0.075423 -0.040625 0.091594 -0.17745 0.26221 0.080602 0.30209 0.17106 -0.22238 -0.01647 -0.070948 0.0035931 -0.14665 0.098565 0.18471 -0.29637 -0.13235 -0.087534 0.29925 0.16232 0.041201 -0.36586 -0.18514 0.18721 -0.044264 -0.16737 0.42778 -0.15721 -0.18577 0.22861 -0.043984 -0.36873 -0.30184 0.037894 0.11806 -0.15074 0.48119 -0.20175 0.30081 -0.023088 -0.13075 -0.33495 -0.15398 0.12618 -0.13689 0.23045 0.039527 0.020954 0.047796 -0.050517 0.4265 -0.0073913 -0.21066 0.021202 -0.16026 0.27675 -0.02979 -0.044267 
knowledge 0.10183 -0.015632 -0.071946 0.082706 0.058576 0.061936 -0.29479 -0.11042 -0.049346 -0.066276 -0.14256 -0.026478 -0.034879 -0.041294 -0.19253 -0.049394 -0.045152 -0.0065736 -0.022377 0.16695 0.11616 0.10472 0.019677 -0.09931 -0.096787 0.08051 0.1914 -0.22833 -0.20882 0.22621 0.052989 0.091077 -0.014808 -0.043277 -0.16803 -0.036111 0.17447 -0.1563 0.20493 0.19202 0.14706 0.051786 -0.032709 -0.016913 0.039596 -0.079946 0.11931 0.037956 0.13761 0.077676 -0.10058 -0.0066529 -0.032146 0.0018499 -0.065745 0.042759 0.083777 -0.13518 -0.061779 -0.041394 0.13422 0.074355 0.019105 -0.16647 -0.083288 0.084393 -0.020217 -0.076118 0.19262 -0.071606 -0.084443 0.10142 -0.018491 -0.16802 -0.13894 0.018566 0.051449 -0.069678 0.21639 -0.09073 0.1367 -0.010692 -0.057786 -0.15017 -0.069726 0.055587 -0.061611 0.10462 0.016665 0.0093378 0.019154 -0.021923 0.19272 -0.0017253 -0.096636 0.013716 -0.070295 0.1245 -0.012067 -0.019715 
data 0.15162 -0.025747 -0.11068 0.12446 0.085352 0.094882 -0.44088 -0.16507 -0.072306 -0.10081 -0.21284 -0.0401 -0.053802 -0.060978 -0.29105 -0.074845 -0.069268 -0.013175 -0.032636 0.2503 0.17297 0.1607 0.02889 -0.14787 -0.1449 0.12146 0.28694 -0.34419 -0.30989 0.33666 0.078892 0.13647 -0.024496 -0.065704 -0.25159 -0.055722 0.26028 -0.2368 0.30787 0.28333 0.22004 0.076767 -0.051376 -0.023914 0.063772 -0.12111 0.17584 0.057243 0.2049 0.11839 -0.15113 -0.012778 -0.050075 0.005669 -0.099024 0.065984 0.12389 -0.20064 -0.089082 -0.057844 0.20176 0.11122 0.026838 -0.24537 -0.12297 0.12974 -0.03016 -0.11342 0.28782 -0.10525 -0.12446 0.15249 -0.030468 -0.24856 -0.20578 0.026876 0.079235 -0.10192 0.32581 -0.13153 0.20349 -0.014688 -0.085722 -0.22619 -0.10367 0.084953 -0.093054 0.15498 0.025777 0.01456 0.03034 -0.033638 0.28504 -0.002931 -0.14308 0.014661 -0.10852 0.18813 -0.016584 -0.030141 
computer 0.17586 -0.030023 -0.13011 0.14416 0.10501 0.11043 -0.51415 -0.19156 -0.084297 -0.11694 -0.25404 -0.050237 -0.064276 -0.072512 -0.33655 -0.08489 -0.080831 -0.011028 -0.039182 0.29346 0.20381 0.18851 0.036626 -0.17227 -0.16893 0.13862 0.33777 -0.40174 -0.36407 0.39604 0.092084 0.16209 -0.027521 -0.078123 -0.29301 -0.063925 0.30756 -0.27451 0.35829 0.33576 0.25933 0.091228 -0.056558 -0.030638 0.072762 -0.13931 0.20521 0.064277 0.2385 0.13632 -0.1775 -0.015313 -0.058053 0.0042216 -0.11423 0.076381 0.14882 -0.23393 -0.1065 -0.070258 0.23656 0.13166 0.029657 -0.2901 -0.14516 0.14672 -0.037656 -0.13211 0.33789 -0.12348 -0.14568 0.17944 -0.033671 -0.29203 -0.23771 0.032986 0.090437 -0.1195 0.37746 -0.15844 0.2388 -0.019604 -0.10301 -0.26762 -0.12227 0.0983 -0.11032 0.18125 0.02627 0.017704 0.035211 -0.03798 0.33616 -0.0066427 -0.16826 0.020537 -0.1246 0.21872 -0.021343 -0.035225 
various 0.073636 -0.0098026 -0.053292 0.056952 0.041872 0.044215 -0.20917 -0.076076 -0.035486 -0.046973 -0.10196 -0.018602 -0.024961 -0.030384 -0.13447 -0.033929 -0.034955 -0.0055047 -0.016321 0.11962 0.083483 0.07544 0.016649 -0.069053 -0.069352 0.056306 0.1375 -0.1612 -0.14884 0.15986 0.037173 0.066191 -0.0088419 -0.031118 -0.11779 -0.02531 0.12406 -0.1128 0.14466 0.13523 0.10355 0.037126 -0.02454 -0.013577 0.029742 -0.057332 0.085134 0.025598 0.096257 0.05498 -0.070459 -0.0051609 -0.023222 0.00040678 -0.047685 0.030103 0.060414 -0.095468 -0.043957 -0.030317 0.095827 0.051904 0.011372 -0.11661 -0.058822 0.061831 -0.012952 -0.055045 0.13535 -0.05001 -0.060074 0.07446 -0.014681 -0.11994 -0.095099 0.01133 0.035795 -0.046897 0.15394 -0.064588 0.093678 -0.0071487 -0.041167 -0.10567 -0.048414 0.042186 -0.044245 0.075597 0.013061 0.0056487 0.013143 -0.015242 0.13593 -0.0021322 -0.071271 0.007271 -0.051433 0.08988 -0.0083215 -0.014896 
development 0.17319 -0.027729 -0.12605 0.1388 0.099267 0.10638 -0.49902 -0.18691 -0.081794 -0.11462 -0.24602 -0.049406 -0.060712 -0.06966 -0.32843 -0.084463 -0.077935 -0.0091755 -0.039715 0.28417 0.19798 0.18167 0.035308 -0.16617 -0.16326 0.13525 0.32673 -0.38786 -0.35389 0.38365 0.091645 0.15624 -0.027014 -0.074566 -0.28512 -0.05945 0.29885 -0.26593 0.34873 0.32455 0.2487 0.086839 -0.057304 -0.029798 0.070943 -0.13715 0.19913 0.064198 0.23277 0.13065 -0.17073 -0.014751 -0.055878 0.0021425 -0.1114 0.074511 0.14243 -0.22847 -0.10233 -0.067071 0.228 0.1249 0.030601 -0.28072 -0.13912 0.14221 -0.034884 -0.12861 0.3271 -0.11887 -0.14371 0.1738 -0.033084 -0.28282 -0.22911 0.030039 0.090365 -0.11752 0.36739 -0.1536 0.2316 -0.019484 -0.099217 -0.25856 -0.11843 0.095626 -0.10322 0.17633 0.027954 0.015284 0.035577 -0.037886 0.32616 -0.0049587 -0.16326 0.020158 -0.12272 0.21336 -0.021582 -0.034787 
with 0.10618 -0.01984 -0.082177 0.08712 0.063537 0.067875 -0.3174 -0.11944 -0.051617 -0.074532 -0.15456 -0.030396 -0.038441 -0.044909 -0.20838 -0.055151 -0.049466 -0.0068568 -0.023447 0.18011 0.12367 0.11379 0.021284 -0.10777 -0.10231 0.084668 0.21214 -0.25231 -0.22548 0.24662 0.058789 0.09912 -0.018634 -0.048699 -0.18454 -0.039217 0.18999 -0.17 0.21923 0.2071 0.15828 0.056179 -0.034675 -0.019409 0.045178 -0.085949 0.12898 0.040049 0.14868 0.084035 -0.10889 -0.010578 -0.034926 0.0011764 -0.072653 0.049589 0.092539 -0.14533 -0.065257 -0.041748 0.14819 0.077768 0.01848 -0.17973 -0.091107 0.089094 -0.024356 -0.08176 0.20851 -0.080647 -0.088858 0.1133 -0.022081 -0.17789 -0.14801 0.016054 0.058034 -0.075383 0.23385 -0.096145 0.14554 -0.010302 -0.063704 -0.16635 -0.080236 0.058159 -0.070027 0.11279 0.017605 0.0092768 0.02209 -0.025725 0.20757 -0.0027938 -0.10582 0.016598 -0.077856 0.13784 -0.015189 -0.022307 
apply 0.14935 -0.02614 -0.112 0.12217 0.088005 0.092774 -0.43363 -0.162 -0.071034 -0.09977 -0.20985 -0.041419 -0.056538 -0.060598 -0.28621 -0.076033 -0.06752 -0.0097845 -0.032003 0.24812 0.17301 0.15711 0.030389 -0.14715 -0.14087 0.12105 0.28452 -0.33853 -0.3106 0.33607 0.079545 0.13684 -0.021361 -0.06765 -0.24986 -0.051669 0.25939 -0.22841 0.30446 0.28276 0.21909 0.078229 -0.048777 -0.024585 0.058453 -0.11967 0.17375 0.055551 0.20083 0.11628 -0.14966 -0.0073779 -0.049629 0.0015083 -0.098674 0.066264 0.12482 -0.19901 -0.089999 -0.05826 0.20059 0.11004 0.024242 -0.24526 -0.12065 0.12402 -0.03186 -0.11258 0.28451 -0.10454 -0.1214 0.14757 -0.028338 -0.24861 -0.20231 0.024545 0.078547 -0.10197 0.32143 -0.13095 0.20054 -0.017575 -0.085428 -0.22605 -0.10556 0.083843 -0.09307 0.15409 0.024008 0.014282 0.030611 -0.036173 0.28553 -0.004675 -0.14164 0.015507 -0.10599 0.18822 -0.017833 -0.031302 
how 0.092555 -0.016163 -0.067728 0.073773 0.056046 0.056922 -0.26509 -0.10101 -0.046832 -0.061577 -0.13047 -0.022864 -0.034943 -0.039556 -0.17408 -0.043309 -0.043916 -0.0094817 -0.01907 0.14961 0.10577 0.095757 0.017602 -0.091897 -0.089061 0.067776 0.17178 -0.20689 -0.19104 0.20229 0.05168 0.086385 -0.012028 -0.04155 -0.15418 -0.036293 0.159 -0.14009 0.1885 0.16978 0.13289 0.048118 -0.03153 -0.014549 0.037682 -0.071776 0.10486 0.034911 0.12317 0.069421 -0.094628 -0.0049178 -0.03378 0.0012427 -0.061391 0.037099 0.072927 -0.12206 -0.056861 -0.033426 0.12467 0.069799 0.016005 -0.14881 -0.074292 0.075146 -0.01786 -0.068919 0.17563 -0.061423 -0.077546 0.090822 -0.013904 -0.15147 -0.12387 0.014356 0.047855 -0.061146 0.20332 -0.08354 0.12382 -0.010365 -0.055115 -0.13963 -0.065026 0.053304 -0.057746 0.097063 0.013498 0.0065787 0.01941 -0.022949 0.17292 -0.0017682 -0.087658 0.0079413 -0.065958 0.1156 -0.01329 -0.016595 
learn 0.11033 -0.017951 -0.081232 0.08455 0.06392 0.067454 -0.31296 -0.11582 -0.053476 -0.073363 -0.153 -0.029721 -0.038347 -0.043973 -0.20234 -0.052361 -0.048152 -0.0063486 -0.023536 0.17702 0.12107 0.11138 0.021639 -0.10479 -0.10229 0.084001 0.20288 -0.24453 -0.22106 0.2404 0.055323 0.095432 -0.01596 -0.047538 -0.179 -0.037738 0.18659 -0.16566 0.2175 0.20151 0.15403 0.055001 -0.03269 -0.021782 0.04455 -0.088037 0.12539 0.038337 0.14321 0.080958 -0.10421 -0.0075778 -0.034731 -0.0011021 -0.070261 0.0491 0.090903 -0.14014 -0.065147 -0.041927 0.14103 0.079139 0.01817 -0.17326 -0.087616 0.089913 -0.022113 -0.074846 0.20325 -0.075556 -0.087403 0.10494 -0.019111 -0.1751 -0.1455 0.019076 0.053587 -0.074096 0.23214 -0.095937 0.14412 -0.012062 -0.061113 -0.15889 -0.074579 0.058909 -0.065335 0.1109 0.013986 0.010044 0.019493 -0.024714 0.20186 -0.0027896 -0.10117 0.011949 -0.076058 0.13524 -0.013895 -0.021253 
programming 0.1709 -0.027991 -0.12316 0.13781 0.09731 0.10333 -0.48984 -0.18126 -0.078754 -0.11137 -0.23984 -0.046827 -0.061273 -0.068874 -0.32145 -0.081815 -0.075375 -0.012449 -0.037664 0.28042 0.19415 0.17646 0.034851 -0.16678 -0.15998 0.13408 0.31839 -0.38314 -0.34747 0.37577 0.086773 0.15282 -0.025947 -0.071817 -0.28206 -0.060555 0.29305 -0.2603 0.34071 0.31701 0.24464 0.085087 -0.056148 -0.030512 0.068012 -0.13282 0.19423 0.062079 0.2269 0.12918 -0.16832 -0.012604 -0.055007 0.0033517 -0.10979 0.07234 0.14106 -0.22163 -0.099699 -0.063643 0.22418 0.12469 0.027391 -0.27277 -0.13735 0.13856 -0.035072 -0.12441 0.32243 -0.11737 -0.13956 0.16942 -0.030778 -0.27775 -0.22898 0.028978 0.087299 -0.11414 0.36144 -0.15095 0.22777 -0.017302 -0.094726 -0.25204 -0.11735 0.091889 -0.10365 0.17376 0.027215 0.017466 0.033651 -0.038063 0.31909 -0.0063422 -0.15867 0.016125 -0.11699 0.21102 -0.021036 -0.034197 
applications 0.20365 -0.03262 -0.1481 0.16388 0.11917 0.12578 -0.58873 -0.21804 -0.096973 -0.13386 -0.2887 -0.055076 -0.07261 -0.083265 -0.38702 -0.097988 -0.091092 -0.013686 -0.044968 0.33371 0.23342 0.21367 0.041832 -0.20037 -0.19111 0.16143 0.38622 -0.45966 -0.41953 0.45498 0.1062 0.18244 -0.030973 -0.089065 -0.34026 -0.069974 0.35169 -0.31511 0.41062 0.38261 0.29375 0.10355 -0.067214 -0.035543 0.08366 -0.16 0.23571 0.074539 0.27455 0.15739 -0.20291 -0.016807 -0.066395 0.0021218 -0.13236 0.088203 0.16944 -0.26881 -0.12171 -0.080249 0.26918 0.14802 0.031083 -0.3307 -0.16186 0.16743 -0.040682 -0.15295 0.38589 -0.14217 -0.1673 0.2021 -0.039995 -0.33453 -0.27349 0.034907 0.10468 -0.13708 0.43504 -0.18106 0.27294 -0.022008 -0.11541 -0.30683 -0.14096 0.11459 -0.12501 0.20789 0.032085 0.020659 0.039918 -0.045924 0.3855 -0.0069252 -0.19403 0.021304 -0.1433 0.25294 -0.025103 -0.040095 
analyze 0.14265 -0.021636 -0.10154 0.11387 0.081752 0.085564 -0.40794 -0.14981 -0.067892 -0.093499 -0.19966 -0.038597 -0.051825 -0.057604 -0.26572 -0.068825 -0.063727 -0.0061074 -0.031312 0.23152 0.16182 0.14285 0.027586 -0.13481 -0.13258 0.10743 0.26418 -0.31672 -0.28742 0.31075 0.073751 0.12776 -0.021546 -0.063608 -0.23384 -0.046889 0.24285 -0.21587 0.28336 0.26417 0.2038 0.072495 -0.047878 -0.022532 0.058637 -0.11014 0.16349 0.052859 0.18837 0.10726 -0.13841 -0.011334 -0.044413 0.0010713 -0.088237 0.063922 0.11474 -0.18471 -0.0823 -0.053924 0.18462 0.10247 0.021396 -0.22729 -0.11196 0.11641 -0.030646 -0.10409 0.2677 -0.097893 -0.11638 0.14075 -0.027981 -0.22882 -0.191 0.024606 0.073831 -0.094066 0.30037 -0.1268 0.18899 -0.016281 -0.080666 -0.20894 -0.096173 0.078544 -0.086878 0.14305 0.022876 0.01549 0.030375 -0.03047 0.26532 -0.0053843 -0.13181 0.014794 -0.097645 0.17337 -0.01663 -0.026849 
their 0.11093 -0.020169 -0.082368 0.092179 0.066144 0.068038 -0.33102 -0.12241 -0.054634 -0.074951 -0.1614 -0.034533 -0.039158 -0.044418 -0.2189 -0.056625 -0.052032 -0.0060623 -0.022901 0.18958 0.12759 0.11646 0.022398 -0.10934 -0.10693 0.088747 0.21503 -0.25583 -0.23241 0.25369 0.061597 0.10483 -0.018546 -0.051116 -0.18827 -0.040818 0.19658 -0.17468 0.22998 0.21224 0.16369 0.05411 -0.036027 -0.019289 0.046009 -0.093012 0.13067 0.043067 0.15271 0.087932 -0.11327 -0.010356 -0.035826 0.00096283 -0.072895 0.048948 0.093839 -0.1478 -0.06877 -0.046863 0.14863 0.08531 0.017296 -0.1845 -0.091656 0.09557 -0.024272 -0.084416 0.21669 -0.079785 -0.09097 0.11302 -0.022977 -0.18643 -0.15298 0.019896 0.059884 -0.074909 0.24317 -0.10161 0.15396 -0.012179 -0.063211 -0.17027 -0.077463 0.062702 -0.070766 0.11438 0.01621 0.012115 0.026577 -0.026549 0.2129 -0.002363 -0.10618 0.012691 -0.078466 0.14086 -0.01377 -0.022607 
system 0.13331 -0.024093 -0.098128 0.11034 0.078676 0.080381 -0.38286 -0.14769 -0.060353 -0.087585 -0.18756 -0.038491 -0.047882 -0.056573 -0.25069 -0.066397 -0.059341 -0.0077739 -0.027147 0.22085 0.15322 0.1375 0.028492 -0.1281 -0.12485 0.10357 0.25202 -0.30038 -0.27429 0.29893 0.069153 0.12234 -0.0202 -0.056727 -0.22082 -0.044388 0.23113 -0.20566 0.26986 0.24971 0.19217 0.066756 -0.043632 -0.022002 0.056092 -0.10601 0.15579 0.051294 0.17992 0.10212 -0.13215 -0.010961 -0.043884 0.00033843 -0.08697 0.059166 0.11428 -0.17613 -0.080346 -0.050918 0.17646 0.096939 0.022691 -0.21676 -0.10902 0.11147 -0.028319 -0.10074 0.25401 -0.093437 -0.11103 0.13277 -0.025752 -0.2218 -0.18093 0.024048 0.068903 -0.091348 0.28574 -0.11619 0.17898 -0.015683 -0.076472 -0.2014 -0.09316 0.074335 -0.082241 0.13756 0.019817 0.011658 0.027114 -0.029018 0.25452 -0.0063325 -0.12748 0.013818 -0.094061 0.16477 -0.014309 -0.024529 
problems 0.19029 -0.028902 -0.13714 0.15029 0.10683 0.11632 -0.54096 -0.19962 -0.089206 -0.12401 -0.2665 -0.051261 -0.066593 -0.07426 -0.35473 -0.090073 -0.08297 -0.010242 -0.042609 0.30956 0.21336 0.19602 0.03915 -0.18239 -0.17882 0.14789 0.3529 -0.42201 -0.38275 0.41604 0.097239 0.16985 -0.027469 -0.081376 -0.31235 -0.065649 0.32401 -0.28988 0.37685 0.34999 0.27155 0.093653 -0.06038 -0.030934 0.076738 -0.14682 0.21674 0.067806 0.25131 0.14443 -0.18519 -0.013088 -0.060607 0.0037505 -0.12098 0.081208 0.15427 -0.245 -0.1104 -0.072441 0.24861 0.13748 0.030501 -0.30414 -0.15272 0.15349 -0.038061 -0.13795 0.35568 -0.12946 -0.15493 0.18725 -0.033881 -0.30438 -0.25333 0.030926 0.096416 -0.12683 0.39749 -0.16689 0.25118 -0.021297 -0.108 -0.2788 -0.12678 0.10373 -0.11569 0.19081 0.032098 0.019055 0.037855 -0.041758 0.35238 -0.0071031 -0.17777 0.017006 -0.13104 0.23156 -0.023632 -0.03586 
Demonstrate 0.12177 -0.020399 -0.089363 0.098127 0.072014 0.074754 -0.35137 -0.13151 -0.058428 -0.07967 -0.17405 -0.033329 -0.045613 -0.050313 -0.23043 -0.059926 -0.055843 -0.0077281 -0.025734 0.20246 0.13898 0.12804 0.025236 -0.11964 -0.11383 0.096034 0.23179 -0.27541 -0.25008 0.26882 0.064498 0.10969 -0.017631 -0.052372 -0.20322 -0.041935 0.20956 -0.18863 0.24587 0.22831 0.17561 0.061934 -0.041554 -0.022353 0.049045 -0.097004 0.13981 0.044393 0.16379 0.094376 -0.12274 -0.0093697 -0.038674 0.0014986 -0.077986 0.053161 0.102 -0.16124 -0.072266 -0.045402 0.16203 0.088714 0.019692 -0.19845 -0.09657 0.10141 -0.024904 -0.092304 0.23236 -0.082741 -0.10107 0.12106 -0.021815 -0.20021 -0.16289 0.0205 0.063733 -0.081981 0.26067 -0.10747 0.16586 -0.013312 -0.069961 -0.18252 -0.084271 0.067535 -0.075169 0.12369 0.018461 0.01128 0.026761 -0.026543 0.23093 -0.0047754 -0.11531 0.011288 -0.085872 0.15171 -0.015181 -0.025528 
engineering 0.14442 -0.022385 -0.10408 0.11484 0.083506 0.088711 -0.41249 -0.15369 -0.067073 -0.093942 -0.20362 -0.039905 -0.050919 -0.057747 -0.27089 -0.069711 -0.063677 -0.0096418 -0.030063 0.23659 0.16421 0.15026 0.031708 -0.1386 -0.13475 0.11442 0.2695 -0.32225 -0.29308 0.31539 0.07353 0.12978 -0.021659 -0.063576 -0.23787 -0.050709 0.24761 -0.22123 0.28848 0.26944 0.20582 0.070621 -0.047408 -0.024556 0.060019 -0.11274 0.16561 0.0528 0.19061 0.10968 -0.14375 -0.010586 -0.046061 0.0033426 -0.093572 0.062369 0.11734 -0.18801 -0.082431 -0.054588 0.19006 0.10394 0.02285 -0.2332 -0.11766 0.11844 -0.028063 -0.10622 0.2721 -0.098799 -0.11757 0.1442 -0.026671 -0.23453 -0.19266 0.025054 0.073705 -0.098046 0.3049 -0.12883 0.19189 -0.01505 -0.082716 -0.21427 -0.097307 0.078467 -0.088732 0.14645 0.023173 0.014333 0.03082 -0.032131 0.26968 -0.0037748 -0.13591 0.015002 -0.10208 0.17755 -0.018867 -0.028539 
management 0.14154 -0.024852 -0.10329 0.11199 0.082642 0.086326 -0.40443 -0.15077 -0.067739 -0.09303 -0.19754 -0.038903 -0.048785 -0.058143 -0.26589 -0.067946 -0.064521 -0.0079344 -0.030587 0.23069 0.16262 0.14802 0.029359 -0.13521 -0.13085 0.10989 0.26307 -0.31435 -0.28801 0.3127 0.07276 0.12519 -0.022147 -0.060675 -0.23143 -0.047721 0.24086 -0.21463 0.28144 0.26175 0.20019 0.069378 -0.046455 -0.024159 0.057039 -0.11085 0.16131 0.051648 0.1885 0.10639 -0.13824 -0.011213 -0.044369 0.0015023 -0.090639 0.060088 0.11606 -0.18536 -0.083286 -0.05398 0.18555 0.10345 0.023112 -0.22669 -0.11482 0.11476 -0.030085 -0.10385 0.26596 -0.096071 -0.11449 0.13943 -0.025257 -0.22986 -0.18848 0.024592 0.072032 -0.095034 0.30075 -0.12451 0.18846 -0.01696 -0.079893 -0.20813 -0.097585 0.078449 -0.084528 0.14243 0.022961 0.012961 0.029734 -0.031782 0.26515 -0.0031786 -0.1325 0.016344 -0.098637 0.17299 -0.017224 -0.027624 
on 0.15548 -0.026203 -0.11777 0.13036 0.084022 0.091892 -0.45212 -0.16772 -0.073945 -0.10216 -0.22311 -0.043217 -0.053637 -0.060823 -0.29865 -0.076 -0.068448 -0.010073 -0.030043 0.25394 0.18234 0.16133 0.028385 -0.1511 -0.153 0.12546 0.29593 -0.34934 -0.32252 0.34601 0.082572 0.13886 -0.03164 -0.068919 -0.25896 -0.056425 0.2656 -0.23331 0.3128 0.29574 0.22314 0.08184 -0.052445 -0.023188 0.061373 -0.1236 0.17736 0.054179 0.2103 0.12154 -0.15979 -0.0072076 -0.051989 0.0069284 -0.098863 0.068028 0.1298 -0.20698 -0.088614 -0.062808 0.21173 0.11342 0.026352 -0.2499 -0.12479 0.12952 -0.02734 -0.12012 0.29375 -0.1108 -0.12663 0.16074 -0.033425 -0.2574 -0.20718 0.028244 0.076903 -0.10751 0.32969 -0.13995 0.20991 -0.013035 -0.090967 -0.23082 -0.10655 0.087315 -0.096529 0.15583 0.025681 0.020389 0.033885 -0.032909 0.29609 8.3433e-05 -0.14901 0.017157 -0.10269 0.19684 -0.016642 -0.025142 
or 0.14916 -0.028697 -0.11161 0.11449 0.086744 0.093016 -0.42197 -0.15733 -0.068237 -0.094832 -0.20837 -0.039235 -0.053396 -0.059559 -0.2789 -0.068186 -0.067749 -0.0094856 -0.03166 0.23506 0.172 0.15158 0.027531 -0.14027 -0.13814 0.11384 0.27939 -0.33417 -0.30619 0.32695 0.079127 0.13202 -0.025683 -0.06434 -0.2492 -0.051234 0.25153 -0.22897 0.29285 0.27617 0.20913 0.074147 -0.049531 -0.027683 0.059255 -0.11589 0.16704 0.052929 0.19846 0.10855 -0.15202 -0.012255 -0.051554 0.0061585 -0.09297 0.063846 0.12025 -0.19789 -0.086669 -0.057465 0.1954 0.10852 0.022418 -0.2371 -0.11878 0.11956 -0.030336 -0.10448 0.28181 -0.10185 -0.12371 0.1483 -0.023663 -0.2421 -0.20305 0.028227 0.07792 -0.097659 0.31294 -0.13172 0.1963 -0.018384 -0.081225 -0.22251 -0.10235 0.082339 -0.093647 0.15141 0.025059 0.01042 0.03446 -0.030505 0.28311 -0.006089 -0.14136 0.013834 -0.10817 0.18153 -0.014858 -0.02564 
understanding 0.16683 -0.026929 -0.12138 0.13392 0.093521 0.10151 -0.47579 -0.17696 -0.079296 -0.1083 -0.23482 -0.045571 -0.059374 -0.065166 -0.31277 -0.080392 -0.075793 -0.0097965 -0.035812 0.27167 0.18791 0.17359 0.034392 -0.16016 -0.1563 0.12982 0.31294 -0.37137 -0.33842 0.36791 0.084297 0.14811 -0.026494 -0.071907 -0.2735 -0.058158 0.28657 -0.25241 0.33253 0.31065 0.23995 0.083423 -0.054754 -0.028335 0.068315 -0.13108 0.19139 0.060897 0.22227 0.12606 -0.16495 -0.012131 -0.051332 0.0042069 -0.10544 0.070879 0.13654 -0.21912 -0.098388 -0.062479 0.21921 0.12029 0.026202 -0.26783 -0.1328 0.13805 -0.034705 -0.12346 0.3131 -0.11198 -0.13699 0.16659 -0.031486 -0.27024 -0.22144 0.028053 0.085565 -0.11178 0.35331 -0.14742 0.22201 -0.018002 -0.095206 -0.24705 -0.11374 0.092426 -0.10179 0.16907 0.026201 0.017376 0.034735 -0.036461 0.30958 -0.0046542 -0.15648 0.017467 -0.11534 0.20517 -0.021033 -0.032106 
based 0.13132 -0.020001 -0.096767 0.10922 0.076611 0.080476 -0.3844 -0.14344 -0.064186 -0.084516 -0.18706 -0.034575 -0.047473 -0.053732 -0.25149 -0.064571 -0.063425 -0.0090805 -0.029141 0.22067 0.15277 0.13839 0.027265 -0.12998 -0.12661 0.10529 0.25141 -0.29931 -0.2714 0.29614 0.067861 0.11817 -0.020493 -0.058066 -0.22138 -0.044762 0.23131 -0.20745 0.26639 0.2469 0.1904 0.06614 -0.042847 -0.024426 0.053196 -0.10389 0.15265 0.049191 0.1782 0.10206 -0.13073 -0.01006 -0.046491 0.0042421 -0.087302 0.057392 0.11126 -0.17383 -0.078567 -0.049869 0.17675 0.094205 0.022182 -0.21503 -0.10579 0.11224 -0.02651 -0.097982 0.25238 -0.092682 -0.10806 0.13296 -0.022677 -0.21678 -0.17771 0.022374 0.070021 -0.092043 0.28298 -0.11847 0.17835 -0.015208 -0.075842 -0.20055 -0.090835 0.072799 -0.08354 0.13455 0.018786 0.011978 0.027598 -0.030832 0.24907 -0.0045569 -0.12234 0.016322 -0.095727 0.16568 -0.017427 -0.026285 
logic 0.10434 -0.017575 -0.076515 0.084206 0.058329 0.063292 -0.30271 -0.11098 -0.052663 -0.068646 -0.15016 -0.027974 -0.036145 -0.042062 -0.19552 -0.049134 -0.047575 -0.0084525 -0.023345 0.17083 0.11922 0.10999 0.024129 -0.101 -0.099411 0.083818 0.19456 -0.23405 -0.21708 0.23131 0.053316 0.096166 -0.01411 -0.044905 -0.17379 -0.036094 0.18046 -0.16041 0.21055 0.19514 0.14981 0.055855 -0.035417 -0.017218 0.04624 -0.080929 0.12348 0.037822 0.14139 0.079447 -0.10313 -0.0093791 -0.034312 -0.0017761 -0.067243 0.046281 0.084558 -0.13543 -0.06083 -0.038886 0.13662 0.077426 0.020997 -0.16863 -0.083725 0.090476 -0.022966 -0.075964 0.1954 -0.069637 -0.085678 0.10391 -0.016749 -0.17148 -0.14079 0.01604 0.052256 -0.068248 0.22097 -0.094339 0.13871 -0.012383 -0.061946 -0.15614 -0.074629 0.059501 -0.06481 0.10752 0.017844 0.012359 0.024456 -0.02322 0.19728 -0.0032744 -0.10058 0.011364 -0.073951 0.12782 -0.01419 -0.020348 
business 0.089994 -0.013152 -0.064124 0.071564 0.053955 0.053111 -0.25573 -0.094741 -0.04069 -0.058079 -0.1272 -0.023222 -0.031509 -0.036768 -0.16812 -0.045019 -0.039169 -0.0039447 -0.018651 0.14678 0.10247 0.092924 0.017992 -0.085811 -0.084771 0.069145 0.16484 -0.19875 -0.18337 0.19696 0.048175 0.080734 -0.013058 -0.039277 -0.14631 -0.031721 0.15217 -0.13643 0.18001 0.1665 0.12846 0.0451 -0.028536 -0.015063 0.038007 -0.069775 0.10392 0.033272 0.11926 0.067408 -0.089305 -0.0075301 -0.028438 0.0023054 -0.058612 0.039155 0.072742 -0.11751 -0.051734 -0.035543 0.11902 0.063557 0.01429 -0.14368 -0.072523 0.074719 -0.01912 -0.067222 0.16787 -0.06197 -0.072374 0.088996 -0.018336 -0.14642 -0.1171 0.015319 0.044025 -0.060271 0.18759 -0.080522 0.12111 -0.010442 -0.052154 -0.13259 -0.062386 0.051028 -0.053367 0.09196 0.015068 0.0090421 0.018621 -0.021442 0.16894 -0.0015881 -0.084387 0.0082761 -0.060646 0.11071 -0.011725 -0.016771 
use 0.13917 -0.026883 -0.10213 0.11279 0.083759 0.085088 -0.40628 -0.15321 -0.066501 -0.091063 -0.20167 -0.038985 -0.050785 -0.057701 -0.26764 -0.070528 -0.06439 -0.0088754 -0.029032 0.22816 0.15722 0.14718 0.031115 -0.13459 -0.13688 0.10768 0.26306 -0.3181 -0.28711 0.31414 0.07215 0.12706 -0.021314 -0.058908 -0.23708 -0.052164 0.24227 -0.21805 0.28261 0.26144 0.20497 0.069525 -0.045174 -0.024957 0.05605 -0.11125 0.16038 0.050849 0.19199 0.10704 -0.13783 -0.014909 -0.045032 0.00058131 -0.089428 0.061376 0.11563 -0.18706 -0.082276 -0.052176 0.18119 0.098424 0.0229 -0.22885 -0.11712 0.11297 -0.030137 -0.10327 0.26472 -0.094757 -0.11686 0.13822 -0.023402 -0.22793 -0.19168 0.025729 0.074993 -0.095894 0.29997 -0.12842 0.18541 -0.019481 -0.080561 -0.21004 -0.099218 0.072987 -0.085152 0.1465 0.022184 0.014451 0.032679 -0.02654 0.26526 -0.0046005 -0.13662 0.01574 -0.099801 0.17172 -0.016907 -0.027561 
quality 0.15888 -0.025788 -0.11631 0.12829 0.089193 0.095112 -0.45242 -0.16835 -0.074752 -0.10472 -0.22369 -0.045906 -0.059224 -0.061676 -0.29888 -0.076253 -0.070923 -0.010662 -0.034331 0.25792 0.17986 0.16523 0.032156 -0.15422 -0.15076 0.125 0.29682 -0.35153 -0.32289 0.34969 0.080393 0.14241 -0.021825 -0.069797 -0.25897 -0.054683 0.27316 -0.2428 0.31642 0.29432 0.22611 0.080177 -0.051761 -0.027112 0.064672 -0.12487 0.17967 0.059382 0.21452 0.12234 -0.15432 -0.013184 -0.0505 0.0041403 -0.10161 0.067985 0.12941 -0.20686 -0.095926 -0.058534 0.20715 0.11466 0.029573 -0.25732 -0.12542 0.12848 -0.032949 -0.11763 0.29656 -0.10816 -0.12904 0.15679 -0.029815 -0.25672 -0.21391 0.027631 0.082186 -0.10586 0.33485 -0.14201 0.21197 -0.019223 -0.090593 -0.23715 -0.1069 0.0854 -0.095956 0.16346 0.024019 0.014212 0.034795 -0.0345 0.29854 -0.0050741 -0.15038 0.014609 -0.10928 0.19622 -0.018972 -0.031288 
mathematical 0.14418 -0.0242 -0.10477 0.11786 0.08277 0.088094 -0.41556 -0.15373 -0.068331 -0.095448 -0.20156 -0.038896 -0.051323 -0.057336 -0.27155 -0.069973 -0.06557 -0.0081437 -0.032625 0.23602 0.1635 0.14974 0.030099 -0.13939 -0.13427 0.11236 0.27014 -0.32297 -0.29394 0.31879 0.074468 0.12963 -0.020875 -0.062029 -0.23746 -0.049101 0.24966 -0.2203 0.28932 0.26811 0.2077 0.072655 -0.046438 -0.025396 0.058916 -0.11289 0.16625 0.052733 0.19362 0.10889 -0.14107 -0.011341 -0.047272 0.0029429 -0.093517 0.059908 0.11797 -0.18869 -0.086127 -0.054608 0.19103 0.1056 0.025003 -0.23282 -0.11558 0.11931 -0.028363 -0.1073 0.27201 -0.09996 -0.11456 0.14367 -0.027549 -0.23631 -0.19254 0.024776 0.07292 -0.096894 0.3066 -0.12601 0.19279 -0.016307 -0.081691 -0.21474 -0.099594 0.07944 -0.08693 0.14568 0.02172 0.013812 0.028469 -0.030007 0.26859 -0.005008 -0.13594 0.014744 -0.10137 0.17807 -0.017366 -0.029901 
solve 0.11058 -0.016463 -0.082495 0.089336 0.062885 0.064076 -0.31996 -0.11852 -0.053565 -0.073141 -0.15386 -0.032198 -0.038593 -0.046613 -0.20807 -0.052491 -0.049368 -0.0088082 -0.024989 0.18185 0.12482 0.1156 0.022318 -0.10772 -0.10652 0.087772 0.20692 -0.24516 -0.22419 0.24313 0.057157 0.099035 -0.017801 -0.048851 -0.18247 -0.040272 0.19114 -0.17007 0.22223 0.20704 0.15693 0.056936 -0.035304 -0.022055 0.044107 -0.083148 0.12656 0.040049 0.14819 0.082589 -0.10921 -0.01065 -0.035343 0.00097001 -0.069858 0.044929 0.089287 -0.14554 -0.065635 -0.043405 0.14605 0.079707 0.01808 -0.18063 -0.088276 0.090764 -0.021514 -0.082232 0.20886 -0.075695 -0.089927 0.11021 -0.019537 -0.18216 -0.14659 0.019791 0.05612 -0.076851 0.23219 -0.10063 0.14583 -0.010785 -0.064588 -0.1634 -0.079547 0.062751 -0.06477 0.11106 0.017933 0.0079545 0.020602 -0.025533 0.20783 0.00037398 -0.10498 0.012504 -0.077863 0.13666 -0.014928 -0.020921 
such 0.10789 -0.018309 -0.078851 0.084781 0.062489 0.066746 -0.30791 -0.11628 -0.050022 -0.070937 -0.15224 -0.029108 -0.039353 -0.042242 -0.20384 -0.052816 -0.047631 -0.0063543 -0.024755 0.17435 0.12182 0.11315 0.022312 -0.10467 -0.10088 0.084767 0.20481 -0.24152 -0.22118 0.23805 0.055336 0.097044 -0.014787 -0.047313 -0.17633 -0.038838 0.18529 -0.16515 0.21577 0.20151 0.15686 0.054197 -0.03574 -0.017772 0.042635 -0.081947 0.12723 0.039645 0.14763 0.082533 -0.10501 -0.0076072 -0.033712 0.0001651 -0.070243 0.047854 0.08868 -0.13973 -0.063197 -0.043998 0.14072 0.076887 0.016592 -0.1731 -0.088612 0.089657 -0.022374 -0.076815 0.20368 -0.076428 -0.087752 0.10674 -0.019725 -0.17505 -0.14405 0.020779 0.054259 -0.073926 0.22744 -0.095012 0.14373 -0.014322 -0.062801 -0.16077 -0.077869 0.060238 -0.064466 0.10972 0.014858 0.012213 0.021553 -0.026447 0.20092 -0.0038003 -0.10091 0.011061 -0.075916 0.13255 -0.011623 -0.022715 
tools 0.092618 -0.015242 -0.069125 0.076982 0.054959 0.057795 -0.26912 -0.099479 -0.046819 -0.061238 -0.13173 -0.02776 -0.032585 -0.037762 -0.1758 -0.04597 -0.041762 -0.0056239 -0.019095 0.15591 0.10761 0.095159 0.016096 -0.089228 -0.09219 0.07283 0.17664 -0.21468 -0.19218 0.20599 0.050191 0.086207 -0.013866 -0.042599 -0.15967 -0.030818 0.16274 -0.14334 0.1916 0.17717 0.13374 0.046269 -0.032601 -0.018546 0.036832 -0.074362 0.10784 0.034053 0.12674 0.071241 -0.094988 -0.01025 -0.029938 0.0024208 -0.061627 0.03956 0.076184 -0.12283 -0.054366 -0.035982 0.12381 0.066357 0.017726 -0.15205 -0.07903 0.080166 -0.017548 -0.071503 0.17789 -0.066041 -0.07853 0.095635 -0.01681 -0.15436 -0.12865 0.016926 0.049996 -0.064032 0.19983 -0.08372 0.12888 -0.0076777 -0.050644 -0.13968 -0.065312 0.053956 -0.05866 0.097018 0.015582 0.0095216 0.021259 -0.020074 0.17743 -0.0047636 -0.089334 0.011854 -0.067775 0.11651 -0.0098173 -0.019518 
Analyze 0.11146 -0.015836 -0.079353 0.088787 0.064483 0.066245 -0.31955 -0.11847 -0.052689 -0.073992 -0.15505 -0.029502 -0.039193 -0.044475 -0.20709 -0.05473 -0.048855 -0.0041113 -0.022029 0.18 0.12574 0.11347 0.021887 -0.1059 -0.10292 0.082647 0.207 -0.24689 -0.22342 0.24441 0.057108 0.09901 -0.017332 -0.049858 -0.18071 -0.037008 0.18999 -0.16866 0.2219 0.20635 0.15883 0.056361 -0.038305 -0.017054 0.045648 -0.086345 0.12874 0.041413 0.14756 0.084376 -0.1092 -0.0085086 -0.035551 0.00076919 -0.07012 0.049841 0.089766 -0.14323 -0.065647 -0.042202 0.1446 0.079453 0.017028 -0.17804 -0.087977 0.089995 -0.022939 -0.080973 0.20832 -0.076437 -0.09054 0.10947 -0.020914 -0.17832 -0.14809 0.018507 0.057232 -0.072429 0.2343 -0.099483 0.14935 -0.013293 -0.063304 -0.16149 -0.075175 0.062771 -0.068379 0.11365 0.018793 0.012401 0.023863 -0.0238 0.20841 -0.0052791 -0.10422 0.010771 -0.074881 0.13483 -0.012127 -0.020177 
fundamental 0.14137 -0.023961 -0.10276 0.11398 0.082447 0.087529 -0.40739 -0.15005 -0.067179 -0.092845 -0.1998 -0.037938 -0.049425 -0.05797 -0.26513 -0.067977 -0.062867 -0.0072039 -0.03211 0.23211 0.16166 0.14665 0.029122 -0.13826 -0.13222 0.11275 0.26674 -0.31647 -0.28942 0.31389 0.073838 0.12712 -0.020042 -0.062689 -0.23504 -0.047913 0.24299 -0.21886 0.28279 0.26319 0.20345 0.072049 -0.046769 -0.023528 0.060715 -0.10987 0.16443 0.052566 0.19088 0.10865 -0.13936 -0.011137 -0.047009 0.0023051 -0.089326 0.059783 0.11762 -0.18335 -0.083727 -0.056174 0.18707 0.10363 0.024373 -0.2283 -0.11513 0.11742 -0.029043 -0.10438 0.26674 -0.095488 -0.11651 0.14062 -0.026931 -0.23241 -0.1884 0.023948 0.073887 -0.095539 0.30021 -0.1257 0.18796 -0.015753 -0.081174 -0.21097 -0.0975 0.077749 -0.084777 0.14344 0.022835 0.013095 0.03114 -0.030276 0.26715 -0.0042716 -0.13264 0.014574 -0.098954 0.17438 -0.01747 -0.027529 
ethical 0.15281 -0.02285 -0.11222 0.12322 0.087444 0.093151 -0.4398 -0.16395 -0.070934 -0.10021 -0.2139 -0.041551 -0.05536 -0.05965 -0.28995 -0.073317 -0.068429 -0.0090647 -0.033494 0.25051 0.17698 0.16034 0.029765 -0.14711 -0.14156 0.12125 0.2874 -0.34273 -0.31106 0.33881 0.078138 0.13547 -0.025603 -0.066312 -0.25233 -0.053353 0.26445 -0.2335 0.30861 0.28591 0.22095 0.077157 -0.051257 -0.027046 0.063373 -0.11919 0.1775 0.056678 0.20619 0.11491 -0.15192 -0.011776 -0.050744 0.0023886 -0.10006 0.065209 0.12771 -0.20048 -0.091292 -0.05847 0.20271 0.11209 0.026078 -0.24543 -0.12567 0.12438 -0.030801 -0.11283 0.29024 -0.10543 -0.12388 0.15281 -0.029828 -0.25199 -0.20421 0.026182 0.077958 -0.10475 0.32559 -0.13636 0.20638 -0.018706 -0.08823 -0.22797 -0.10698 0.08627 -0.092326 0.15572 0.026672 0.015139 0.032207 -0.033441 0.28537 -0.0072378 -0.14271 0.016193 -0.10855 0.19004 -0.020305 -0.031886 
life 0.10842 -0.018126 -0.07636 0.090966 0.065271 0.067093 -0.30887 -0.11834 -0.048978 -0.071255 -0.15327 -0.029777 -0.039915 -0.041304 -0.20521 -0.052798 -0.047747 -0.0045397 -0.023784 0.17643 0.11912 0.11596 0.022528 -0.10557 -0.10211 0.087621 0.2065 -0.24373 -0.22354 0.23694 0.059962 0.10038 -0.017651 -0.047924 -0.18049 -0.035969 0.1877 -0.16754 0.21596 0.20062 0.15472 0.054361 -0.037619 -0.018298 0.042211 -0.083631 0.12558 0.039768 0.14469 0.083566 -0.1054 -0.0094296 -0.036856 0.0024652 -0.06887 0.042957 0.085682 -0.14051 -0.065545 -0.04128 0.14368 0.077205 0.018575 -0.17848 -0.084229 0.090189 -0.023105 -0.079138 0.20193 -0.070752 -0.087067 0.10633 -0.021929 -0.17539 -0.14609 0.02125 0.055583 -0.071675 0.22886 -0.096927 0.14692 -0.011789 -0.05958 -0.16393 -0.076467 0.058816 -0.067525 0.10969 0.016883 0.012252 0.021391 -0.020616 0.20456 -0.0034394 -0.10369 0.01141 -0.073196 0.13229 -0.012044 -0.023947 
systems 0.11786 -0.02228 -0.088028 0.09667 0.068713 0.070879 -0.33683 -0.12971 -0.05439 -0.07776 -0.16636 -0.035931 -0.041847 -0.047532 -0.2212 -0.058947 -0.052365 -0.0060773 -0.02533 0.19504 0.13543 0.12185 0.024353 -0.11318 -0.11073 0.091974 0.22194 -0.2658 -0.24184 0.26142 0.060913 0.10723 -0.018224 -0.050328 -0.19624 -0.038022 0.20345 -0.18159 0.23733 0.21993 0.17054 0.059262 -0.036969 -0.020181 0.047482 -0.093054 0.13635 0.044664 0.16032 0.089631 -0.11782 -0.010263 -0.038594 0.0012619 -0.076552 0.052929 0.099289 -0.15471 -0.070325 -0.044297 0.15676 0.08577 0.018557 -0.192 -0.095811 0.098608 -0.025276 -0.088899 0.22386 -0.082772 -0.097229 0.11781 -0.023528 -0.19511 -0.15804 0.022523 0.061472 -0.080481 0.25143 -0.10466 0.15745 -0.014579 -0.066557 -0.17707 -0.081567 0.064605 -0.072375 0.12229 0.018244 0.0112 0.026168 -0.025854 0.22413 -0.0056913 -0.11296 0.011902 -0.082798 0.14499 -0.013183 -0.021596 
components 0.14757 -0.024489 -0.11007 0.11803 0.08505 0.090103 -0.42348 -0.15763 -0.069986 -0.097137 -0.20854 -0.040797 -0.052206 -0.057785 -0.27819 -0.071499 -0.067114 -0.0069009 -0.032449 0.24203 0.16875 0.15288 0.028418 -0.14267 -0.13963 0.11687 0.2771 -0.33044 -0.30071 0.32644 0.076321 0.13208 -0.022818 -0.064681 -0.24344 -0.049482 0.25331 -0.2249 0.29532 0.27361 0.21275 0.074323 -0.048635 -0.024592 0.062368 -0.11624 0.16963 0.052509 0.19692 0.11124 -0.14512 -0.01258 -0.047409 0.0029861 -0.094422 0.065283 0.11934 -0.19279 -0.086436 -0.058142 0.19452 0.10699 0.026427 -0.23831 -0.11882 0.12128 -0.031264 -0.1085 0.27914 -0.10232 -0.12139 0.14741 -0.027342 -0.24077 -0.19622 0.024935 0.073993 -0.098641 0.31341 -0.13057 0.19667 -0.016434 -0.084599 -0.2203 -0.10232 0.081711 -0.091168 0.1497 0.024391 0.014004 0.030554 -0.032013 0.27641 -0.007311 -0.14006 0.018057 -0.10187 0.18271 -0.017177 -0.028546 
Identify 0.11653 -0.017939 -0.085824 0.092156 0.066887 0.069653 -0.33684 -0.12517 -0.054691 -0.078021 -0.16408 -0.034031 -0.041244 -0.045179 -0.21828 -0.056765 -0.05288 -0.0064945 -0.024619 0.19207 0.13205 0.11981 0.024052 -0.11322 -0.11127 0.091597 0.21755 -0.26212 -0.23982 0.25734 0.059291 0.10468 -0.016878 -0.049548 -0.1898 -0.041449 0.19939 -0.17719 0.23451 0.21672 0.16495 0.059321 -0.03923 -0.018958 0.045849 -0.091467 0.13403 0.041943 0.15523 0.088168 -0.11396 -0.0094651 -0.036793 0.0022842 -0.073634 0.048756 0.094103 -0.152 -0.068471 -0.043261 0.15451 0.084571 0.020338 -0.18871 -0.093102 0.097251 -0.023263 -0.086531 0.2189 -0.079428 -0.095253 0.11624 -0.021361 -0.18986 -0.15459 0.02159 0.057713 -0.078063 0.24578 -0.10312 0.15418 -0.013426 -0.067035 -0.17266 -0.07931 0.064762 -0.070251 0.11713 0.020087 0.01057 0.022827 -0.026748 0.21671 -0.0055765 -0.10917 0.011219 -0.081232 0.14385 -0.012934 -0.024466 
Design 0.10358 -0.014948 -0.076787 0.083649 0.058929 0.061417 -0.29566 -0.1101 -0.051277 -0.066765 -0.1466 -0.025936 -0.03604 -0.040352 -0.19387 -0.050621 -0.046366 -0.0079687 -0.021153 0.17005 0.1185 0.10655 0.019328 -0.10264 -0.097433 0.081814 0.19141 -0.22876 -0.20918 0.22708 0.054278 0.091314 -0.015903 -0.045382 -0.17039 -0.036794 0.17659 -0.15812 0.20551 0.19028 0.14661 0.05301 -0.035103 -0.018761 0.04245 -0.081526 0.11812 0.03801 0.13746 0.075202 -0.10269 -0.0062411 -0.032883 0.0020603 -0.066546 0.042101 0.085124 -0.13503 -0.059748 -0.039792 0.13626 0.076442 0.018126 -0.16611 -0.080539 0.084405 -0.021343 -0.073133 0.19194 -0.070488 -0.085612 0.10261 -0.018878 -0.17048 -0.13848 0.016869 0.05361 -0.068399 0.2194 -0.094414 0.13598 -0.013294 -0.058279 -0.15238 -0.068736 0.05798 -0.063441 0.10419 0.015937 0.011657 0.020251 -0.021781 0.19427 -0.0030983 -0.096869 0.010767 -0.073471 0.12627 -0.012778 -0.018784 
Develop 0.1275 -0.02076 -0.093398 0.10157 0.074307 0.076925 -0.36958 -0.13845 -0.059082 -0.085201 -0.18247 -0.035152 -0.044122 -0.051349 -0.24293 -0.062163 -0.059029 -0.0064003 -0.028785 0.21052 0.1461 0.13505 0.027599 -0.12439 -0.11972 0.098807 0.24223 -0.28658 -0.26142 0.28384 0.069342 0.11425 -0.01808 -0.055726 -0.21172 -0.043734 0.22282 -0.1968 0.25906 0.23934 0.18422 0.065904 -0.043561 -0.020831 0.050592 -0.10021 0.14693 0.048629 0.17378 0.09734 -0.12738 -0.011119 -0.042304 0.0025536 -0.083347 0.056199 0.10618 -0.1693 -0.073999 -0.049325 0.16889 0.09212 0.02246 -0.20922 -0.10252 0.10385 -0.025751 -0.095154 0.24304 -0.090717 -0.10518 0.12958 -0.025779 -0.21009 -0.1709 0.020531 0.066721 -0.08606 0.27169 -0.11399 0.17079 -0.013765 -0.073347 -0.19128 -0.088541 0.072655 -0.076554 0.13155 0.020658 0.013576 0.026896 -0.025334 0.2421 -0.0025145 -0.12192 0.013379 -0.089688 0.15606 -0.013885 -0.026979 
application 0.20727 -0.033991 -0.15224 0.16815 0.1212 0.12838 -0.60274 -0.22383 -0.099304 -0.13777 -0.29496 -0.056269 -0.07398 -0.084898 -0.39531 -0.10039 -0.092314 -0.014858 -0.045894 0.33994 0.23913 0.21845 0.042957 -0.20432 -0.19516 0.16556 0.39383 -0.46958 -0.43002 0.46445 0.10806 0.18612 -0.031088 -0.091881 -0.34753 -0.071313 0.36005 -0.32152 0.42041 0.39135 0.30051 0.10572 -0.068702 -0.035847 0.085352 -0.16395 0.24095 0.075923 0.28121 0.16054 -0.20799 -0.016607 -0.067494 0.0012359 -0.13552 0.090354 0.17324 -0.27539 -0.12488 -0.082458 0.27583 0.15098 0.032746 -0.33806 -0.16563 0.17237 -0.041979 -0.15667 0.39426 -0.14581 -0.17103 0.20644 -0.04063 -0.34416 -0.27998 0.035334 0.10656 -0.14025 0.44472 -0.18568 0.278 -0.023093 -0.11846 -0.31298 -0.14459 0.11821 -0.12916 0.21244 0.032267 0.022054 0.041412 -0.047503 0.3943 -0.0068638 -0.19903 0.021405 -0.14562 0.25943 -0.025741 -0.040938 
Explain 0.10979 -0.017776 -0.0805 0.090158 0.064384 0.068172 -0.31712 -0.11699 -0.051697 -0.072394 -0.15557 -0.02898 -0.037964 -0.042504 -0.20931 -0.054254 -0.051352 -0.0062824 -0.023889 0.17975 0.12476 0.11439 0.022962 -0.10706 -0.10449 0.08709 0.20687 -0.24699 -0.22412 0.24475 0.055434 0.099395 -0.015669 -0.048826 -0.18262 -0.038763 0.19111 -0.16753 0.22035 0.20537 0.16055 0.05549 -0.037226 -0.018236 0.046336 -0.088404 0.12494 0.039716 0.14812 0.085819 -0.11191 -0.010329 -0.035638 0.003642 -0.073843 0.048417 0.090554 -0.14235 -0.066022 -0.040231 0.14552 0.079264 0.018333 -0.17802 -0.088432 0.08879 -0.022 -0.083407 0.20561 -0.07632 -0.089632 0.11156 -0.02041 -0.17882 -0.14634 0.019238 0.056519 -0.074446 0.23359 -0.098376 0.14685 -0.012114 -0.062508 -0.16366 -0.075218 0.062359 -0.067041 0.11129 0.016943 0.0097343 0.022333 -0.022931 0.20896 -0.0066508 -0.10606 0.010391 -0.077785 0.13522 -0.012475 -0.02298 
Describe 0.084982 -0.013513 -0.061495 0.068255 0.048544 0.050963 -0.24491 -0.090922 -0.041661 -0.05828 -0.12134 -0.023631 -0.030782 -0.032578 -0.16019 -0.041732 -0.039235 -0.0051528 -0.019089 0.14238 0.09824 0.089678 0.018414 -0.085009 -0.080534 0.066421 0.16117 -0.19078 -0.17491 0.18865 0.044278 0.076356 -0.012198 -0.038131 -0.14235 -0.029043 0.14824 -0.13108 0.17081 0.15979 0.12161 0.040852 -0.029347 -0.016843 0.035556 -0.068009 0.099413 0.031794 0.1142 0.066516 -0.087587 -0.0064229 -0.028642 0.0013153 -0.05365 0.038678 0.069668 -0.11219 -0.049766 -0.033675 0.1122 0.062464 0.015884 -0.13945 -0.070094 0.068785 -0.017902 -0.064219 0.16269 -0.057497 -0.069047 0.084159 -0.014233 -0.14039 -0.11426 0.016363 0.046125 -0.059701 0.18223 -0.074329 0.11501 -0.011812 -0.048614 -0.12625 -0.058888 0.048051 -0.05231 0.088145 0.014427 0.0092629 0.01971 -0.020674 0.16156 -0.0011246 -0.081366 0.008294 -0.05909 0.10446 -0.010023 -0.017472 
algorithms 0.084798 -0.01457 -0.06097 0.067455 0.049193 0.051357 -0.24531 -0.090804 -0.038015 -0.056742 -0.12074 -0.023085 -0.029535 -0.033722 -0.16171 -0.042961 -0.04078 -0.005466 -0.018983 0.13842 0.097144 0.091196 0.018163 -0.083069 -0.080708 0.065554 0.16067 -0.19227 -0.17558 0.18854 0.044846 0.076861 -0.013595 -0.037267 -0.13964 -0.028836 0.14681 -0.13024 0.1721 0.15903 0.123 0.042099 -0.025986 -0.014281 0.036414 -0.066648 0.098784 0.031671 0.11447 0.063491 -0.085787 -0.0054432 -0.028891 0.0028849 -0.054447 0.037595 0.068728 -0.11224 -0.051394 -0.033102 0.11181 0.061727 0.014927 -0.13942 -0.068554 0.069797 -0.015503 -0.063729 0.16101 -0.057646 -0.069171 0.084874 -0.016903 -0.14026 -0.11347 0.016166 0.043782 -0.056559 0.18059 -0.07606 0.11256 -0.011375 -0.04972 -0.12673 -0.059582 0.049109 -0.051594 0.087013 0.012843 0.0088057 0.017946 -0.017281 0.16079 -0.0033025 -0.079939 0.0075963 -0.058639 0.10522 -0.011042 -0.015198 
circuits 0.1217 -0.020886 -0.089456 0.099392 0.0696 0.073095 -0.35134 -0.12991 -0.057453 -0.081285 -0.17183 -0.033253 -0.045166 -0.048875 -0.22995 -0.058434 -0.054847 -0.0071872 -0.02693 0.20084 0.13847 0.12769 0.023173 -0.11889 -0.11198 0.095952 0.22781 -0.27392 -0.24832 0.2698 0.063867 0.10933 -0.017444 -0.052786 -0.20097 -0.043509 0.21094 -0.18507 0.24496 0.22762 0.17441 0.062046 -0.040597 -0.020327 0.050176 -0.096103 0.14065 0.045475 0.16493 0.094193 -0.1201 -0.0085496 -0.039516 0.0014524 -0.078684 0.053274 0.099057 -0.15973 -0.071911 -0.045381 0.16196 0.088073 0.023366 -0.19512 -0.10113 0.10041 -0.024354 -0.091006 0.22835 -0.083087 -0.10049 0.12288 -0.024797 -0.2 -0.16174 0.021525 0.062723 -0.082205 0.25754 -0.10627 0.1624 -0.01518 -0.068224 -0.17993 -0.087081 0.067801 -0.072315 0.12281 0.018802 0.010268 0.02637 -0.02838 0.22858 -0.0041255 -0.11232 0.012518 -0.084736 0.15038 -0.012767 -0.022909 
by 0.091035 -0.014392 -0.075594 0.071556 0.057234 0.054783 -0.26791 -0.10523 -0.040387 -0.059678 -0.13077 -0.026641 -0.032629 -0.041529 -0.17811 -0.045413 -0.041499 -0.0090455 -0.025495 0.15533 0.10675 0.097523 0.017803 -0.09104 -0.084724 0.069436 0.17619 -0.20345 -0.19198 0.2073 0.053162 0.081038 -0.014229 -0.039515 -0.15697 -0.031694 0.16309 -0.1479 0.18436 0.16978 0.135 0.0448 -0.034974 -0.014045 0.039944 -0.075319 0.10601 0.034658 0.1315 0.070219 -0.095097 -0.0073061 -0.032053 -0.0020079 -0.058039 0.037572 0.077106 -0.12041 -0.053888 -0.033915 0.12528 0.069745 0.013134 -0.15023 -0.073558 0.077225 -0.019703 -0.069362 0.17218 -0.059588 -0.076026 0.091303 -0.013614 -0.14776 -0.12694 0.016698 0.048326 -0.065205 0.19959 -0.084338 0.12192 -0.012935 -0.05186 -0.1421 -0.061589 0.055077 -0.060589 0.10099 0.01057 0.0087566 0.016339 -0.021249 0.18161 -0.0020602 -0.094075 0.0074947 -0.070316 0.11191 -0.01217 -0.023442 
real 0.16237 -0.024361 -0.11813 0.13441 0.093776 0.10121 -0.47429 -0.17264 -0.076655 -0.10702 -0.23129 -0.046572 -0.057601 -0.067017 -0.31004 -0.078455 -0.073868 -0.013049 -0.034603 0.26779 0.18626 0.17367 0.034018 -0.16125 -0.15302 0.12782 0.30649 -0.36533 -0.33601 0.36145 0.084551 0.14781 -0.025115 -0.073134 -0.27207 -0.054688 0.28128 -0.25221 0.3294 0.30933 0.23422 0.082182 -0.054855 -0.027464 0.063298 -0.12822 0.18562 0.061869 0.21922 0.12146 -0.16133 -0.015113 -0.0519 0.0021076 -0.10214 0.070556 0.13391 -0.21193 -0.097135 -0.060544 0.21395 0.11989 0.027208 -0.26315 -0.13351 0.1365 -0.031179 -0.11976 0.31008 -0.10889 -0.13646 0.16372 -0.030446 -0.26773 -0.22057 0.024684 0.083268 -0.10855 0.34708 -0.14483 0.21984 -0.01945 -0.090669 -0.24203 -0.1108 0.091531 -0.099534 0.1657 0.028592 0.015111 0.034502 -0.033198 0.30797 -0.0056121 -0.15538 0.017593 -0.11623 0.201 -0.01912 -0.033087 
principles 0.11809 -0.018383 -0.086437 0.096735 0.06863 0.071803 -0.3388 -0.1255 -0.054792 -0.075314 -0.1666 -0.031035 -0.042066 -0.046792 -0.22247 -0.056587 -0.051719 -0.0074528 -0.025573 0.19374 0.1346 0.12302 0.024745 -0.11276 -0.11206 0.092758 0.22068 -0.26366 -0.23931 0.26006 0.061548 0.10573 -0.017806 -0.049269 -0.19465 -0.039951 0.20222 -0.18041 0.23654 0.22091 0.16861 0.058791 -0.039822 -0.019812 0.047473 -0.092651 0.13494 0.044577 0.15834 0.091497 -0.11653 -0.010887 -0.037548 0.00041449 -0.075822 0.051496 0.098348 -0.15321 -0.070478 -0.045312 0.15519 0.086475 0.020209 -0.19139 -0.095394 0.098624 -0.025274 -0.087576 0.22161 -0.080304 -0.094444 0.11855 -0.020601 -0.1897 -0.15707 0.020078 0.060311 -0.078047 0.25103 -0.10422 0.15809 -0.01152 -0.068366 -0.17444 -0.080772 0.06426 -0.071974 0.12072 0.018676 0.010919 0.023545 -0.024968 0.22174 -0.004856 -0.11147 0.013891 -0.082193 0.14428 -0.013176 -0.023565 
evaluate 0.12165 -0.019605 -0.088162 0.094767 0.067678 0.072834 -0.34412 -0.1292 -0.055809 -0.079424 -0.17132 -0.033208 -0.042223 -0.048137 -0.22589 -0.056721 -0.054329 -0.0074436 -0.026571 0.19662 0.13775 0.12381 0.02504 -0.11637 -0.11341 0.093818 0.22562 -0.26861 -0.24583 0.26414 0.061456 0.10887 -0.016649 -0.050706 -0.20032 -0.043507 0.20546 -0.182 0.24041 0.2243 0.17116 0.059344 -0.037966 -0.022068 0.048295 -0.093103 0.13874 0.045122 0.16249 0.09235 -0.11877 -0.010515 -0.038983 0.00093399 -0.076741 0.049993 0.098407 -0.15616 -0.072407 -0.047669 0.1584 0.087879 0.021127 -0.19374 -0.095547 0.099277 -0.02456 -0.086826 0.22568 -0.084421 -0.097143 0.11875 -0.02083 -0.1957 -0.16011 0.01943 0.065545 -0.080153 0.25608 -0.106 0.16411 -0.011832 -0.068069 -0.17951 -0.08146 0.064256 -0.075275 0.12257 0.020061 0.011608 0.02454 -0.027146 0.22353 -0.0028921 -0.11391 0.013067 -0.082671 0.14791 -0.012665 -0.022328 
project 0.14831 -0.023608 -0.10953 0.11998 0.084535 0.092648 -0.43069 -0.15918 -0.068007 -0.098135 -0.20979 -0.039788 -0.053456 -0.059127 -0.28357 -0.071688 -0.065927 -0.0087513 -0.033514 0.2461 0.17017 0.15734 0.029892 -0.1446 -0.14241 0.11558 0.28351 -0.33505 -0.30526 0.33087 0.077748 0.13351 -0.020803 -0.064409 -0.24756 -0.054148 0.2595 -0.22982 0.30051 0.27867 0.21417 0.074746 -0.048068 -0.023431 0.058149 -0.1185 0.17291 0.05573 0.19988 0.1156 -0.14806 -0.011818 -0.051065 0.004041 -0.096083 0.065317 0.12485 -0.19799 -0.090498 -0.057537 0.19706 0.1091 0.024816 -0.24148 -0.12125 0.12314 -0.030226 -0.10962 0.28239 -0.1017 -0.12321 0.14833 -0.027239 -0.24472 -0.20025 0.026723 0.075042 -0.10052 0.31729 -0.13276 0.20011 -0.018331 -0.084742 -0.2227 -0.1017 0.080494 -0.091348 0.15273 0.024475 0.01399 0.02991 -0.033208 0.2812 -0.0050163 -0.13916 0.015783 -0.10322 0.18246 -0.020182 -0.028189 
from 0.066215 -0.013384 -0.044361 0.05761 0.041339 0.041675 -0.19479 -0.071128 -0.030021 -0.043442 -0.096701 -0.017507 -0.024205 -0.027355 -0.12992 -0.032731 -0.033355 -0.0036752 -0.013702 0.11265 0.076895 0.072937 0.013556 -0.06399 -0.062041 0.051776 0.12671 -0.15091 -0.14013 0.15118 0.034113 0.058953 -0.0098498 -0.027875 -0.11148 -0.021431 0.11564 -0.10563 0.13301 0.12351 0.096559 0.033851 -0.02346 -0.013594 0.026227 -0.051889 0.076799 0.023095 0.091554 0.051449 -0.066453 -0.0095756 -0.020268 -0.0011827 -0.045076 0.030684 0.054146 -0.086743 -0.0428 -0.0226 0.091475 0.051994 0.0080489 -0.11034 -0.054228 0.057938 -0.010535 -0.047572 0.12598 -0.046977 -0.05526 0.067848 -0.01112 -0.10845 -0.089881 0.014062 0.03316 -0.046245 0.14536 -0.0588 0.094237 -0.007398 -0.03725 -0.10207 -0.043957 0.039723 -0.042398 0.067016 0.0084301 0.0058274 0.015858 -0.014487 0.12929 -0.0027741 -0.063336 0.0073237 -0.048691 0.082582 -0.0084677 -0.013181 
develop 0.15513 -0.023802 -0.11347 0.1241 0.089005 0.095041 -0.4494 -0.16645 -0.072784 -0.10344 -0.22112 -0.043127 -0.053554 -0.063978 -0.29483 -0.07439 -0.070803 -0.0078116 -0.033684 0.25494 0.17851 0.16223 0.032333 -0.15115 -0.14635 0.12082 0.29416 -0.34696 -0.31741 0.34533 0.084488 0.13949 -0.024367 -0.066953 -0.25601 -0.052074 0.26893 -0.23955 0.31431 0.29096 0.22257 0.078841 -0.05279 -0.026501 0.064021 -0.12175 0.17774 0.059119 0.20901 0.11826 -0.15415 -0.012586 -0.05089 0.0017317 -0.099868 0.067171 0.13012 -0.2053 -0.090653 -0.060099 0.20611 0.11182 0.028459 -0.25418 -0.1269 0.12603 -0.031804 -0.11355 0.29342 -0.10702 -0.12851 0.15746 -0.029842 -0.2539 -0.20835 0.026633 0.081971 -0.10626 0.32979 -0.13825 0.20712 -0.014753 -0.089899 -0.2321 -0.10621 0.087434 -0.092694 0.15893 0.024733 0.014136 0.03052 -0.033135 0.29473 -0.0043345 -0.14677 0.01702 -0.10833 0.19004 -0.01836 -0.031579 
requirements 0.11886 -0.018593 -0.085129 0.093108 0.067163 0.072049 -0.33304 -0.12404 -0.055395 -0.076652 -0.16527 -0.033422 -0.042623 -0.047509 -0.21995 -0.055614 -0.052445 -0.0067972 -0.025406 0.1916 0.13415 0.12084 0.024238 -0.11251 -0.10922 0.092084 0.21876 -0.26202 -0.23854 0.25983 0.059525 0.10549 -0.018326 -0.049997 -0.19368 -0.041508 0.20229 -0.18062 0.23405 0.21798 0.16837 0.059377 -0.038487 -0.019444 0.048454 -0.09235 0.13487 0.042978 0.1565 0.088817 -0.11544 -0.0091378 -0.037931 0.0026995 -0.074818 0.049172 0.096354 -0.15401 -0.070715 -0.047235 0.15665 0.082964 0.018014 -0.18895 -0.094887 0.094925 -0.024333 -0.085944 0.22072 -0.079208 -0.094477 0.1162 -0.023013 -0.19144 -0.15721 0.019357 0.059618 -0.078938 0.2474 -0.10311 0.15643 -0.012953 -0.066821 -0.1743 -0.079137 0.065446 -0.070736 0.11761 0.020278 0.011015 0.024908 -0.02353 0.22046 -0.0054179 -0.11055 0.01201 -0.081082 0.14271 -0.011487 -0.023009 
language 0.14137 -0.024571 -0.10337 0.11696 0.08361 0.087334 -0.41004 -0.15446 -0.069133 -0.092073 -0.20404 -0.039446 -0.050592 -0.056876 -0.27034 -0.06894 -0.064259 -0.0083765 -0.030871 0.23421 0.16377 0.15172 0.02884 -0.13674 -0.13539 0.1121 0.26748 -0.32034 -0.29337 0.31623 0.075096 0.13029 -0.018928 -0.061796 -0.23729 -0.052078 0.24586 -0.22012 0.2858 0.26694 0.20606 0.070781 -0.046465 -0.024765 0.059534 -0.10959 0.16466 0.05564 0.19194 0.10994 -0.14219 -0.0094009 -0.04493 0.0018916 -0.093222 0.059379 0.1185 -0.18655 -0.084504 -0.055145 0.18942 0.10547 0.023696 -0.22979 -0.11594 0.11668 -0.027286 -0.10329 0.26913 -0.098946 -0.11581 0.14212 -0.027251 -0.23344 -0.19277 0.024872 0.072742 -0.096728 0.30411 -0.12734 0.19262 -0.014134 -0.07956 -0.21486 -0.10001 0.079169 -0.088115 0.14584 0.022978 0.012938 0.027759 -0.033684 0.27013 -0.0056544 -0.13599 0.013957 -0.10177 0.17573 -0.018252 -0.028467 
writing 0.18213 -0.030711 -0.13075 0.14676 0.1045 0.10827 -0.51994 -0.19143 -0.085363 -0.11978 -0.25568 -0.047727 -0.064521 -0.07357 -0.3403 -0.086864 -0.083619 -0.010057 -0.040058 0.29604 0.20569 0.18733 0.037264 -0.17499 -0.1703 0.14229 0.34121 -0.40573 -0.37033 0.39902 0.094016 0.16367 -0.02554 -0.076386 -0.29939 -0.062544 0.31038 -0.27553 0.364 0.33815 0.25827 0.089971 -0.059822 -0.032815 0.073179 -0.14165 0.2096 0.068047 0.23942 0.13697 -0.1785 -0.013787 -0.057984 0.0020481 -0.11676 0.075221 0.14713 -0.23751 -0.1049 -0.069061 0.23836 0.13273 0.030014 -0.29114 -0.14672 0.14958 -0.037161 -0.13406 0.34266 -0.12346 -0.14953 0.18312 -0.03381 -0.29396 -0.24152 0.032208 0.094457 -0.12247 0.38445 -0.15812 0.24173 -0.017237 -0.10072 -0.26929 -0.1249 0.099121 -0.10902 0.18625 0.028722 0.019504 0.035371 -0.039662 0.33968 -0.0020527 -0.16885 0.019704 -0.12651 0.2237 -0.020814 -0.034164 
level 0.12898 -0.016896 -0.096776 0.10415 0.077724 0.080891 -0.38338 -0.14117 -0.060338 -0.089891 -0.18785 -0.036067 -0.044981 -0.052652 -0.24581 -0.066605 -0.060498 -0.0073801 -0.026168 0.21708 0.14905 0.13541 0.031717 -0.13044 -0.12557 0.10266 0.24926 -0.29625 -0.26832 0.29348 0.06735 0.119 -0.02015 -0.058418 -0.21703 -0.044671 0.22572 -0.20221 0.26153 0.24859 0.18985 0.063744 -0.042964 -0.026049 0.053977 -0.10462 0.1497 0.048331 0.17666 0.10152 -0.13153 -0.0091988 -0.042816 0.0023811 -0.086545 0.055281 0.10882 -0.17475 -0.077172 -0.051328 0.17314 0.095851 0.023719 -0.21283 -0.10679 0.10621 -0.02587 -0.094474 0.24883 -0.090483 -0.10736 0.13115 -0.022848 -0.21848 -0.17645 0.023743 0.067422 -0.090986 0.28027 -0.11711 0.1755 -0.012425 -0.073041 -0.1976 -0.091492 0.071117 -0.080956 0.13179 0.020612 0.010494 0.026737 -0.028952 0.24789 -0.003249 -0.12265 0.011041 -0.093697 0.16095 -0.018315 -0.027284 
issues 0.11371 -0.018214 -0.083878 0.093026 0.06415 0.070793 -0.33042 -0.12586 -0.055618 -0.07422 -0.16569 -0.031884 -0.040573 -0.046728 -0.21681 -0.056996 -0.051699 -0.0070668 -0.026886 0.1891 0.13067 0.11807 0.022764 -0.11283 -0.10934 0.088839 0.21538 -0.25975 -0.23573 0.25652 0.058554 0.10418 -0.017973 -0.050788 -0.19261 -0.039319 0.19794 -0.17599 0.23123 0.21984 0.1646 0.060612 -0.037207 -0.020248 0.047957 -0.089406 0.13349 0.040476 0.15442 0.087665 -0.11637 -0.008737 -0.036709 0.00011525 -0.077486 0.049555 0.094506 -0.15251 -0.069828 -0.04512 0.15323 0.084903 0.018594 -0.18671 -0.093428 0.09386 -0.021873 -0.086095 0.21719 -0.078289 -0.094794 0.11234 -0.019774 -0.18992 -0.1523 0.018961 0.058575 -0.078854 0.24567 -0.10235 0.15453 -0.014169 -0.06633 -0.16988 -0.08009 0.064868 -0.067952 0.11693 0.017064 0.010313 0.022714 -0.025993 0.21554 -0.0029703 -0.10915 0.010977 -0.082124 0.1413 -0.012483 -0.024048 
an 0.12925 -0.018609 -0.091535 0.11007 0.073523 0.081522 -0.37726 -0.14168 -0.068285 -0.080302 -0.18411 -0.037052 -0.048062 -0.055247 -0.25012 -0.063754 -0.056953 -0.010009 -0.025435 0.21413 0.14663 0.13574 0.025745 -0.12209 -0.12193 0.10208 0.24456 -0.29285 -0.27012 0.28551 0.069053 0.11794 -0.018328 -0.057101 -0.21672 -0.045497 0.22675 -0.19534 0.25747 0.24432 0.18552 0.065099 -0.045006 -0.019646 0.057621 -0.098427 0.15012 0.048948 0.17348 0.10468 -0.1275 -0.0097325 -0.042497 -0.0007629 -0.084189 0.055618 0.10899 -0.17232 -0.074693 -0.053353 0.1714 0.095268 0.023194 -0.21119 -0.10213 0.10636 -0.026491 -0.098872 0.24771 -0.090275 -0.10432 0.12934 -0.02489 -0.21143 -0.17623 0.01499 0.067687 -0.084529 0.28212 -0.11355 0.1787 -0.015826 -0.071924 -0.19764 -0.086442 0.076561 -0.080738 0.13291 0.022496 0.012615 0.0266 -0.030514 0.24477 -0.0075155 -0.1181 0.010438 -0.08696 0.15662 -0.017342 -0.025202 
problems. 0.16992 -0.025129 -0.12312 0.13451 0.094742 0.10347 -0.48548 -0.18017 -0.079716 -0.11163 -0.23834 -0.046818 -0.058318 -0.067213 -0.31754 -0.080992 -0.073939 -0.0092567 -0.037908 0.27631 0.19093 0.17477 0.034494 -0.16278 -0.16073 0.13264 0.3169 -0.37703 -0.34238 0.37207 0.08779 0.15169 -0.02441 -0.072785 -0.27905 -0.058075 0.28957 -0.25904 0.33702 0.31374 0.24417 0.08414 -0.053467 -0.02819 0.068992 -0.13158 0.19323 0.061265 0.22384 0.12783 -0.16642 -0.011228 -0.054839 0.0027392 -0.10792 0.072194 0.138 -0.22024 -0.099769 -0.064498 0.22174 0.1232 0.02803 -0.27164 -0.13607 0.13764 -0.033938 -0.12449 0.31787 -0.11512 -0.13851 0.1671 -0.029797 -0.27321 -0.22628 0.02802 0.086421 -0.11434 0.35598 -0.14843 0.22451 -0.019606 -0.095931 -0.25132 -0.11403 0.092578 -0.10309 0.17151 0.028382 0.017281 0.033108 -0.0366 0.3157 -0.0068574 -0.15945 0.016965 -0.11619 0.20683 -0.022001 -0.032708 
functions 0.17398 -0.026695 -0.12575 0.13928 0.09987 0.1055 -0.49533 -0.1821 -0.082303 -0.11273 -0.24461 -0.047617 -0.061721 -0.069235 -0.32501 -0.083271 -0.07804 -0.0095709 -0.037624 0.28262 0.19544 0.17882 0.032856 -0.16754 -0.16304 0.13589 0.32497 -0.38731 -0.3513 0.38291 0.088761 0.15437 -0.024865 -0.075398 -0.28703 -0.061574 0.29602 -0.26466 0.34768 0.32156 0.24804 0.08672 -0.055533 -0.030522 0.070172 -0.13395 0.1989 0.062749 0.23052 0.13233 -0.16986 -0.014596 -0.056039 0.0032147 -0.1104 0.07453 0.14442 -0.22514 -0.10076 -0.067515 0.22649 0.12566 0.025448 -0.27877 -0.13692 0.14027 -0.033191 -0.12755 0.32588 -0.11811 -0.14032 0.172 -0.033017 -0.2799 -0.23061 0.03086 0.087966 -0.11588 0.36579 -0.15355 0.22996 -0.016962 -0.098522 -0.25611 -0.11812 0.095207 -0.1054 0.17449 0.028129 0.016254 0.033762 -0.0386 0.32394 -0.0054087 -0.16333 0.018294 -0.12007 0.21093 -0.019545 -0.033578 
types 0.10304 -0.018383 -0.075943 0.080783 0.057579 0.061435 -0.29496 -0.11064 -0.048394 -0.06571 -0.14551 -0.028307 -0.034655 -0.040617 -0.19159 -0.048657 -0.044106 -0.008319 -0.022189 0.16839 0.11978 0.10535 0.021336 -0.099688 -0.098392 0.080247 0.19075 -0.23214 -0.20871 0.22716 0.052595 0.092404 -0.017415 -0.04378 -0.16995 -0.034094 0.17804 -0.15697 0.20451 0.19367 0.14516 0.054889 -0.035286 -0.019507 0.044282 -0.07991 0.11688 0.039437 0.1377 0.078339 -0.10447 -0.0098898 -0.030835 0.00035635 -0.065671 0.045876 0.08659 -0.13522 -0.061824 -0.039031 0.13624 0.07516 0.017846 -0.16685 -0.084178 0.086651 -0.021485 -0.079584 0.19339 -0.070849 -0.084361 0.10367 -0.021213 -0.16692 -0.13643 0.017053 0.055772 -0.068772 0.21792 -0.088864 0.13785 -0.012504 -0.054893 -0.15171 -0.06933 0.056225 -0.062671 0.1066 0.017072 0.0082381 0.022375 -0.023376 0.19198 -0.0045375 -0.095997 0.0087071 -0.070497 0.12825 -0.011012 -0.020343 
write 0.10304 -0.017685 -0.073385 0.08302 0.058278 0.060064 -0.28805 -0.10607 -0.047631 -0.067679 -0.13894 -0.027681 -0.033472 -0.041091 -0.18874 -0.045415 -0.044798 -0.0063807 -0.023814 0.16297 0.11222 0.10446 0.021069 -0.096861 -0.092437 0.079844 0.18696 -0.22423 -0.20695 0.22127 0.051587 0.089691 -0.015384 -0.043067 -0.16489 -0.033091 0.17182 -0.15323 0.20369 0.18646 0.14309 0.05089 -0.032887 -0.01697 0.038994 -0.078117 0.11107 0.038839 0.13353 0.077092 -0.10001 -0.0097695 -0.031809 0.0014584 -0.063632 0.041994 0.081119 -0.13062 -0.059083 -0.038587 0.13493 0.072393 0.017448 -0.16348 -0.082876 0.083279 -0.02235 -0.072956 0.18911 -0.066182 -0.082814 0.1022 -0.020121 -0.16085 -0.13575 0.017498 0.051735 -0.06803 0.21263 -0.089234 0.13554 -0.010933 -0.056547 -0.14908 -0.07031 0.057661 -0.058391 0.10292 0.01777 0.01181 0.018485 -0.020213 0.1864 -0.0046841 -0.094464 0.011068 -0.067601 0.12264 -0.010975 -0.021215 
process 0.18379 -0.029461 -0.13138 0.14807 0.10437 0.113 -0.53047 -0.19392 -0.087632 -0.12036 -0.26046 -0.050704 -0.062674 -0.073026 -0.3458 -0.090371 -0.08279 -0.0093369 -0.039234 0.30242 0.20936 0.192 0.037471 -0.17794 -0.1738 0.14477 0.34458 -0.41286 -0.37425 0.40576 0.09422 0.16532 -0.027498 -0.079404 -0.30269 -0.063707 0.31566 -0.28217 0.36943 0.34299 0.26322 0.092254 -0.059987 -0.029302 0.073608 -0.14584 0.21233 0.068696 0.24546 0.13839 -0.18157 -0.013026 -0.059777 0.0026642 -0.11746 0.080314 0.1554 -0.24214 -0.10824 -0.069375 0.24321 0.13311 0.030111 -0.29764 -0.14717 0.15287 -0.038101 -0.13495 0.34503 -0.12885 -0.15245 0.18241 -0.034789 -0.29792 -0.24486 0.03055 0.095306 -0.12251 0.39098 -0.16425 0.24446 -0.018819 -0.10577 -0.27384 -0.12681 0.10313 -0.11109 0.1864 0.029714 0.018056 0.038433 -0.039856 0.34575 -0.0057297 -0.17274 0.017942 -0.12682 0.22598 -0.023125 -0.036525 
Student 0.15704 -0.023084 -0.1142 0.12547 0.090551 0.094424 -0.45069 -0.16806 -0.072648 -0.10416 -0.2214 -0.041898 -0.056967 -0.062702 -0.29488 -0.074719 -0.070186 -0.0099515 -0.035332 0.25616 0.17799 0.1618 0.032513 -0.1522 -0.14979 0.12165 0.29532 -0.35168 -0.32186 0.34733 0.083646 0.14053 -0.02503 -0.068586 -0.25848 -0.057745 0.26931 -0.23787 0.31557 0.29113 0.2239 0.079645 -0.051038 -0.026115 0.064098 -0.12143 0.18132 0.056311 0.21088 0.11878 -0.15497 -0.013408 -0.049482 0.002432 -0.10051 0.068343 0.1263 -0.20446 -0.09353 -0.061025 0.20491 0.11192 0.027735 -0.25497 -0.1279 0.12819 -0.032246 -0.113 0.29558 -0.10763 -0.12798 0.15614 -0.028611 -0.25639 -0.20932 0.028394 0.080541 -0.10777 0.3321 -0.14147 0.2095 -0.016675 -0.091171 -0.23259 -0.10809 0.086251 -0.09504 0.16097 0.023217 0.013543 0.032327 -0.034519 0.29466 -0.005708 -0.14838 0.015539 -0.10907 0.19212 -0.016309 -0.032859 
working 0.17887 -0.028982 -0.12884 0.1457 0.10467 0.10906 -0.51597 -0.19291 -0.083873 -0.11744 -0.25347 -0.047559 -0.064068 -0.072994 -0.3378 -0.086996 -0.080257 -0.010102 -0.039774 0.29302 0.20353 0.18521 0.037948 -0.17089 -0.16796 0.14043 0.3368 -0.40386 -0.36713 0.39648 0.091133 0.16087 -0.027444 -0.076117 -0.29481 -0.063274 0.30883 -0.2758 0.35808 0.33402 0.25735 0.091132 -0.060616 -0.031256 0.074655 -0.13909 0.20813 0.066406 0.23799 0.13483 -0.17774 -0.012523 -0.057527 0.0037496 -0.11443 0.077023 0.14768 -0.23472 -0.10434 -0.067951 0.23651 0.13046 0.030659 -0.28945 -0.14368 0.14752 -0.037389 -0.13402 0.33814 -0.12333 -0.14825 0.18038 -0.033543 -0.29229 -0.24053 0.030507 0.092015 -0.12297 0.37828 -0.15892 0.24009 -0.018511 -0.10108 -0.26729 -0.12156 0.098231 -0.108 0.18282 0.029891 0.017228 0.037508 -0.039983 0.3363 -0.0074864 -0.17002 0.0186 -0.12454 0.22069 -0.021304 -0.032718 
implement 0.16826 -0.028535 -0.12376 0.1354 0.098105 0.10254 -0.48478 -0.18024 -0.077993 -0.11213 -0.23879 -0.044553 -0.060272 -0.06959 -0.31894 -0.081951 -0.075331 -0.010195 -0.037482 0.27725 0.1922 0.17561 0.03343 -0.16213 -0.15827 0.13254 0.31665 -0.37639 -0.34509 0.37281 0.08759 0.15171 -0.025717 -0.071093 -0.27908 -0.058537 0.29065 -0.25767 0.3389 0.3141 0.24071 0.085813 -0.053696 -0.029275 0.069368 -0.13257 0.1946 0.06261 0.22665 0.12662 -0.16508 -0.01232 -0.053756 0.002509 -0.10923 0.070783 0.1391 -0.22164 -0.099893 -0.065775 0.22223 0.1217 0.027951 -0.2732 -0.13738 0.13688 -0.034229 -0.1244 0.31715 -0.1157 -0.13666 0.16879 -0.032421 -0.27432 -0.22518 0.029475 0.086848 -0.1145 0.35776 -0.14934 0.2254 -0.018778 -0.09511 -0.25053 -0.11383 0.09291 -0.10155 0.17251 0.027882 0.015993 0.036671 -0.037461 0.31604 -0.0042826 -0.15805 0.017718 -0.11682 0.2057 -0.018766 -0.032589 
demonstrate 0.12433 -0.020205 -0.090639 0.10004 0.072651 0.076494 -0.356 -0.13324 -0.059051 -0.080096 -0.17499 -0.033835 -0.045378 -0.050689 -0.23422 -0.059532 -0.055856 -0.008345 -0.026231 0.20525 0.13986 0.12963 0.024702 -0.12047 -0.11594 0.097075 0.23475 -0.27826 -0.25316 0.27283 0.065047 0.11224 -0.019005 -0.053573 -0.20531 -0.043182 0.21167 -0.1909 0.24882 0.23153 0.17803 0.063277 -0.042353 -0.023141 0.049716 -0.098741 0.1416 0.044386 0.1657 0.095001 -0.12355 -0.010202 -0.038567 0.0015614 -0.078713 0.0538 0.10249 -0.16332 -0.073655 -0.04591 0.1643 0.089792 0.020405 -0.20094 -0.098549 0.10304 -0.025053 -0.093142 0.23488 -0.08315 -0.10242 0.12348 -0.022698 -0.2024 -0.1658 0.020595 0.063757 -0.083341 0.26358 -0.10978 0.16661 -0.013991 -0.070209 -0.18407 -0.085496 0.068369 -0.075879 0.12658 0.019025 0.01061 0.026528 -0.027255 0.234 -0.0046159 -0.11552 0.011666 -0.087293 0.15281 -0.015311 -0.025051 
processes 0.16762 -0.02766 -0.12162 0.13611 0.094802 0.1023 -0.4874 -0.17933 -0.080079 -0.11044 -0.23884 -0.046359 -0.058208 -0.066764 -0.31794 -0.08209 -0.07587 -0.01055 -0.036257 0.27756 0.19175 0.17502 0.034697 -0.16333 -0.16075 0.13274 0.31728 -0.37869 -0.34244 0.37323 0.086045 0.15187 -0.026366 -0.072486 -0.27875 -0.058495 0.29051 -0.25971 0.33915 0.31388 0.24126 0.084894 -0.056466 -0.02893 0.067381 -0.13359 0.1955 0.06317 0.22706 0.12692 -0.16684 -0.011956 -0.054178 0.0031358 -0.10999 0.074809 0.1401 -0.22137 -0.10052 -0.062966 0.2224 0.12203 0.027149 -0.2732 -0.13426 0.13897 -0.035893 -0.12385 0.31672 -0.11793 -0.14002 0.16842 -0.030295 -0.27441 -0.22583 0.028398 0.088004 -0.11252 0.35883 -0.14973 0.22503 -0.01792 -0.096359 -0.25082 -0.11666 0.094934 -0.10177 0.17129 0.02752 0.01678 0.036452 -0.03621 0.31699 -0.0061145 -0.15744 0.016861 -0.11688 0.20732 -0.021335 -0.034443 
R 0.1081 -0.021362 -0.078086 0.091929 0.052775 0.069314 -0.29438 -0.10446 -0.055639 -0.066646 -0.14597 -0.029058 -0.03322 -0.035859 -0.19363 -0.044882 -0.049621 -0.00098987 -0.028292 0.17507 0.11806 0.10229 0.013401 -0.10694 -0.099428 0.082411 0.20472 -0.24118 -0.21614 0.22739 0.05857 0.09721 -0.013432 -0.049007 -0.17247 -0.036107 0.17189 -0.15891 0.21259 0.18525 0.14927 0.053407 -0.034856 -0.017872 0.042785 -0.082997 0.12106 0.041444 0.14126 0.072345 -0.091361 -0.0103 -0.035697 0.0019839 -0.069028 0.038759 0.087644 -0.13912 -0.055267 -0.038872 0.14322 0.069495 0.01095 -0.17297 -0.081924 0.074397 -0.028748 -0.0683 0.19906 -0.07091 -0.087717 0.11316 -0.020776 -0.16903 -0.1447 0.014338 0.047126 -0.075598 0.22257 -0.088656 0.14265 -0.0036185 -0.064476 -0.15643 -0.077621 0.055435 -0.07311 0.11251 0.012449 0.0081916 0.024962 -0.016041 0.19106 -0.010371 -0.094953 0.012901 -0.07566 0.12788 -0.016771 -0.026358 
effectively 0.13298 -0.022054 -0.099247 0.10778 0.076975 0.080972 -0.38201 -0.14191 -0.062796 -0.088726 -0.18889 -0.036089 -0.047186 -0.053722 -0.25078 -0.065358 -0.057742 -0.0091189 -0.02854 0.21768 0.15134 0.13856 0.026646 -0.12964 -0.12707 0.1038 0.25145 -0.29769 -0.2714 0.2952 0.069919 0.12027 -0.020406 -0.057318 -0.21862 -0.046576 0.22877 -0.20506 0.26787 0.24809 0.19234 0.068159 -0.042171 -0.023147 0.055328 -0.10497 0.15357 0.050117 0.17929 0.10218 -0.13146 -0.0098754 -0.043117 0.0031826 -0.086362 0.056634 0.1109 -0.17534 -0.079194 -0.050843 0.17527 0.096197 0.021806 -0.21523 -0.1076 0.10939 -0.028207 -0.099806 0.2512 -0.090528 -0.10848 0.1339 -0.025126 -0.21813 -0.17782 0.023061 0.068403 -0.089952 0.28322 -0.11767 0.17788 -0.013738 -0.076818 -0.20005 -0.090506 0.07393 -0.082053 0.13603 0.021392 0.011567 0.028396 -0.028942 0.2488 -0.0052752 -0.12609 0.014178 -0.09153 0.1642 -0.016049 -0.025474 
identify 0.1143 -0.017072 -0.080827 0.090912 0.065993 0.069358 -0.33185 -0.12187 -0.054251 -0.076856 -0.1625 -0.0342 -0.041097 -0.04565 -0.21489 -0.055263 -0.050092 -0.007084 -0.023878 0.1874 0.1283 0.1189 0.022644 -0.11227 -0.10918 0.090487 0.21447 -0.25763 -0.23428 0.25373 0.059187 0.10238 -0.017393 -0.049255 -0.18757 -0.040807 0.19651 -0.17399 0.22866 0.21244 0.16258 0.058022 -0.036163 -0.018984 0.045867 -0.089668 0.13181 0.041966 0.15385 0.087433 -0.1122 -0.0084588 -0.035332 0.0020461 -0.072715 0.049317 0.092402 -0.14811 -0.06804 -0.044153 0.15209 0.082622 0.021046 -0.18561 -0.091184 0.093906 -0.023358 -0.085242 0.21595 -0.078686 -0.09406 0.11404 -0.022752 -0.18669 -0.15222 0.019742 0.057819 -0.076847 0.24308 -0.1004 0.15376 -0.013599 -0.065502 -0.17006 -0.077673 0.061364 -0.068618 0.11695 0.019528 0.0090223 0.0229 -0.025494 0.21334 -0.0053266 -0.10762 0.01072 -0.08048 0.14162 -0.012317 -0.024498 
database 0.11163 -0.018119 -0.08142 0.090378 0.063214 0.066387 -0.32536 -0.12135 -0.053723 -0.07443 -0.15886 -0.031383 -0.040027 -0.046634 -0.21413 -0.056503 -0.052765 -0.0078382 -0.023367 0.18723 0.12915 0.11636 0.02266 -0.11134 -0.10852 0.091505 0.21198 -0.25321 -0.22896 0.2485 0.057867 0.10123 -0.017258 -0.047519 -0.18499 -0.040928 0.19208 -0.1732 0.22593 0.20876 0.16329 0.056114 -0.036779 -0.019018 0.047278 -0.087768 0.12935 0.042293 0.15073 0.087298 -0.11181 -0.0094643 -0.037203 0.0014075 -0.073368 0.046684 0.093424 -0.14771 -0.068231 -0.043475 0.14949 0.081565 0.020681 -0.18136 -0.092767 0.093773 -0.022124 -0.084901 0.21237 -0.076687 -0.093224 0.113 -0.018545 -0.18249 -0.1519 0.020996 0.06078 -0.074101 0.23926 -0.099694 0.15079 -0.011822 -0.065556 -0.16892 -0.07606 0.062747 -0.068905 0.11568 0.018537 0.01079 0.021682 -0.024225 0.21136 -0.0038393 -0.10678 0.010792 -0.077428 0.13892 -0.013494 -0.0223 
models 0.11398 -0.016503 -0.085377 0.092724 0.066397 0.06916 -0.32751 -0.12212 -0.056922 -0.072366 -0.16201 -0.030437 -0.040329 -0.047477 -0.21661 -0.057311 -0.050768 -0.00839 -0.024997 0.1866 0.13073 0.11781 0.022591 -0.11051 -0.1106 0.089262 0.21248 -0.25601 -0.23285 0.25083 0.058147 0.10317 -0.020767 -0.050724 -0.18834 -0.040814 0.19643 -0.1769 0.22956 0.21632 0.16573 0.055021 -0.037148 -0.021722 0.046057 -0.087449 0.13113 0.045187 0.15515 0.087939 -0.11347 -0.0097493 -0.037725 0.0042211 -0.072808 0.049573 0.095758 -0.15032 -0.068288 -0.042596 0.1506 0.080043 0.020484 -0.18506 -0.09029 0.091562 -0.022187 -0.082215 0.21535 -0.079685 -0.093339 0.11632 -0.02068 -0.18499 -0.15435 0.022775 0.059664 -0.07742 0.24133 -0.1022 0.15115 -0.012445 -0.064631 -0.17167 -0.08086 0.061823 -0.067588 0.11772 0.019078 0.0097395 0.027711 -0.023881 0.21328 -0.0039517 -0.10886 0.012435 -0.078469 0.13824 -0.012018 -0.025355 
security 0.10365 -0.016097 -0.075016 0.084412 0.059326 0.060676 -0.2921 -0.10743 -0.047914 -0.066053 -0.1428 -0.030525 -0.036704 -0.042082 -0.19257 -0.051166 -0.045534 -0.0064627 -0.022468 0.16462 0.11685 0.10612 0.020518 -0.098536 -0.095399 0.079837 0.19064 -0.23046 -0.20763 0.22428 0.052564 0.092678 -0.014944 -0.04299 -0.16611 -0.036443 0.17692 -0.1552 0.20679 0.1894 0.1456 0.0495 -0.034824 -0.019241 0.041089 -0.079608 0.11792 0.038797 0.13532 0.078083 -0.10124 -0.0074519 -0.033721 0.0005549 -0.067573 0.043365 0.084869 -0.1328 -0.059683 -0.037329 0.13403 0.074039 0.016419 -0.16539 -0.081051 0.084435 -0.020541 -0.073511 0.19286 -0.066938 -0.08188 0.10245 -0.02012 -0.16602 -0.13629 0.017466 0.052564 -0.068731 0.21649 -0.09069 0.13636 -0.013036 -0.057798 -0.15307 -0.070898 0.05636 -0.063433 0.10316 0.016023 0.010872 0.021728 -0.022619 0.19189 -0.002951 -0.096091 0.010055 -0.071839 0.1269 -0.012712 -0.021654 
that 0.11157 -0.018208 -0.07812 0.09082 0.067801 0.067218 -0.31813 -0.11885 -0.053402 -0.07201 -0.15658 -0.027891 -0.037214 -0.042807 -0.21017 -0.055744 -0.045349 -0.0045052 -0.020823 0.18328 0.12531 0.11362 0.023093 -0.10608 -0.10302 0.090189 0.20571 -0.24512 -0.22465 0.24254 0.057541 0.10042 -0.018714 -0.048375 -0.18167 -0.038425 0.18995 -0.17017 0.21929 0.20507 0.15912 0.054221 -0.035935 -0.017952 0.045191 -0.089755 0.12409 0.04306 0.14694 0.083013 -0.10892 -0.0090477 -0.03327 0.0020741 -0.070714 0.047673 0.092193 -0.14474 -0.066963 -0.040627 0.14592 0.081764 0.015973 -0.17641 -0.087838 0.089055 -0.022403 -0.079701 0.20729 -0.076278 -0.089201 0.10948 -0.021358 -0.18149 -0.14446 0.020207 0.057497 -0.074695 0.23465 -0.0972 0.14412 -0.013626 -0.06329 -0.16517 -0.076334 0.059765 -0.068956 0.11146 0.017817 0.015958 0.026106 -0.02511 0.20788 0.0011382 -0.10018 0.0089535 -0.076819 0.13796 -0.011564 -0.019135 
analysis 0.14734 -0.023109 -0.10535 0.11572 0.083206 0.08705 -0.41663 -0.15469 -0.067428 -0.094807 -0.20279 -0.038864 -0.052992 -0.0581 -0.27097 -0.070302 -0.064762 -0.0069761 -0.032055 0.23629 0.16544 0.14778 0.029063 -0.13737 -0.13864 0.1122 0.27097 -0.32515 -0.29726 0.31813 0.075563 0.1289 -0.022156 -0.063989 -0.2406 -0.049953 0.24765 -0.22172 0.28987 0.2712 0.20759 0.074626 -0.047623 -0.023242 0.060236 -0.11407 0.16791 0.052274 0.19535 0.10849 -0.14295 -0.011905 -0.046827 0.0030996 -0.089745 0.064832 0.11894 -0.1907 -0.086413 -0.057319 0.19189 0.10503 0.023739 -0.23415 -0.11548 0.11918 -0.030109 -0.10517 0.27377 -0.10072 -0.11613 0.14335 -0.028562 -0.23353 -0.19444 0.026531 0.076848 -0.096148 0.30867 -0.12936 0.19305 -0.016888 -0.08196 -0.21578 -0.10168 0.079846 -0.087007 0.14697 0.024221 0.013861 0.032189 -0.03322 0.27146 -0.0044865 -0.13302 0.015797 -0.10064 0.17733 -0.018195 -0.028478 
its 0.1288 -0.022688 -0.092589 0.10133 0.07823 0.079038 -0.37072 -0.13766 -0.061764 -0.082665 -0.18062 -0.031315 -0.046723 -0.052725 -0.24106 -0.06322 -0.059375 -0.006387 -0.023282 0.20912 0.1468 0.13186 0.026078 -0.12682 -0.11751 0.10115 0.2415 -0.28415 -0.26561 0.28279 0.064455 0.11858 -0.019602 -0.060397 -0.21534 -0.048975 0.22591 -0.19592 0.26113 0.23945 0.18346 0.063444 -0.041687 -0.023569 0.053488 -0.10185 0.1487 0.048985 0.17378 0.097349 -0.12475 -0.009265 -0.043249 0.0007296 -0.082892 0.051236 0.10223 -0.17051 -0.075293 -0.048463 0.16957 0.092128 0.025512 -0.20656 -0.10312 0.10686 -0.025422 -0.094579 0.2429 -0.090169 -0.10158 0.13065 -0.026422 -0.20826 -0.16812 0.019074 0.063441 -0.084978 0.27205 -0.11395 0.17079 -0.014881 -0.069134 -0.18761 -0.0944 0.069159 -0.075928 0.12987 0.016801 0.0087272 0.026178 -0.02704 0.23828 -0.0085166 -0.11894 0.018482 -0.08926 0.15587 -0.012357 -0.022696 
Islam 0.090416 -0.014164 -0.067643 0.073702 0.05162 0.056817 -0.2635 -0.097442 -0.044784 -0.060509 -0.12952 -0.022514 -0.032241 -0.036711 -0.17283 -0.040337 -0.041523 -0.0041372 -0.019991 0.15114 0.1034 0.096598 0.019831 -0.090225 -0.085116 0.072186 0.17186 -0.20699 -0.18569 0.20158 0.047246 0.081677 -0.012971 -0.039094 -0.15241 -0.031074 0.16008 -0.1405 0.18381 0.17004 0.13132 0.044916 -0.030205 -0.013762 0.039453 -0.070557 0.10642 0.031685 0.12405 0.06933 -0.090496 -0.0065503 -0.029983 0.0041006 -0.058473 0.038259 0.074557 -0.12019 -0.053393 -0.03433 0.1202 0.064526 0.016384 -0.14921 -0.07218 0.072468 -0.017104 -0.069871 0.17445 -0.063606 -0.076604 0.090861 -0.017957 -0.15015 -0.12316 0.013608 0.049935 -0.060363 0.19456 -0.082332 0.12004 -0.0092444 -0.052892 -0.13546 -0.062949 0.053321 -0.057216 0.096099 0.013023 0.010111 0.019809 -0.019303 0.17144 -0.0038894 -0.08798 0.0085376 -0.065759 0.11536 -0.012652 -0.017398 
Linear 0.089073 -0.015309 -0.066121 0.071104 0.052118 0.056473 -0.25747 -0.093996 -0.042024 -0.060384 -0.1281 -0.024147 -0.03099 -0.036944 -0.16866 -0.043342 -0.039457 -0.0068427 -0.019466 0.14777 0.1013 0.09338 0.015545 -0.085296 -0.086443 0.069546 0.16861 -0.19969 -0.18298 0.19634 0.045253 0.08088 -0.010671 -0.036335 -0.1493 -0.031631 0.15536 -0.13674 0.17958 0.16637 0.1265 0.042775 -0.027314 -0.019391 0.03768 -0.068433 0.10391 0.034 0.11992 0.06654 -0.086093 -0.0083197 -0.03055 0.00035815 -0.058154 0.038581 0.07277 -0.11389 -0.052965 -0.034645 0.11881 0.065066 0.013445 -0.14574 -0.073724 0.074694 -0.018859 -0.066168 0.16852 -0.063336 -0.070399 0.086822 -0.017481 -0.14637 -0.118 0.015169 0.047947 -0.060823 0.1901 -0.07858 0.12015 -0.0082043 -0.051068 -0.13267 -0.058751 0.048566 -0.054044 0.091764 0.012357 0.0095523 0.018247 -0.019072 0.16843 -0.0042623 -0.086174 0.0091336 -0.059826 0.10973 -0.010751 -0.019103 
web 0.070268 -0.010155 -0.045081 0.054519 0.04033 0.041212 -0.1969 -0.072837 -0.035593 -0.043481 -0.09492 -0.019309 -0.02505 -0.023094 -0.12617 -0.027288 -0.028905 -0.0059972 -0.017259 0.10946 0.077388 0.072416 0.01324 -0.065192 -0.061766 0.055491 0.12748 -0.15004 -0.13615 0.15135 0.034115 0.060574 -0.0099313 -0.03506 -0.10943 -0.02195 0.11589 -0.10865 0.13969 0.12598 0.0991 0.033766 -0.025149 -0.012042 0.02325 -0.053397 0.079242 0.023977 0.092052 0.048513 -0.069618 -0.009314 -0.023364 0.0060619 -0.040832 0.02976 0.057023 -0.091148 -0.044863 -0.025792 0.090059 0.050057 0.0092023 -0.11275 -0.057359 0.053991 -0.0091431 -0.053328 0.12887 -0.043572 -0.054113 0.070052 -0.013619 -0.11069 -0.089102 0.0096667 0.034956 -0.04208 0.14517 -0.059073 0.092438 -0.006159 -0.039071 -0.097731 -0.045958 0.038421 -0.039847 0.069817 0.012737 0.0085081 0.0154 -0.016642 0.13005 -0.0030378 -0.065807 0.0093111 -0.044092 0.080694 -0.010335 -0.014594 
information 0.16274 -0.02667 -0.11873 0.13061 0.092437 0.10027 -0.46786 -0.17359 -0.077579 -0.10826 -0.22966 -0.045898 -0.057506 -0.065026 -0.30649 -0.078548 -0.073416 -0.0095921 -0.036439 0.2659 0.18379 0.16988 0.032961 -0.15871 -0.15239 0.12904 0.30525 -0.36564 -0.33374 0.36045 0.084269 0.14622 -0.022693 -0.072207 -0.26971 -0.057408 0.28017 -0.24766 0.32871 0.30391 0.23427 0.08188 -0.053222 -0.02776 0.066674 -0.12966 0.18706 0.058075 0.21906 0.12353 -0.16088 -0.011733 -0.050352 0.0017784 -0.10387 0.070433 0.13437 -0.2155 -0.095827 -0.062426 0.21558 0.11814 0.025351 -0.26281 -0.12945 0.13357 -0.032804 -0.12303 0.30701 -0.11248 -0.13176 0.16223 -0.030771 -0.26659 -0.21677 0.027035 0.083378 -0.11027 0.34705 -0.14522 0.21645 -0.017234 -0.092636 -0.24258 -0.11187 0.091224 -0.098735 0.16552 0.026436 0.017162 0.032306 -0.035623 0.30575 -0.0062745 -0.15362 0.016674 -0.11342 0.20036 -0.021124 -0.031085 
modern 0.092173 -0.014918 -0.068256 0.075619 0.055251 0.054773 -0.26826 -0.0991 -0.045909 -0.060212 -0.13237 -0.027401 -0.034861 -0.038142 -0.17753 -0.045151 -0.040782 -0.0078942 -0.02019 0.15232 0.10617 0.098958 0.017508 -0.089693 -0.089294 0.070683 0.17538 -0.20769 -0.19105 0.20692 0.047349 0.084637 -0.015239 -0.041742 -0.15517 -0.032823 0.16175 -0.14257 0.18624 0.17447 0.13391 0.046931 -0.031803 -0.014448 0.039013 -0.073318 0.10991 0.033949 0.12582 0.070123 -0.093655 -0.0070207 -0.029676 0.0019609 -0.060112 0.039854 0.075783 -0.12214 -0.056523 -0.034225 0.1247 0.065864 0.016647 -0.14944 -0.073498 0.073746 -0.021117 -0.066846 0.1763 -0.063509 -0.076485 0.093345 -0.017392 -0.15135 -0.12214 0.017787 0.050611 -0.064299 0.19743 -0.084819 0.12787 -0.0095546 -0.053057 -0.13779 -0.062552 0.051064 -0.057171 0.094139 0.013914 0.010046 0.021886 -0.020216 0.17394 -0.0020843 -0.0906 0.0094551 -0.065027 0.11441 -0.01029 -0.020142 
model 0.12968 -0.018612 -0.093995 0.10557 0.075646 0.076429 -0.37028 -0.13769 -0.06408 -0.082286 -0.18328 -0.036845 -0.04548 -0.052083 -0.24298 -0.062678 -0.058099 -0.0087611 -0.027852 0.21153 0.14529 0.1331 0.025743 -0.12403 -0.12544 0.10007 0.24142 -0.28844 -0.26259 0.2838 0.065454 0.11622 -0.020066 -0.054651 -0.21313 -0.045548 0.22137 -0.19789 0.25857 0.2433 0.18516 0.062535 -0.043678 -0.023367 0.050705 -0.098864 0.14643 0.049556 0.17448 0.099102 -0.12984 -0.0092602 -0.042055 0.0034343 -0.082885 0.053844 0.10563 -0.1698 -0.077838 -0.048914 0.16865 0.092404 0.022412 -0.20653 -0.10111 0.10515 -0.024212 -0.092896 0.24322 -0.089736 -0.10312 0.1272 -0.022975 -0.21055 -0.17129 0.026424 0.066464 -0.085666 0.27237 -0.11501 0.17124 -0.015523 -0.072914 -0.19452 -0.088692 0.069344 -0.07748 0.13317 0.019881 0.010896 0.028585 -0.02776 0.24054 -0.006073 -0.12085 0.013039 -0.089067 0.15642 -0.012966 -0.025757 
communication 0.19045 -0.032008 -0.14022 0.1523 0.10946 0.11631 -0.549 -0.20411 -0.090115 -0.12592 -0.27096 -0.052961 -0.067083 -0.075941 -0.35925 -0.09122 -0.08514 -0.012128 -0.04107 0.31035 0.21525 0.19823 0.038624 -0.18583 -0.17927 0.15107 0.35949 -0.42891 -0.39147 0.42359 0.099744 0.17077 -0.028316 -0.082581 -0.31571 -0.064995 0.32838 -0.29189 0.38287 0.3581 0.27361 0.096171 -0.061854 -0.032744 0.078324 -0.14856 0.218 0.069112 0.25642 0.14498 -0.18811 -0.014742 -0.061311 0.0025545 -0.1221 0.082445 0.15895 -0.24944 -0.11364 -0.075741 0.25195 0.13948 0.030711 -0.30936 -0.15321 0.15725 -0.039076 -0.14288 0.35985 -0.13169 -0.1547 0.18953 -0.037897 -0.31175 -0.25525 0.03234 0.097514 -0.12667 0.40524 -0.16986 0.25505 -0.019528 -0.10856 -0.2848 -0.13275 0.10721 -0.11787 0.19312 0.029892 0.019052 0.038034 -0.041706 0.35854 -0.0057919 -0.17988 0.020964 -0.13213 0.23572 -0.02296 -0.037192 
