356 100
C 0.055102 -0.00039939 -0.030764 0.032362 -0.012425 0.022239 -0.10263 -0.0094839 -0.02606 -0.069884 -0.062031 -0.021684 -0.027877 -0.0025309 -0.11672 -0.058674 0.0080198 -0.02955 -0.016773 0.09237 0.0080764 0.076913 0.053071 -0.032875 -0.011616 0.016705 0.074481 -0.095466 -0.035348 0.08899 -0.026656 -0.021202 -0.0012651 0.0070955 -0.012015 -0.016534 0.11697 -0.11908 0.11902 0.066479 0.070575 -0.040375 -0.028778 0.0015262 0.016862 -0.027232 0.070092 -0.0062034 0.064032 0.014538 -0.057573 0.025093 0.025141 -0.022374 0.01563 0.013704 0.013087 -0.031562 -0.0020109 0.0044626 0.028629 0.01206 -0.0066651 -0.1197 -0.016187 0.07069 -0.012766 -0.010668 0.10192 -0.027736 -0.11163 0.039277 -0.01861 -0.07115 -0.061074 -0.012777 0.0003957 -0.057281 0.034213 -0.031346 0.023596 -0.032603 0.043297 -0.042021 0.021581 0.036396 0.037452 0.028994 0.030876 0.011825 0.021709 -0.043167 0.095657 0.0039266 -0.042253 0.024046 -0.036238 0.050051 0.0029109 0.0056573 
label 0.061792 0.0013629 -0.029565 0.032016 -0.012811 0.022708 -0.11672 -0.0083304 -0.034114 -0.078023 -0.070585 -0.024322 -0.036453 -0.0029857 -0.12186 -0.067064 0.011697 -0.03939 -0.014669 0.10468 0.0046137 0.076076 0.057747 -0.026449 -0.02431 0.024377 0.081488 -0.096331 -0.041923 0.095049 -0.022506 -0.023081 0.0038775 0.010187 -0.0067204 -0.023386 0.12084 -0.12261 0.12766 0.077393 0.06726 -0.054318 -0.03833 -0.0051687 0.019433 -0.027232 0.078575 -0.004351 0.070031 0.012852 -0.060709 0.024939 0.032219 -0.028136 0.015852 0.018793 0.014923 -0.03729 -0.0043701 -0.00085249 0.033134 0.0096749 -0.0051865 -0.12746 -0.010331 0.078123 -0.0080478 -0.008405 0.10454 -0.032675 -0.11311 0.043386 -0.015458 -0.07284 -0.062877 -0.0051176 -0.0065595 -0.06806 0.038972 -0.028818 0.02686 -0.033902 0.039922 -0.033879 0.025426 0.03999 0.036862 0.033983 0.036619 0.01411 0.013599 -0.046491 0.093153 0.0055349 -0.042101 0.031201 -0.042058 0.045422 0.0065592 0.0089967 
</s> 0.072857 -0.0086305 -0.032709 0.030592 -0.013248 0.017609 -0.12743 -0.018243 -0.023544 -0.067412 -0.081333 -0.024948 -0.039881 -0.0071781 -0.12628 -0.060836 0.012974 -0.044016 -0.021609 0.10824 0.01312 0.071753 0.051997 -0.026029 -0.021655 0.022035 0.089532 -0.11038 -0.050353 0.09943 -0.017549 -0.016989 -0.0020111 0.013994 -0.014113 -0.029855 0.11704 -0.11728 0.1413 0.086085 0.059164 -0.048271 -0.03368 -0.0042711 0.024071 -0.023115 0.088483 0.0033476 0.077304 0.020734 -0.064517 0.024232 0.03821 -0.032425 0.0059437 0.026041 0.017845 -0.045949 -0.013312 -0.0056137 0.045226 0.017585 0.00052969 -0.12364 -0.017996 0.084985 -0.016677 -0.012 0.11136 -0.042282 -0.10981 0.047998 -0.013184 -0.083981 -0.075341 -0.0036324 0.003298 -0.071442 0.048103 -0.038769 0.035994 -0.037396 0.034849 -0.041617 0.023592 0.032335 0.035055 0.044394 0.041979 0.011296 0.0075464 -0.048356 0.10229 0.0046493 -0.041569 0.030996 -0.044292 0.051029 0.013586 0.020729 
and 0.093069 -0.0043477 -0.044949 0.046206 -0.015669 0.036351 -0.16689 -0.013521 -0.047572 -0.10259 -0.10244 -0.030673 -0.056096 8.9285e-05 -0.16674 -0.089209 0.012702 -0.056775 -0.019099 0.14682 0.010628 0.10853 0.080135 -0.036344 -0.028839 0.035165 0.11439 -0.14266 -0.059775 0.1329 -0.030524 -0.035742 0.006617 0.018468 -0.0074398 -0.029112 0.17199 -0.17569 0.18415 0.10722 0.092809 -0.07428 -0.054184 -0.0078063 0.025711 -0.039592 0.11245 -0.0059305 0.098056 0.020931 -0.085461 0.034652 0.045981 -0.038148 0.024122 0.023702 0.022819 -0.051616 -0.0080212 -0.0052555 0.046305 0.01343 -0.013195 -0.18145 -0.01565 0.11279 -0.013918 -0.013453 0.14943 -0.049219 -0.15961 0.062432 -0.025316 -0.1039 -0.090652 -0.00934 -0.0085457 -0.090604 0.055199 -0.042792 0.037613 -0.04658 0.058083 -0.051817 0.037424 0.052064 0.050887 0.047322 0.044094 0.021729 0.015086 -0.068621 0.13293 0.014345 -0.061272 0.048177 -0.058993 0.064555 0.0075921 0.016014 
of 0.052039 0.0017533 -0.026021 0.024765 -0.0075415 0.024361 -0.091507 -0.010901 -0.026284 -0.059222 -0.054619 -0.017003 -0.030894 0.0043663 -0.093149 -0.050493 0.011608 -0.033236 -0.013199 0.085064 0.005769 0.06114 0.045428 -0.023193 -0.014374 0.018234 0.068627 -0.080748 -0.026697 0.074704 -0.016747 -0.021519 0.0013626 0.0045165 -0.0029515 -0.013627 0.096234 -0.095361 0.10753 0.063391 0.053349 -0.041277 -0.029061 -0.00065956 0.020568 -0.028519 0.065567 0.0023916 0.053375 0.0093958 -0.051534 0.023256 0.02388 -0.021358 0.012255 0.019169 0.0082257 -0.025193 -0.0077778 -0.002859 0.027235 0.0016998 -0.0061513 -0.097883 -0.0073365 0.067239 -0.008343 -0.0081965 0.080497 -0.02466 -0.09301 0.035106 -0.014832 -0.057691 -0.047335 -0.0072517 -0.0043123 -0.051617 0.027337 -0.021053 0.025586 -0.030603 0.031149 -0.032869 0.020069 0.029549 0.030679 0.031219 0.028572 0.012957 0.013279 -0.037899 0.077744 0.0060264 -0.03694 0.027284 -0.03605 0.033719 0.005363 0.0086056 
the 0.0904 0.0018879 -0.042338 0.050236 -0.01765 0.032549 -0.16798 -0.011444 -0.047556 -0.10708 -0.099981 -0.032352 -0.052302 -0.00067879 -0.17552 -0.093738 0.016373 -0.060765 -0.0143 0.14528 0.0054365 0.11283 0.083553 -0.041229 -0.030262 0.036977 0.11572 -0.14302 -0.058716 0.14008 -0.027769 -0.030807 0.0043864 0.016871 -0.0077281 -0.029839 0.17623 -0.17857 0.18513 0.1117 0.094151 -0.077444 -0.053366 -0.0055039 0.030846 -0.038287 0.10949 -0.0080349 0.099257 0.02069 -0.089391 0.030996 0.046451 -0.036184 0.023949 0.027046 0.024543 -0.052036 -0.0086787 -0.0052683 0.050949 0.010896 -0.0073096 -0.18375 -0.014617 0.11694 -0.015828 -0.016982 0.1465 -0.049181 -0.1651 0.062324 -0.021543 -0.10674 -0.094891 -0.0076686 -0.0062245 -0.095696 0.054666 -0.04435 0.042217 -0.049542 0.05979 -0.051726 0.040461 0.056979 0.047049 0.050103 0.046498 0.024097 0.023219 -0.069061 0.13102 0.013344 -0.063522 0.044344 -0.057586 0.062371 0.0096017 0.014525 
to 0.06142 -0.0031217 -0.029241 0.029443 -0.01157 0.021127 -0.09703 -0.0048653 -0.023383 -0.066062 -0.061171 -0.012339 -0.030087 0.00061481 -0.10242 -0.053353 0.0096574 -0.031542 -0.011963 0.086252 0.0063985 0.071096 0.053547 -0.023527 -0.020541 0.022712 0.067061 -0.089116 -0.035092 0.085898 -0.018299 -0.025718 -0.0010869 0.011045 -0.0059224 -0.015613 0.1059 -0.10914 0.11148 0.064637 0.054494 -0.04122 -0.027372 -0.0041577 0.024824 -0.027065 0.068927 -0.0071707 0.05756 0.013248 -0.052867 0.02091 0.027104 -0.021418 0.013144 0.014851 0.013243 -0.035459 -0.0042965 0.0016343 0.030154 0.010535 -0.0090913 -0.11142 -0.016868 0.07043 -0.0081283 -0.0091134 0.08906 -0.023771 -0.099682 0.04171 -0.015528 -0.05968 -0.054671 -0.005021 -0.0019326 -0.057822 0.033833 -0.025879 0.027344 -0.023795 0.035916 -0.029954 0.024152 0.03378 0.032882 0.034732 0.029993 0.014769 0.0087337 -0.040818 0.074868 0.0045006 -0.03975 0.027078 -0.039936 0.034198 0.011667 0.011656 
in 0.072046 -0.0023626 -0.035482 0.033886 -0.015434 0.027085 -0.126 -0.011487 -0.032425 -0.08158 -0.072855 -0.027799 -0.037983 -4.1592e-05 -0.12312 -0.067412 0.0057965 -0.043034 -0.016804 0.1085 0.0070122 0.080428 0.058489 -0.031522 -0.027446 0.024636 0.08859 -0.10302 -0.050034 0.099382 -0.019329 -0.021607 0.0081108 0.013901 -0.011015 -0.022375 0.13304 -0.13123 0.14086 0.085945 0.07435 -0.051115 -0.042089 -0.0067806 0.022065 -0.025406 0.079257 -0.0048149 0.076784 0.017834 -0.068836 0.021215 0.031035 -0.027512 0.015755 0.019118 0.0188 -0.039261 -0.0059031 -0.0038639 0.039067 0.0051248 -0.0079191 -0.14059 -0.014319 0.085484 -0.011778 -0.011652 0.10841 -0.036405 -0.12182 0.04619 -0.019426 -0.077753 -0.06812 -0.0031903 -0.0085089 -0.068957 0.036655 -0.037008 0.028015 -0.03609 0.04106 -0.035982 0.022243 0.040934 0.038365 0.035222 0.040952 0.017785 0.013995 -0.05052 0.097089 0.0045039 -0.052019 0.033911 -0.044093 0.047758 0.011037 0.013236 
To 0.029413 -0.0051676 -0.014723 0.015321 0.0011744 0.0060503 -0.050392 -0.0033431 -0.015977 -0.037671 -0.029522 -0.0086042 -0.015864 0.002609 -0.054334 -0.030147 0.0034106 -0.018782 -0.00084386 0.048234 0.0040805 0.03165 0.026686 -0.013996 -0.0067016 0.0065105 0.038326 -0.040228 -0.016309 0.044817 -0.012308 -0.010208 0.0033601 0.0057039 -0.0022094 -0.015002 0.060906 -0.053067 0.054433 0.032696 0.02488 -0.027196 -0.014025 0.00041273 0.0065417 -0.017653 0.035501 0.0018847 0.028639 0.0078991 -0.030096 0.01534 0.014716 -0.010099 0.0065179 0.0085607 0.010469 -0.01678 -0.0052387 0.0016703 0.014081 0.0064133 -0.0038102 -0.054219 -0.0074005 0.033757 0.0016943 -0.0073169 0.047541 -0.015266 -0.050857 0.013214 -0.010087 -0.032713 -0.025407 0.0010867 -0.0029584 -0.026243 0.018723 -0.0095636 0.015906 -0.016342 0.014195 -0.015918 0.01038 0.018521 0.020387 0.013726 0.01347 0.0061407 0.0042315 -0.022171 0.043591 0.0049862 -0.021073 0.017924 -0.02192 0.022748 0.00092775 0.0037375 
for 0.034623 -0.0036464 -0.018023 0.017954 -0.0093919 0.018191 -0.056326 -0.0050411 -0.016696 -0.039504 -0.036966 -0.015166 -0.019716 -0.0025359 -0.068455 -0.03491 0.00038113 -0.021721 -0.0092349 0.051669 0.0048521 0.040827 0.032121 -0.012531 -0.011385 0.011122 0.044236 -0.056149 -0.022578 0.051162 -0.0090537 -0.0096901 0.003438 0.0020594 -0.0029635 -0.011616 0.063013 -0.065737 0.066933 0.0363 0.03267 -0.02732 -0.022476 -0.00065431 0.008549 -0.012985 0.041127 -0.0042248 0.029636 0.0072755 -0.033309 0.011888 0.015784 -0.013256 0.0099279 0.010212 0.010096 -0.019519 -0.0063104 0.0024639 0.016445 0.0044731 -0.0010018 -0.062187 -0.006742 0.041742 -0.0082245 0.0010967 0.055219 -0.0184 -0.058467 0.021203 -0.0051099 -0.038364 -0.030756 -0.0020363 -0.0043606 -0.033689 0.020168 -0.018851 0.018146 -0.019145 0.023184 -0.019293 0.0095752 0.019048 0.016395 0.018202 0.020638 0.0033162 0.0070493 -0.02322 0.051902 0.0044572 -0.025663 0.01632 -0.023385 0.025695 0.0032884 0.0051864 
be 0.052329 0.0043188 -0.022702 0.029643 -0.0093855 0.022636 -0.093375 -0.0099157 -0.028592 -0.062369 -0.050115 -0.016201 -0.025233 -3.9239e-05 -0.094667 -0.050854 0.011566 -0.031646 -0.0090358 0.088258 0.0061801 0.061455 0.051223 -0.024499 -0.017267 0.013047 0.073093 -0.077023 -0.03825 0.079901 -0.016131 -0.01991 -0.00078273 0.0055647 -0.0015539 -0.022633 0.10213 -0.095394 0.098373 0.058136 0.050695 -0.041928 -0.037941 -0.0037639 0.016895 -0.021346 0.061833 0.0011814 0.051711 0.011185 -0.054296 0.013821 0.029112 -0.020628 0.013916 0.015783 0.014634 -0.02869 -0.0018282 -0.00075 0.031867 0.014453 -0.006244 -0.094839 -0.012323 0.067247 -0.0082989 -0.012532 0.083646 -0.021217 -0.08663 0.035667 -0.012894 -0.058808 -0.05334 -0.0052257 -0.00053932 -0.052327 0.036583 -0.026108 0.019326 -0.027189 0.029926 -0.032672 0.025284 0.028701 0.033986 0.025006 0.024924 0.011228 0.014049 -0.032203 0.071737 0.002104 -0.03419 0.025251 -0.027404 0.033436 0.005553 0.0068493 
will 0.025084 -0.00062982 -0.01352 0.015643 -0.005292 0.0081926 -0.044438 -0.004392 -0.012752 -0.031123 -0.029428 -0.0090999 -0.012595 -5.9199e-05 -0.049986 -0.02796 0.0052799 -0.017497 -0.0028563 0.039385 -0.00028753 0.03308 0.02555 -0.011294 -0.0092531 0.010292 0.033547 -0.038942 -0.017354 0.040306 -0.0093875 -0.0074966 -0.00067552 0.0047158 -0.0034669 -0.010422 0.05116 -0.054614 0.054575 0.032986 0.024575 -0.02218 -0.015534 -0.0014612 0.0090268 -0.013049 0.031232 0.00099447 0.030198 0.0069212 -0.026653 0.0086386 0.013802 -0.011458 0.0078012 0.0084008 0.004386 -0.016535 2.6e-05 -0.0029066 0.01274 0.0018065 -0.0062704 -0.048692 -0.00010892 0.03205 -0.0056844 -0.0036854 0.045081 -0.011674 -0.049369 0.016118 -0.0077031 -0.031397 -0.023319 -0.0029043 0.00092358 -0.028735 0.015146 -0.012305 0.01143 -0.013646 0.016956 -0.014052 0.0089345 0.016579 0.0168 0.013584 0.01419 0.004197 0.0044322 -0.018856 0.039517 0.0051664 -0.018175 0.014957 -0.016448 0.017731 0.0039139 0.0047542 
Understand 0.069836 -0.00093215 -0.03151 0.035338 -0.0144 0.025675 -0.12418 -0.0097918 -0.033209 -0.078692 -0.074922 -0.022486 -0.039342 -0.00045198 -0.12781 -0.068964 0.0094694 -0.040754 -0.014711 0.10968 0.00559 0.081319 0.059844 -0.030364 -0.022628 0.025112 0.089826 -0.10427 -0.041676 0.10098 -0.022354 -0.024887 0.0014245 0.012896 -0.0053729 -0.023185 0.13026 -0.12872 0.13837 0.082006 0.071409 -0.055138 -0.039361 -0.0049921 0.021521 -0.028062 0.084307 -0.0033921 0.074182 0.015232 -0.066194 0.024748 0.036077 -0.025951 0.0179 0.01761 0.016278 -0.042243 -0.0076833 -0.0017928 0.037416 0.0089071 -0.0082585 -0.13533 -0.012367 0.086571 -0.012996 -0.010394 0.11118 -0.033333 -0.12097 0.047338 -0.018252 -0.077653 -0.067209 -0.0071711 -0.0059122 -0.069936 0.040654 -0.032042 0.029519 -0.034835 0.042767 -0.038281 0.027001 0.041081 0.037334 0.036678 0.035886 0.016245 0.013313 -0.049932 0.098684 0.0087286 -0.048132 0.03344 -0.04428 0.047179 0.0065201 0.0134 
able 0.044481 -0.0014654 -0.02445 0.023102 -0.011036 0.017155 -0.081333 -0.008657 -0.020346 -0.055987 -0.05027 -0.014902 -0.025716 -0.0034761 -0.085711 -0.046613 0.0086953 -0.027389 -0.010471 0.070894 0.0051363 0.053788 0.040744 -0.023539 -0.012999 0.014481 0.058888 -0.066453 -0.027563 0.065242 -0.014613 -0.015698 0.0031298 0.0067193 -0.0043672 -0.013708 0.082275 -0.085803 0.089989 0.053435 0.046108 -0.039647 -0.024962 -0.0010959 0.014876 -0.016589 0.052014 -0.005883 0.048655 0.0077327 -0.041874 0.015944 0.021267 -0.017616 0.0091163 0.0097941 0.0097777 -0.023231 -0.0057586 -0.0037467 0.02249 0.0041894 -0.0061109 -0.088631 -0.0073945 0.056096 -0.010467 -0.0041681 0.074408 -0.022502 -0.080783 0.02939 -0.0098075 -0.050068 -0.045038 -0.0045905 -0.0018567 -0.045364 0.025787 -0.021612 0.018902 -0.023748 0.025638 -0.02482 0.018508 0.024936 0.027033 0.02112 0.024996 0.010045 0.010603 -0.032123 0.063354 0.0099441 -0.030779 0.02269 -0.025593 0.02837 0.0041694 0.0065064 
Students 0.058897 -5.7035e-05 -0.029219 0.030654 -0.012042 0.020377 -0.10679 -0.00731 -0.029688 -0.07011 -0.064247 -0.018901 -0.034811 0.00024978 -0.11152 -0.05917 0.0095024 -0.036168 -0.013083 0.09534 0.004309 0.070721 0.053454 -0.026178 -0.019743 0.019112 0.07692 -0.091526 -0.037605 0.088718 -0.018001 -0.019997 0.002621 0.0087072 -0.0044116 -0.022593 0.11263 -0.11301 0.12141 0.069887 0.05919 -0.046311 -0.035071 -0.0019207 0.0187 -0.025138 0.073871 -0.0043093 0.065534 0.011447 -0.056363 0.021595 0.030549 -0.023725 0.013854 0.017306 0.011241 -0.034132 -0.0058257 -0.0023103 0.03072 0.006482 -0.0044755 -0.11771 -0.011603 0.072154 -0.010893 -0.0053979 0.097498 -0.030962 -0.10439 0.039657 -0.014759 -0.067876 -0.059236 -0.0055844 -0.006074 -0.061648 0.034129 -0.028517 0.023355 -0.030863 0.037436 -0.033794 0.023412 0.035947 0.035021 0.032642 0.029523 0.010507 0.012809 -0.041097 0.086073 0.0047198 -0.041491 0.028652 -0.038824 0.040812 0.010457 0.0092917 
basic 0.027074 0.0011902 -0.012054 0.013544 -0.0057484 0.01068 -0.053239 -0.0038486 -0.018011 -0.032435 -0.028816 -0.0087489 -0.018786 -0.0010025 -0.051693 -0.028169 0.0038916 -0.020306 -0.0061363 0.044229 0.0040055 0.032135 0.026885 -0.01064 -0.0066112 0.008069 0.034928 -0.043428 -0.020566 0.041998 -0.0085682 -0.014656 0.0028372 0.0046212 -0.00085007 -0.010637 0.053089 -0.053701 0.057003 0.035509 0.031195 -0.022211 -0.015669 -0.0022166 0.008209 -0.011358 0.034252 -0.0030783 0.03149 0.0069643 -0.025976 0.012553 0.014172 -0.013102 0.0065991 0.0079595 0.0053731 -0.017168 -0.0027971 0.0018419 0.014251 0.0047691 -0.0014274 -0.056108 -0.0057991 0.034492 -0.003926 -0.0056468 0.046805 -0.014398 -0.051256 0.019555 -0.0095134 -0.033299 -0.028242 -0.0044353 -0.0010083 -0.030265 0.018771 -0.012066 0.013993 -0.014076 0.017644 -0.012028 0.0097053 0.014829 0.017614 0.013723 0.016257 0.0046128 0.0033674 -0.019642 0.039529 0.0044224 -0.018217 0.016387 -0.01998 0.020158 0.00085764 0.0049458 
a 0.039812 -0.003128 -0.013993 0.019661 -0.00088406 0.017696 -0.065272 -0.0079795 -0.0089645 -0.038489 -0.034457 -0.0083412 -0.024562 0.00032005 -0.06133 -0.038805 0.010143 -0.015301 -0.0071301 0.053991 0.0055877 0.042275 0.03426 -0.013597 -0.0088908 0.016392 0.045256 -0.054572 -0.024374 0.055801 -0.00084928 -0.01643 -0.0010349 0.0032064 -0.004315 -0.011178 0.060845 -0.062433 0.074156 0.035567 0.02592 -0.024715 -0.01956 -0.0033776 0.0097588 -0.012434 0.040109 -0.0026562 0.036415 0.0092937 -0.025001 0.018408 0.014706 -0.020028 0.0066751 0.011745 0.013951 -0.025128 -0.0084433 -0.00037574 0.02285 -0.0019582 0.004916 -0.066829 -0.0030155 0.045954 -0.0037154 -0.0071797 0.060928 -0.022944 -0.063984 0.022661 -0.0018777 -0.030251 -0.028068 -0.0055556 -0.00019203 -0.038044 0.02655 -0.011699 0.010463 -0.016337 0.02026 -0.015707 0.010803 0.017744 0.015338 0.012439 0.020958 0.010187 0.0086976 -0.016672 0.05487 0.012581 -0.022255 0.007715 -0.019551 0.022242 0.0048803 0.0040007 
concepts 0.04607 -0.00073398 -0.022506 0.02224 -0.0080818 0.017229 -0.081441 -0.0062201 -0.024038 -0.051737 -0.050231 -0.015427 -0.025329 -0.0010384 -0.084363 -0.044971 0.0069274 -0.028479 -0.0089952 0.071057 0.0035193 0.056227 0.03881 -0.019567 -0.013568 0.013637 0.058121 -0.069977 -0.028485 0.068248 -0.014865 -0.016177 0.0017431 0.0077062 -0.0030648 -0.013581 0.084405 -0.087794 0.091363 0.052388 0.047693 -0.035181 -0.024714 -0.0016915 0.014871 -0.019125 0.052659 -0.0021487 0.049822 0.0077357 -0.043899 0.015581 0.020546 -0.018707 0.011895 0.010915 0.013176 -0.025483 -0.0042334 -6.9059e-05 0.02408 0.0056478 -0.0044682 -0.089066 -0.0072869 0.056416 -0.0053217 -0.0055708 0.072755 -0.021509 -0.079563 0.031029 -0.010099 -0.049204 -0.046021 -0.0059117 -0.0043699 -0.046946 0.026265 -0.021516 0.018763 -0.02428 0.027085 -0.02434 0.017117 0.024871 0.025183 0.023918 0.024863 0.0085874 0.008179 -0.034138 0.064999 0.0037276 -0.030497 0.022816 -0.027901 0.030358 0.0035508 0.0094315 
software 0.039271 0.00090201 -0.019682 0.018982 -0.0069183 0.014582 -0.06945 -0.0047988 -0.016804 -0.0469 -0.043999 -0.014015 -0.022249 0.0016062 -0.074294 -0.039501 0.0071547 -0.026559 -0.0088913 0.064077 0.0047514 0.048354 0.034952 -0.01882 -0.011927 0.017153 0.049675 -0.060225 -0.026487 0.059245 -0.012888 -0.012867 0.00038807 0.0063332 -0.0027106 -0.012733 0.0732 -0.077088 0.077976 0.049061 0.039859 -0.030801 -0.023868 -0.0014423 0.011737 -0.016955 0.046961 -0.0016318 0.040756 0.0079884 -0.0354 0.013691 0.019766 -0.014778 0.0088133 0.012392 0.00764 -0.020528 -0.0052936 -0.00013667 0.0229 0.0049596 -0.0010339 -0.075724 -0.0065975 0.050378 -0.0068645 -0.0053282 0.062004 -0.019615 -0.070548 0.025618 -0.0091272 -0.042088 -0.038179 -0.0051093 -0.00082878 -0.041101 0.023009 -0.017741 0.016778 -0.020269 0.023792 -0.020845 0.015309 0.023035 0.021821 0.020673 0.021625 0.0079657 0.0082282 -0.029386 0.05752 0.0040184 -0.027519 0.019179 -0.025127 0.027933 0.0054421 0.0065419 
techniques 0.035114 -2.9306e-05 -0.017638 0.019946 -0.0086733 0.016115 -0.066064 -0.0059032 -0.017267 -0.04223 -0.040253 -0.012382 -0.022624 -0.0009154 -0.069948 -0.037245 0.0052271 -0.023403 -0.010213 0.058762 0.0025094 0.044066 0.031984 -0.015973 -0.011112 0.015025 0.047862 -0.056224 -0.023493 0.055552 -0.010554 -0.013544 0.0015706 0.0065635 -0.0015771 -0.013476 0.06981 -0.071099 0.075213 0.042518 0.037761 -0.028732 -0.02173 -0.0024164 0.010031 -0.014392 0.045026 -0.0018987 0.038584 0.0089535 -0.036995 0.014077 0.01673 -0.014202 0.0086004 0.010803 0.0086199 -0.021185 -0.0046582 -5.3725e-05 0.019405 0.0052254 -0.0059098 -0.072503 -0.0073807 0.044065 -0.0081634 -0.0029406 0.060684 -0.01938 -0.065349 0.02487 -0.0099681 -0.042322 -0.038642 -0.004491 -0.002149 -0.038291 0.021145 -0.01842 0.016503 -0.018123 0.023946 -0.021353 0.014133 0.023394 0.020754 0.019465 0.020399 0.0092373 0.0092803 -0.025185 0.053131 0.0038638 -0.025008 0.017847 -0.024651 0.026125 0.0033233 0.0063011 
understand 0.069685 -0.0010226 -0.032008 0.036463 -0.015904 0.026645 -0.12303 -0.0094232 -0.033844 -0.078413 -0.074375 -0.022129 -0.040667 0.0005281 -0.12835 -0.067722 0.009592 -0.041806 -0.015673 0.11052 0.0050062 0.081445 0.060917 -0.030385 -0.021999 0.023667 0.087703 -0.10442 -0.041762 0.10197 -0.022823 -0.025237 0.0010981 0.013292 -0.0053017 -0.024112 0.13164 -0.12918 0.1403 0.082474 0.071699 -0.055156 -0.040818 -0.0037751 0.021377 -0.028986 0.084542 -0.0037289 0.075656 0.014721 -0.066427 0.026001 0.036068 -0.02715 0.016654 0.017999 0.015275 -0.041031 -0.0074158 -0.0012328 0.036809 0.008471 -0.0090181 -0.13604 -0.012922 0.085801 -0.013765 -0.011275 0.11219 -0.033805 -0.12236 0.046793 -0.018007 -0.07798 -0.068918 -0.0073723 -0.0059051 -0.070856 0.041106 -0.032594 0.0291 -0.034821 0.042856 -0.038168 0.027902 0.040716 0.03851 0.037998 0.036255 0.016051 0.01393 -0.049945 0.098635 0.0093622 -0.046919 0.034384 -0.044602 0.048332 0.0076713 0.012775 
different 0.059655 -0.00017959 -0.029403 0.03076 -0.01329 0.023641 -0.10948 -0.0096689 -0.029835 -0.070969 -0.066259 -0.020597 -0.03354 -0.00092752 -0.1134 -0.059654 0.00932 -0.037235 -0.01276 0.095296 0.0061116 0.070725 0.053115 -0.025812 -0.018736 0.021473 0.075533 -0.091334 -0.038006 0.088828 -0.019125 -0.020618 0.0022281 0.0094124 -0.0051892 -0.022609 0.11207 -0.11455 0.12139 0.070864 0.061411 -0.047737 -0.033761 -0.0048648 0.018303 -0.026708 0.074606 -0.0035149 0.063597 0.011327 -0.059282 0.021493 0.02732 -0.025176 0.012798 0.016869 0.013878 -0.034257 -0.0040699 -0.0016818 0.03329 0.0071405 -0.0056469 -0.11901 -0.011134 0.075132 -0.0089443 -0.0077716 0.098218 -0.027591 -0.10678 0.03979 -0.015452 -0.067363 -0.058308 -0.0066985 -0.0057475 -0.063001 0.035843 -0.029374 0.02445 -0.030913 0.038698 -0.030708 0.024394 0.036064 0.033344 0.033526 0.033637 0.014591 0.01426 -0.042966 0.085682 0.0073376 -0.041144 0.028156 -0.038523 0.042782 0.009488 0.010891 
design 0.028642 0.0011813 -0.015564 0.01766 -0.0073829 0.011717 -0.050433 -0.0041426 -0.014946 -0.030905 -0.029582 -0.0079331 -0.01509 -0.0017122 -0.054161 -0.027181 0.0050932 -0.018087 -0.0057356 0.04703 0.0041362 0.034623 0.022729 -0.015227 -0.010294 0.0095664 0.034742 -0.04079 -0.018115 0.043428 -0.0076821 -0.0091834 0.0012932 0.0029578 -0.003914 -0.012717 0.053892 -0.052147 0.057545 0.032684 0.027931 -0.020663 -0.018909 -0.0012183 0.0093351 -0.011404 0.033028 -0.0011379 0.03117 0.0035733 -0.027966 0.012056 0.014064 -0.01019 0.0054323 0.0053995 0.0087256 -0.016253 -0.001686 -0.0018318 0.015342 0.0040839 -0.0021682 -0.055422 -0.0033953 0.034331 -0.0030367 -0.0043346 0.045562 -0.014161 -0.050751 0.021451 -0.0089236 -0.03305 -0.029099 -0.0039162 -0.0015748 -0.030296 0.0179 -0.014648 0.011453 -0.016208 0.017988 -0.014937 0.011192 0.017246 0.01632 0.014779 0.015442 0.0071974 0.0022484 -0.022666 0.040921 0.0028334 -0.017534 0.01312 -0.020588 0.017309 0.0039708 0.0052937 
as 0.041317 -0.00068303 -0.020353 0.025198 -0.0088738 0.016901 -0.070646 -0.0014758 -0.023691 -0.043573 -0.040599 -0.015027 -0.020118 0.0047585 -0.078343 -0.030709 0.0044428 -0.024699 -0.0085766 0.063869 0.0046999 0.049589 0.033646 -0.013873 -0.015386 0.0093945 0.047723 -0.060617 -0.020437 0.055444 -0.011661 -0.015047 -0.00010838 0.0089463 -0.00030758 -0.013373 0.080745 -0.071922 0.0798 0.045891 0.039357 -0.031188 -0.022952 0.00038848 0.012402 -0.015864 0.046831 0.0008563 0.040384 0.0063841 -0.038772 0.020176 0.021481 -0.021177 0.0080427 0.011116 0.004342 -0.019006 -0.0063499 0.00064742 0.02652 0.010283 -0.0026855 -0.083197 -0.006491 0.048031 -0.0087508 -0.0066434 0.05954 -0.018971 -0.065681 0.028369 -0.0079916 -0.047923 -0.040361 -0.0031241 -0.0039721 -0.045911 0.023618 -0.014599 0.017104 -0.025433 0.020969 -0.018915 0.016335 0.024874 0.025362 0.025444 0.020933 0.0119 0.0061911 -0.029276 0.058559 -0.0021445 -0.024597 0.023396 -0.020574 0.027305 0.0050633 0.015154 
Apply 0.03431 -0.00033075 -0.019335 0.018332 -0.0081096 0.014155 -0.061817 -0.004618 -0.017428 -0.041537 -0.037685 -0.010337 -0.02168 -0.0031111 -0.065571 -0.036848 0.0062599 -0.021898 -0.0080279 0.056174 0.003433 0.042082 0.031099 -0.015951 -0.0098953 0.015197 0.043593 -0.054557 -0.023076 0.052278 -0.010416 -0.012982 0.0019344 0.0042743 -0.0046612 -0.011873 0.067394 -0.06589 0.070573 0.042259 0.035045 -0.026233 -0.02071 -0.004305 0.0085568 -0.016283 0.042805 -0.0014652 0.037073 0.0078103 -0.033288 0.014702 0.016238 -0.013714 0.0076099 0.012533 0.0095655 -0.020959 -0.0033704 -0.0015877 0.018092 0.0049331 -0.0040802 -0.068609 -0.0093075 0.043285 -0.0059904 -0.0080713 0.057063 -0.015696 -0.06006 0.024537 -0.0089657 -0.041011 -0.036159 -0.005329 -0.0058833 -0.036567 0.021484 -0.015442 0.011768 -0.017123 0.02136 -0.017554 0.013863 0.021587 0.018748 0.017767 0.018701 0.0089505 0.0056272 -0.025599 0.048284 0.0046024 -0.022268 0.017975 -0.022989 0.023747 0.0044529 0.0034262 
using 0.084539 -0.0053623 -0.040832 0.044171 -0.017353 0.033614 -0.15383 -0.012779 -0.039689 -0.097352 -0.094254 -0.028588 -0.047546 -0.0029687 -0.15991 -0.086076 0.013148 -0.052448 -0.01677 0.13518 0.0083802 0.10337 0.075568 -0.03725 -0.028262 0.030854 0.10749 -0.13034 -0.055491 0.12426 -0.025716 -0.031383 0.0012313 0.014544 -0.008113 -0.030355 0.16039 -0.1627 0.16991 0.1014 0.086097 -0.068493 -0.051185 -0.0069708 0.025477 -0.035509 0.10525 -0.0083624 0.091144 0.016371 -0.079188 0.032667 0.044025 -0.034404 0.019171 0.024081 0.018277 -0.048565 -0.0076683 -0.0026746 0.046696 0.0095605 -0.0047483 -0.1681 -0.018289 0.10727 -0.012773 -0.011991 0.13931 -0.045194 -0.15154 0.059804 -0.022836 -0.095044 -0.084684 -0.0098305 -0.005879 -0.085439 0.050286 -0.041243 0.033628 -0.043181 0.051936 -0.045511 0.034387 0.051418 0.049527 0.045405 0.048909 0.018015 0.018247 -0.062127 0.12419 0.01063 -0.055579 0.039687 -0.056839 0.057584 0.0080755 0.015318 
knowledge 0.018622 0.0011878 -0.007059 0.01084 -0.0049291 0.0067625 -0.035169 -0.0031848 -0.010688 -0.021858 -0.018821 -0.0047444 -0.0097149 -0.0005508 -0.036281 -0.019336 0.0038888 -0.011961 -0.004517 0.030294 0.0011878 0.021875 0.016491 -0.0089733 -0.0068729 0.0074084 0.023848 -0.028538 -0.011489 0.028655 -0.0066584 -0.0079722 0.0012451 0.0043846 -0.00073248 -0.0067294 0.035686 -0.037415 0.038807 0.023651 0.020319 -0.015227 -0.010375 -0.00068579 0.0040955 -0.0076813 0.024935 -0.0010686 0.021326 0.0036351 -0.017841 0.0084627 0.010371 -0.0073554 0.0050554 0.0036498 0.0038071 -0.012254 -0.0029162 -0.0022061 0.0095394 0.0023911 -3.6519e-05 -0.039669 -0.0042625 0.024327 -0.0027231 -0.0030735 0.031602 -0.010585 -0.035676 0.012564 -0.0042305 -0.022268 -0.021545 -0.0012589 -0.0028945 -0.020809 0.0099573 -0.0088866 0.0080566 -0.0094566 0.013389 -0.0084014 0.0080413 0.010831 0.011707 0.010997 0.010693 0.0041708 0.0024455 -0.013398 0.02851 0.0038581 -0.013837 0.012371 -0.011214 0.011561 0.0026374 0.0034382 
data 0.028657 -0.0011081 -0.013804 0.016171 -0.0086389 0.012724 -0.055607 -0.0052732 -0.015282 -0.035189 -0.029102 -0.0082418 -0.017088 0.0001692 -0.058865 -0.031086 0.0042636 -0.022168 -0.0059208 0.047396 0.0017782 0.037374 0.024685 -0.01306 -0.010745 0.012521 0.037483 -0.047336 -0.017146 0.043398 -0.0092587 -0.011968 -7.7288e-05 0.0054497 -0.0015872 -0.012604 0.054381 -0.060348 0.06183 0.033883 0.031413 -0.024313 -0.018569 0.00010756 0.010639 -0.014005 0.036479 -0.00098415 0.032689 0.0086948 -0.028238 0.01068 0.013853 -0.0095542 0.0066654 0.0085946 0.0049985 -0.017639 -0.0018748 7.9899e-05 0.01603 0.0042274 -0.0015054 -0.057962 -0.0054501 0.041259 -0.0044551 -0.0044693 0.048515 -0.015959 -0.052611 0.020342 -0.009385 -0.032734 -0.031436 -0.0028237 -0.0021169 -0.029864 0.018432 -0.010101 0.011902 -0.01377 0.020491 -0.015277 0.012345 0.018365 0.016951 0.015247 0.016871 0.0065684 0.0048228 -0.021873 0.041688 0.0058465 -0.019474 0.013492 -0.02127 0.0211 0.005322 0.004619 
computer 0.047649 -0.0014998 -0.024411 0.026924 -0.0093776 0.020592 -0.091564 -0.0061368 -0.025901 -0.058896 -0.055796 -0.018205 -0.029864 -0.0012817 -0.0957 -0.049421 0.0082004 -0.031505 -0.010647 0.081803 0.0047851 0.062814 0.045397 -0.021843 -0.017167 0.016158 0.066577 -0.078942 -0.030737 0.075911 -0.016762 -0.01725 0.0013256 0.0079695 -0.0014595 -0.018928 0.096453 -0.099006 0.10176 0.061522 0.054019 -0.039563 -0.027847 -0.0025225 0.015272 -0.020907 0.061119 -0.0047094 0.053808 0.010009 -0.048718 0.017884 0.024976 -0.019318 0.012955 0.013297 0.013312 -0.028516 -0.0052964 -0.0022506 0.027789 0.0089179 -0.0053444 -0.10204 -0.010368 0.062859 -0.010037 -0.0072756 0.083927 -0.025896 -0.090918 0.03544 -0.013111 -0.057522 -0.050271 -0.003219 -0.0058714 -0.051499 0.027535 -0.022991 0.020812 -0.026427 0.031612 -0.029291 0.020786 0.030038 0.02823 0.026489 0.025041 0.011888 0.0097057 -0.035563 0.074317 0.0058991 -0.033973 0.026879 -0.032691 0.034273 0.006355 0.008575 
various 0.025185 0.0014796 -0.012043 0.011013 -0.0052025 0.0088425 -0.044206 -0.002043 -0.013162 -0.02694 -0.025772 -0.0069196 -0.013235 -0.0019683 -0.043416 -0.022941 0.0015114 -0.016269 -0.0060262 0.039375 0.003309 0.028522 0.023324 -0.0094543 -0.0084714 0.0077005 0.032313 -0.036135 -0.016213 0.035148 -0.0080902 -0.0077677 0.0027885 0.0046395 5.014e-05 -0.0084534 0.04517 -0.048317 0.047763 0.028264 0.023916 -0.018816 -0.014838 -0.0024273 0.0074419 -0.010617 0.031124 -0.0026928 0.02563 0.0048801 -0.021896 0.0096545 0.012502 -0.010803 0.0047033 0.0054567 0.0063573 -0.014417 -0.0036724 -0.0027789 0.013575 0.0026626 -0.0029819 -0.047117 -0.0047267 0.032299 -0.002861 -0.0046952 0.038289 -0.012849 -0.043639 0.018651 -0.0070306 -0.029212 -0.022715 -0.0040649 -0.003154 -0.023064 0.01417 -0.0117 0.0069103 -0.01217 0.015655 -0.011437 0.010663 0.016105 0.013686 0.014787 0.014299 0.0040386 0.0035518 -0.01693 0.034958 0.0030171 -0.01924 0.011786 -0.016352 0.017647 0.00329 0.0037742 
development 0.057629 -0.00088752 -0.027732 0.028743 -0.012851 0.02207 -0.10362 -0.008554 -0.028312 -0.067331 -0.063002 -0.021227 -0.03216 -0.00097449 -0.10936 -0.057244 0.0094621 -0.034538 -0.014407 0.091355 0.0060375 0.069483 0.050486 -0.023618 -0.018384 0.018994 0.07442 -0.087543 -0.036628 0.085013 -0.016136 -0.020304 0.00097234 0.010574 -0.0035712 -0.019155 0.10946 -0.11015 0.11688 0.069179 0.05746 -0.046358 -0.033885 -0.0031954 0.018183 -0.025317 0.069917 -0.0034008 0.062514 0.010602 -0.054451 0.020255 0.029038 -0.024303 0.013487 0.015641 0.013043 -0.034417 -0.0057606 -0.0017682 0.030942 0.0074442 -0.0037362 -0.11425 -0.010374 0.071723 -0.0098916 -0.0088806 0.093658 -0.029006 -0.10387 0.039373 -0.015325 -0.065009 -0.055282 -0.0057427 -0.0035276 -0.059891 0.033275 -0.026729 0.023866 -0.030717 0.035939 -0.03215 0.023024 0.033955 0.035286 0.030777 0.031346 0.01165 0.011633 -0.041542 0.083906 0.0071182 -0.03931 0.030323 -0.038499 0.040264 0.0067408 0.010544 
with 0.019111 -0.0022808 -0.012878 0.01003 -0.00491 0.0091471 -0.041995 -0.0046444 -0.010649 -0.029364 -0.023505 -0.0077702 -0.012643 -0.00096096 -0.044144 -0.025567 0.003944 -0.014714 -0.0040862 0.036169 0.00012302 0.026803 0.019752 -0.011158 -0.0057701 0.0063625 0.034347 -0.039825 -0.014662 0.037413 -0.0054971 -0.0085982 -0.001435 0.0031919 -0.0039686 -0.008779 0.04442 -0.045475 0.044359 0.028732 0.023085 -0.018422 -0.012072 -0.0020392 0.0073297 -0.0092853 0.030113 -0.0021667 0.025856 0.00477 -0.022235 0.0067701 0.012629 -0.009968 0.0039788 0.0086681 0.0070115 -0.014252 -0.002573 -0.00014501 0.014994 0.0011286 -0.0017891 -0.047397 -0.006372 0.027641 -0.0058312 -0.0039056 0.038506 -0.016606 -0.040235 0.018574 -0.0072599 -0.02406 -0.023635 -0.0050559 -0.00047881 -0.025167 0.013167 -0.0091697 0.0079403 -0.010732 0.014476 -0.014681 0.004993 0.011335 0.010487 0.012384 0.012616 0.0038099 0.0043795 -0.018311 0.033726 0.0039707 -0.017829 0.016144 -0.015708 0.017865 0.0015163 0.003715 
apply 0.046873 -0.001931 -0.025184 0.025915 -0.0095874 0.018455 -0.086519 -0.0063125 -0.023631 -0.057141 -0.048741 -0.016116 -0.031117 -0.00084978 -0.091984 -0.050996 0.0082622 -0.030774 -0.0093287 0.078332 0.0052218 0.056883 0.042469 -0.022113 -0.014459 0.019657 0.062876 -0.073513 -0.033109 0.073213 -0.013909 -0.016463 0.0035305 0.0057753 -0.0039175 -0.016554 0.091273 -0.089832 0.09861 0.057587 0.051063 -0.037144 -0.027576 -0.0017667 0.011857 -0.021031 0.059373 -0.0034888 0.050594 0.01132 -0.045841 0.022549 0.023737 -0.020568 0.0099164 0.014199 0.011646 -0.02913 -0.0058054 -0.0014202 0.027882 0.0068879 -0.0054554 -0.097061 -0.0079105 0.059811 -0.0098909 -0.0076426 0.078894 -0.025356 -0.083782 0.029652 -0.011833 -0.056488 -0.049196 -0.006219 -0.0035239 -0.050813 0.029254 -0.019409 0.019349 -0.026171 0.031549 -0.027599 0.017287 0.029208 0.026575 0.026288 0.026016 0.010424 0.009184 -0.038014 0.071381 0.0057193 -0.032204 0.023619 -0.031662 0.035298 0.0066946 0.0072715 
how 0.027056 -0.0010969 -0.013274 0.013488 -0.0038124 0.010119 -0.048276 -0.0052715 -0.016475 -0.032936 -0.029077 -0.0072153 -0.017764 -0.0028857 -0.051401 -0.02612 0.0024958 -0.021174 -0.0047924 0.041742 0.0025837 0.032163 0.023201 -0.014083 -0.010365 0.0044028 0.032681 -0.040764 -0.01853 0.037849 -0.0055653 -0.0073295 0.0027315 0.003586 -0.0027143 -0.013807 0.052148 -0.051248 0.057847 0.029254 0.027508 -0.021259 -0.017417 -9.5042e-05 0.0081134 -0.010816 0.03167 -0.00082724 0.028768 0.0044614 -0.029638 0.012682 0.010334 -0.011381 0.0051521 0.0051916 0.002842 -0.016149 -0.0049462 0.001393 0.017294 0.0062783 -0.0021682 -0.053631 -0.0047729 0.033545 -0.0039928 -0.0044088 0.045783 -0.011676 -0.051101 0.016896 -0.004073 -0.031537 -0.02766 -0.0046428 -0.0020151 -0.02715 0.021959 -0.014386 0.011337 -0.015302 0.016149 -0.016895 0.010278 0.018578 0.015148 0.017557 0.013656 0.0039602 0.0063451 -0.02286 0.038601 0.0047949 -0.018969 0.012003 -0.018692 0.020689 0.0015033 0.0068828 
learn 0.028811 -0.00087505 -0.015303 0.011624 -0.0046596 0.011631 -0.050485 -0.0031703 -0.016077 -0.03376 -0.028744 -0.0091226 -0.01537 -0.0009553 -0.049169 -0.027254 0.0045866 -0.016188 -0.0054654 0.042334 0.00042097 0.030559 0.022958 -0.01225 -0.0090115 0.0087204 0.034019 -0.042522 -0.016971 0.040811 -0.0088552 -0.010991 0.0014243 0.00407 -0.0022506 -0.0094613 0.051387 -0.05145 0.054232 0.031189 0.026045 -0.021227 -0.013366 -0.0047474 0.0081213 -0.014253 0.033569 -0.0031559 0.02726 0.0037837 -0.022618 0.010701 0.013544 -0.013165 0.0057608 0.009411 0.0081816 -0.014024 -0.0040881 -0.0010098 0.012763 0.0044177 -0.0022001 -0.051627 -0.0053133 0.034204 -0.0047484 0.0011409 0.043354 -0.015067 -0.046998 0.015541 -0.0052918 -0.028749 -0.028131 -0.002439 -0.0046093 -0.028693 0.018159 -0.012439 0.010439 -0.014428 0.017934 -0.012653 0.010282 0.01539 0.01551 0.014984 0.011255 0.0056413 0.0037313 -0.020121 0.036996 0.0040398 -0.017335 0.013561 -0.017321 0.020557 0.0021377 0.0048942 
programming 0.066923 -0.00065815 -0.030907 0.034582 -0.013831 0.02461 -0.11987 -0.0084955 -0.031251 -0.076665 -0.071024 -0.022524 -0.039209 -0.0018548 -0.12461 -0.065504 0.012017 -0.043335 -0.014114 0.10717 0.0068825 0.077895 0.05905 -0.03104 -0.021451 0.024105 0.08261 -0.10233 -0.042487 0.096978 -0.022198 -0.024223 0.002066 0.012698 -0.0061729 -0.024268 0.12595 -0.12637 0.13184 0.077583 0.067152 -0.05362 -0.039341 -0.0051737 0.019107 -0.027704 0.078996 -0.004802 0.07039 0.013518 -0.063169 0.026061 0.032377 -0.026039 0.015598 0.017351 0.016039 -0.036386 -0.0060346 0.0003337 0.035685 0.010226 -0.0066732 -0.1284 -0.012122 0.081504 -0.011406 -0.0083193 0.10922 -0.033977 -0.1179 0.043719 -0.015345 -0.075111 -0.067436 -0.007024 -0.0057866 -0.067652 0.038829 -0.03096 0.028078 -0.033648 0.044069 -0.03522 0.025451 0.037405 0.037815 0.035605 0.03587 0.01621 0.012335 -0.048626 0.09559 0.0077311 -0.043657 0.030854 -0.040866 0.047538 0.0076545 0.011172 
applications 0.1029 -0.00036793 -0.04888 0.053052 -0.020473 0.039847 -0.18675 -0.011965 -0.052082 -0.12019 -0.11165 -0.034311 -0.060197 -0.0032199 -0.19544 -0.10223 0.018412 -0.066143 -0.022934 0.16458 0.0092875 0.1229 0.091809 -0.047197 -0.032407 0.036883 0.13477 -0.15919 -0.067438 0.15486 -0.032841 -0.039144 0.0044083 0.017017 -0.010191 -0.035135 0.19592 -0.20071 0.20849 0.12218 0.10453 -0.083742 -0.060807 -0.0070701 0.031965 -0.042526 0.1271 -0.0075857 0.11207 0.022392 -0.098392 0.037916 0.051987 -0.043757 0.023136 0.028151 0.024665 -0.060206 -0.011434 -0.0040272 0.055987 0.013646 -0.012719 -0.20555 -0.016024 0.12759 -0.017078 -0.016019 0.16925 -0.054456 -0.18384 0.067885 -0.026672 -0.11707 -0.10433 -0.010653 -0.0096597 -0.10717 0.061114 -0.047323 0.043342 -0.054622 0.067485 -0.05892 0.040374 0.06248 0.059222 0.055545 0.055607 0.02401 0.018872 -0.076124 0.15119 0.011278 -0.072023 0.051607 -0.067094 0.072279 0.012502 0.019186 
analyze 0.038816 0.00079393 -0.017069 0.019658 -0.0071223 0.013882 -0.069836 -0.0040803 -0.019508 -0.044462 -0.040846 -0.012596 -0.02318 -0.0019016 -0.070665 -0.037919 0.0055605 -0.020842 -0.0083934 0.059954 0.0047018 0.041169 0.031936 -0.014706 -0.011828 0.010284 0.047237 -0.057522 -0.02363 0.054389 -0.010981 -0.012181 0.00038944 0.0039593 -0.0043837 -0.011178 0.071483 -0.071943 0.075194 0.045288 0.039731 -0.028348 -0.023587 -0.00087346 0.0124 -0.014791 0.046273 -0.0015864 0.039819 0.007926 -0.034931 0.013312 0.019548 -0.015624 0.011029 0.013166 0.0077166 -0.021657 -0.0026726 -0.00086079 0.019093 0.005709 -0.0054954 -0.073577 -0.005201 0.047073 -0.0081885 -0.0055567 0.062974 -0.020038 -0.067231 0.025579 -0.011231 -0.040866 -0.040501 -0.0036883 -0.0019686 -0.037576 0.022837 -0.019363 0.016302 -0.020422 0.024026 -0.019973 0.015712 0.02292 0.019984 0.019294 0.020406 0.010409 0.0090765 -0.026934 0.054664 0.0035371 -0.02492 0.018092 -0.023305 0.025842 0.0051277 0.0070693 
their 0.039621 -0.0023849 -0.019735 0.022304 -0.0088132 0.014426 -0.07929 -0.0053714 -0.021763 -0.049512 -0.046082 -0.017387 -0.023381 0.00051061 -0.083313 -0.043821 0.0059528 -0.025545 -0.0074055 0.070642 0.00165 0.047863 0.036412 -0.01728 -0.013865 0.014234 0.054785 -0.065126 -0.026433 0.06345 -0.011213 -0.013052 0.00032604 0.0055253 -0.0038295 -0.01626 0.080656 -0.081566 0.086584 0.049287 0.043199 -0.037582 -0.023604 -0.0028259 0.012109 -0.021044 0.050828 -0.0020231 0.045826 0.0095598 -0.040653 0.014432 0.022192 -0.017743 0.010221 0.011385 0.01016 -0.022662 -0.0053778 -0.0039151 0.021033 0.008072 -0.0058782 -0.084457 -0.0075759 0.054454 -0.0082602 -0.0058084 0.071076 -0.023114 -0.073191 0.028102 -0.01224 -0.04778 -0.043084 -0.0039275 -0.0025781 -0.041827 0.025447 -0.020279 0.019088 -0.021701 0.029171 -0.02359 0.01742 0.024684 0.023111 0.021262 0.021223 0.010935 0.011673 -0.032143 0.060131 0.0059302 -0.027875 0.021703 -0.026635 0.02976 0.0056919 0.0073325 
system 0.039694 -0.0029766 -0.019708 0.023409 -0.0076615 0.013561 -0.070339 -0.00889 -0.017402 -0.047351 -0.041878 -0.015339 -0.023633 -0.0033121 -0.07421 -0.042542 0.0077719 -0.02502 -0.0065794 0.066259 0.0034664 0.046461 0.037843 -0.016444 -0.011479 0.012943 0.051875 -0.06178 -0.026255 0.062443 -0.013251 -0.013217 0.0020188 0.0086256 -0.0020116 -0.011674 0.077893 -0.079019 0.082388 0.047337 0.040861 -0.033987 -0.023529 -0.0017912 0.01362 -0.017666 0.051167 -0.0010277 0.044438 0.0080313 -0.038374 0.014492 0.020028 -0.018385 0.0090518 0.012445 0.013431 -0.023873 -0.0048722 -7.6522e-05 0.021372 0.005021 -0.0038447 -0.081099 -0.0080456 0.052451 -0.0080322 -0.0070816 0.067738 -0.022038 -0.074188 0.026099 -0.010654 -0.048874 -0.042697 -0.0034059 -0.0041324 -0.043421 0.024343 -0.016209 0.016314 -0.022327 0.026336 -0.023629 0.015134 0.024759 0.023124 0.022517 0.020303 0.008084 0.0076807 -0.029657 0.061208 0.0033002 -0.028735 0.020026 -0.02675 0.028176 0.0069505 0.0091374 
problems 0.061905 0.00048182 -0.028856 0.029248 -0.013657 0.024079 -0.10792 -0.0068493 -0.029956 -0.069728 -0.064723 -0.019727 -0.034545 0.00023594 -0.11236 -0.058847 0.011269 -0.036113 -0.014414 0.096673 0.0048322 0.07065 0.053695 -0.026359 -0.020579 0.021017 0.07612 -0.091784 -0.037171 0.088595 -0.018421 -0.021464 0.0030451 0.0098734 -0.0062895 -0.020893 0.11326 -0.11598 0.11962 0.069328 0.061115 -0.049168 -0.033561 -0.0021127 0.017977 -0.024861 0.073051 -0.0053867 0.063908 0.013749 -0.05612 0.024507 0.029921 -0.023403 0.01406 0.017152 0.01312 -0.033303 -0.0059995 -0.001697 0.032965 0.0092085 -0.0062848 -0.11779 -0.011959 0.073754 -0.010184 -0.0080324 0.098661 -0.031019 -0.10683 0.039257 -0.013606 -0.064976 -0.061946 -0.0075423 -0.0055095 -0.061697 0.033531 -0.027576 0.024823 -0.032916 0.037245 -0.03197 0.025486 0.035458 0.033079 0.031479 0.034369 0.0144 0.011511 -0.043441 0.086095 0.0064941 -0.041295 0.02667 -0.038062 0.041572 0.0069394 0.0123 
Demonstrate 0.033841 -0.00099734 -0.016639 0.016898 -0.005962 0.012791 -0.061785 -0.0048907 -0.018127 -0.039721 -0.038179 -0.011541 -0.022389 -0.0020424 -0.064425 -0.034996 0.0052038 -0.022376 -0.006535 0.056789 0.0025403 0.041329 0.031216 -0.016006 -0.0095907 0.011794 0.045832 -0.053693 -0.021614 0.048665 -0.010282 -0.013201 0.002354 0.0069353 -0.0034996 -0.011372 0.064292 -0.067662 0.069871 0.040484 0.034582 -0.027845 -0.021643 -0.0037875 0.0094987 -0.015235 0.041197 -0.002814 0.037026 0.0083803 -0.034812 0.013204 0.018379 -0.014614 0.0088921 0.010103 0.0087278 -0.020782 -0.0032402 0.00084518 0.019003 0.0045845 -0.00377 -0.069053 -0.0040992 0.043893 -0.0058372 -0.0066125 0.058317 -0.016377 -0.062662 0.022174 -0.0072299 -0.039492 -0.034476 -0.0043336 -0.0023064 -0.035519 0.02067 -0.01494 0.016618 -0.018392 0.022556 -0.018698 0.013645 0.020473 0.019327 0.017729 0.01766 0.0071078 0.0082973 -0.025267 0.050714 0.0032544 -0.023392 0.015868 -0.022504 0.024985 0.0040192 0.0053347 
engineering 0.044886 2.4063e-05 -0.020365 0.021754 -0.0090194 0.017491 -0.078933 -0.005733 -0.020983 -0.050532 -0.04767 -0.01529 -0.025319 -0.001254 -0.082594 -0.043246 0.0080309 -0.028022 -0.0083018 0.070913 0.0050839 0.052659 0.041071 -0.018983 -0.013071 0.017166 0.055961 -0.067567 -0.027604 0.062621 -0.014547 -0.015664 0.0014474 0.0063711 -0.00422 -0.015594 0.08336 -0.085071 0.089024 0.052669 0.043627 -0.036777 -0.025573 -0.0020861 0.015222 -0.018408 0.05431 -0.0030015 0.045896 0.0095612 -0.043223 0.017272 0.022134 -0.016818 0.0092848 0.012289 0.0090059 -0.025135 -0.0019677 -0.00035051 0.024698 0.005921 -0.0052178 -0.087948 -0.010388 0.055285 -0.0068046 -0.0064694 0.073287 -0.022435 -0.078508 0.030566 -0.010812 -0.049733 -0.045352 -0.0046175 -0.0036624 -0.046437 0.025854 -0.021686 0.018536 -0.022579 0.0271 -0.024846 0.018507 0.025452 0.024095 0.023703 0.024118 0.010425 0.010489 -0.03239 0.063596 0.0061645 -0.030209 0.021396 -0.02981 0.031452 0.003835 0.0082016 
management 0.040129 -0.0023873 -0.019593 0.019127 -0.0065059 0.015483 -0.071165 -0.0051546 -0.020707 -0.04696 -0.041115 -0.013411 -0.021349 -0.0025604 -0.074587 -0.039073 0.0053269 -0.02392 -0.0084748 0.063071 0.006041 0.048952 0.03579 -0.016481 -0.011278 0.013208 0.048956 -0.059144 -0.025944 0.059502 -0.012509 -0.015433 0.00019455 0.0072004 -0.0024751 -0.012445 0.074119 -0.075339 0.078676 0.046127 0.03825 -0.032821 -0.023409 -0.0024745 0.011965 -0.017015 0.047464 -0.0027064 0.042891 0.0075961 -0.037338 0.014586 0.020448 -0.016543 0.009076 0.010206 0.0094091 -0.023536 -0.0040778 -0.00068949 0.021482 0.0067174 -0.0041139 -0.077706 -0.0092943 0.048445 -0.0081497 -0.0056091 0.064934 -0.019597 -0.069764 0.025462 -0.0089432 -0.044895 -0.04008 -0.0033591 -0.0036043 -0.040962 0.025109 -0.018403 0.016879 -0.022078 0.025535 -0.020522 0.014617 0.024211 0.024183 0.020231 0.021729 0.0084817 0.0089676 -0.029299 0.058321 0.0059368 -0.02718 0.020902 -0.025483 0.027532 0.0049212 0.0072983 
on 0.059333 -0.0012712 -0.032728 0.035799 -0.018911 0.019373 -0.11096 -0.0079216 -0.030203 -0.069871 -0.067201 -0.020318 -0.032879 0.0012398 -0.11653 -0.060382 0.011573 -0.038044 -0.0091083 0.093885 0.0097021 0.070284 0.050583 -0.025754 -0.025122 0.023891 0.079313 -0.090957 -0.040838 0.088875 -0.018111 -0.024048 -0.005817 0.0095002 -0.0049452 -0.022886 0.11106 -0.1099 0.12045 0.075247 0.059729 -0.045742 -0.036497 -0.00077697 0.015985 -0.02585 0.071172 -0.0073058 0.065647 0.014268 -0.062422 0.027381 0.028435 -0.01971 0.015936 0.016944 0.015149 -0.036717 -0.0020672 -0.0039699 0.037719 0.008224 -0.0060005 -0.11659 -0.0098444 0.075867 -0.005633 -0.012759 0.097311 -0.033863 -0.10607 0.045525 -0.019251 -0.069711 -0.058721 -0.0045032 -0.0091838 -0.064584 0.032626 -0.029255 0.025983 -0.027545 0.03668 -0.031319 0.024901 0.036446 0.033796 0.028687 0.032951 0.019146 0.013887 -0.042249 0.089293 0.012711 -0.042424 0.030903 -0.032411 0.045766 0.0096223 0.016551 
or 0.040824 -0.0048528 -0.023268 0.016103 -0.0072909 0.018304 -0.068198 -0.0039352 -0.018408 -0.044054 -0.041822 -0.012064 -0.023637 -0.00055859 -0.074651 -0.036136 0.0053931 -0.024964 -0.0079837 0.056115 0.0073474 0.045127 0.032734 -0.015065 -0.011419 0.011582 0.052667 -0.063514 -0.029236 0.058819 -0.0098828 -0.015599 -0.0021599 0.0059435 -0.0082187 -0.013168 0.072552 -0.079192 0.076549 0.046889 0.037214 -0.03214 -0.02458 -0.0046182 0.010867 -0.016302 0.045434 -0.0043282 0.043445 0.0038002 -0.043538 0.014135 0.015787 -0.012171 0.011736 0.010788 0.0079138 -0.026833 -0.0030949 -0.0015501 0.021883 0.0060904 -0.0060329 -0.07716 -0.0067583 0.047292 -0.0076503 -0.00091374 0.06819 -0.020556 -0.073874 0.027387 -0.0059494 -0.045469 -0.045219 -0.0017842 -0.001827 -0.03908 0.022131 -0.018875 0.014817 -0.022875 0.02867 -0.024295 0.014577 0.024411 0.019268 0.02158 0.022898 0.005255 0.012954 -0.026491 0.063378 0.0039416 -0.029469 0.017672 -0.030049 0.0271 0.0076902 0.01024 
understanding 0.072661 -0.0008915 -0.034961 0.03726 -0.016868 0.027335 -0.1285 -0.0095367 -0.036311 -0.082823 -0.078575 -0.024344 -0.04236 -0.00021193 -0.13507 -0.071894 0.010639 -0.044326 -0.015631 0.11476 0.0060966 0.086118 0.064429 -0.030741 -0.022914 0.025127 0.093423 -0.10987 -0.045463 0.10738 -0.02429 -0.026877 0.0013295 0.012624 -0.0052435 -0.025166 0.13756 -0.13666 0.14459 0.085862 0.074732 -0.057913 -0.04236 -0.0044983 0.022367 -0.030938 0.088861 -0.0045424 0.078472 0.014454 -0.069305 0.027708 0.037988 -0.027521 0.017654 0.019023 0.016697 -0.043079 -0.0074604 -0.00058993 0.03948 0.0097055 -0.0082242 -0.14229 -0.01278 0.09112 -0.013211 -0.011345 0.11785 -0.03499 -0.1286 0.050099 -0.01861 -0.080847 -0.072154 -0.0083179 -0.0058206 -0.074603 0.043139 -0.033919 0.030192 -0.037548 0.045032 -0.040072 0.028041 0.043015 0.040396 0.039089 0.038541 0.017786 0.014973 -0.052607 0.10253 0.0095948 -0.049031 0.036229 -0.046505 0.051281 0.0076855 0.013746 
based 0.028048 0.0013454 -0.013712 0.017629 -0.0070504 0.010034 -0.054998 -0.0040838 -0.016316 -0.032385 -0.03071 -0.0083373 -0.017646 -0.00051246 -0.056709 -0.030188 0.001704 -0.019888 -0.0069712 0.050117 0.0033882 0.035292 0.026836 -0.014087 -0.010581 0.011155 0.039249 -0.045985 -0.018038 0.045377 -0.01119 -0.012861 0.0012609 0.0050483 -0.0032857 -0.0088768 0.05894 -0.061118 0.059389 0.033489 0.029384 -0.025693 -0.016976 -0.0034911 0.0078451 -0.011673 0.03586 -0.0020944 0.032197 0.0065016 -0.027543 0.011655 0.011806 -0.010176 0.0057963 0.0078909 0.0084926 -0.016038 -0.0027039 0.00069278 0.01663 0.0017007 -0.0027917 -0.059658 -0.0038856 0.040017 -0.0043005 -0.0035314 0.050229 -0.016226 -0.052791 0.020186 -0.0052966 -0.033138 -0.030206 -0.0037312 -0.0011627 -0.03354 0.016619 -0.013823 0.012821 -0.01643 0.019812 -0.018232 0.012978 0.017021 0.015593 0.014736 0.013989 0.0058223 0.0061411 -0.023676 0.042387 0.0031783 -0.017144 0.017553 -0.021828 0.022326 0.0025016 0.0054933 
logic 0.020431 -0.00052049 -0.0099354 0.010558 -0.0066374 0.0071674 -0.038547 -0.0013518 -0.01335 -0.024247 -0.024149 -0.0060886 -0.01118 -0.0001929 -0.036574 -0.019075 0.0028177 -0.014693 -0.005157 0.032021 0.0019829 0.025534 0.021018 -0.0086981 -0.007237 0.008809 0.024163 -0.030366 -0.015799 0.029632 -0.0075064 -0.0058467 0.0023862 0.0040638 -0.0020825 -0.0068555 0.039331 -0.039847 0.042039 0.024092 0.020792 -0.013406 -0.013228 -0.00021952 0.0093439 -0.0072767 0.028511 -0.0024189 0.023276 0.0037328 -0.019273 0.0069927 0.0097834 -0.011721 0.0049203 0.0066462 0.003004 -0.0097372 -0.00085216 0.0011587 0.0093416 0.0044492 0.0011854 -0.040724 -0.0031032 0.030126 -0.0050301 -0.0015093 0.0319 -0.007864 -0.037217 0.013525 -0.0027373 -0.0236 -0.021077 -0.0044105 -0.0035931 -0.018643 0.0099114 -0.010759 0.0072663 -0.011378 0.010885 -0.011324 0.0055969 0.014409 0.011133 0.011727 0.012366 0.0070124 0.0070206 -0.014991 0.030474 0.0026463 -0.015995 0.010992 -0.014459 0.013045 0.0012706 0.0040048 
business 0.022165 0.00091778 -0.0094884 0.010599 -0.0021098 0.0068739 -0.038005 -0.0021122 -0.0092505 -0.024165 -0.024332 -0.0060564 -0.012478 -0.001326 -0.040111 -0.02317 0.0043468 -0.011683 -0.0038906 0.034951 0.0030955 0.025367 0.018554 -0.0089374 -0.00752 0.0069288 0.024941 -0.031715 -0.014871 0.031472 -0.0042702 -0.0069312 0.0013651 0.0028004 -0.00058284 -0.00794 0.038883 -0.041005 0.044086 0.025122 0.021872 -0.017176 -0.012013 -0.0010399 0.0081491 -0.0086792 0.0272 -0.00092075 0.022715 0.0038375 -0.021207 0.0073266 0.010928 -0.0076217 0.0037675 0.0066117 0.0044093 -0.013138 -0.0012167 -0.0017651 0.012862 0.0017536 -0.002431 -0.041711 -0.0044518 0.027999 -0.0047214 -0.004097 0.034791 -0.011776 -0.037532 0.014485 -0.0066568 -0.024735 -0.019711 -0.0023253 -0.0038765 -0.022273 0.0108 -0.011502 0.010811 -0.011851 0.012419 -0.011692 0.0072578 0.014364 0.012997 0.012819 0.012377 0.0051341 0.0045493 -0.017166 0.032243 0.0040792 -0.014968 0.0094288 -0.012299 0.015692 0.0016685 0.0046183 
use 0.035474 -0.0046877 -0.017218 0.018482 -0.0050407 0.013207 -0.068271 -0.0074715 -0.018524 -0.041652 -0.042756 -0.012655 -0.022293 -0.0017258 -0.07208 -0.039072 0.0051757 -0.023543 -0.0064582 0.056724 0.00083474 0.044807 0.035424 -0.014911 -0.016184 0.010647 0.045695 -0.059798 -0.023094 0.058037 -0.012359 -0.013624 0.0007677 0.0085939 -0.0074427 -0.015687 0.070486 -0.073688 0.075058 0.042506 0.040208 -0.03107 -0.020525 -0.0029939 0.01066 -0.016788 0.044181 -0.0031886 0.043745 0.0076967 -0.034024 0.010441 0.019018 -0.017036 0.010286 0.011181 0.0081641 -0.023797 -0.0032794 0.0010031 0.015518 0.0016157 -0.0037697 -0.074935 -0.010529 0.043996 -0.0081468 -0.0043038 0.059572 -0.017389 -0.067982 0.02276 -0.0065222 -0.040523 -0.041051 -0.0021935 -0.0002833 -0.039496 0.022677 -0.020755 0.012986 -0.023774 0.023556 -0.021386 0.012031 0.017417 0.02193 0.023072 0.019283 0.0091421 0.011485 -0.022461 0.055157 0.0047387 -0.029026 0.019311 -0.025236 0.024449 0.00484 0.0070659 
quality 0.049944 -0.0015619 -0.024944 0.02613 -0.012416 0.01705 -0.087639 -0.0059186 -0.023866 -0.057695 -0.053235 -0.019026 -0.031535 -0.00048504 -0.092635 -0.048546 0.0080454 -0.031619 -0.010787 0.077396 0.0054654 0.059014 0.043137 -0.023117 -0.017107 0.017999 0.062965 -0.073631 -0.031984 0.072984 -0.016984 -0.01838 0.003353 0.0079397 -0.0022775 -0.016447 0.093632 -0.094769 0.098897 0.057343 0.047797 -0.038199 -0.028237 -0.0034064 0.015488 -0.021134 0.058391 -0.0020861 0.056075 0.012297 -0.045319 0.0176 0.025519 -0.019308 0.011346 0.013625 0.01143 -0.028321 -0.0071586 7.8468e-05 0.025812 0.0074509 -0.0016506 -0.098509 -0.0081638 0.060644 -0.010033 -0.0079986 0.079396 -0.024714 -0.087099 0.032313 -0.012831 -0.054843 -0.052321 -0.0049839 -0.0027858 -0.049775 0.028909 -0.024846 0.021326 -0.027709 0.031005 -0.02908 0.021166 0.027225 0.029151 0.028686 0.0252 0.0098328 0.011586 -0.036085 0.072818 0.0065567 -0.034078 0.022185 -0.030127 0.036474 0.0064309 0.0099419 
mathematical 0.047762 -0.0016299 -0.023087 0.026345 -0.01021 0.01812 -0.086961 -0.0060036 -0.023989 -0.056476 -0.0496 -0.015569 -0.027841 -0.00076631 -0.089594 -0.047959 0.0070406 -0.029468 -0.01143 0.075849 0.0039153 0.05642 0.042851 -0.020694 -0.014294 0.016015 0.060353 -0.072583 -0.029999 0.070386 -0.015171 -0.017615 0.0023249 0.0086377 -0.0034772 -0.015626 0.092123 -0.091563 0.09608 0.055403 0.048991 -0.038235 -0.027249 -0.0035717 0.014582 -0.019758 0.058638 -0.0036759 0.052297 0.0088746 -0.044182 0.018037 0.023253 -0.018438 0.010613 0.011167 0.010496 -0.027344 -0.0056444 -0.00030518 0.026716 0.0075899 -0.003375 -0.094431 -0.0083212 0.06069 -0.0072992 -0.0071959 0.077968 -0.025103 -0.082117 0.031986 -0.01184 -0.054977 -0.048213 -0.004836 -0.0051407 -0.049464 0.02837 -0.020416 0.020343 -0.026081 0.031064 -0.026477 0.018228 0.028435 0.02845 0.02455 0.024795 0.010568 0.0090435 -0.033028 0.067655 0.0054147 -0.032961 0.023009 -0.031281 0.033728 0.0064969 0.0071589 
solve 0.031144 0.00098508 -0.017218 0.016209 -0.0076619 0.0082679 -0.058387 -0.0042507 -0.016965 -0.03674 -0.031187 -0.012384 -0.017366 -0.0026111 -0.058311 -0.030027 0.0055968 -0.021359 -0.0074524 0.050487 0.0018544 0.037465 0.027303 -0.014619 -0.01308 0.012499 0.039417 -0.045477 -0.018843 0.045233 -0.0091001 -0.01165 1.9367e-06 0.0039497 -0.0026939 -0.011899 0.059634 -0.060713 0.063388 0.037696 0.029803 -0.023834 -0.017027 -0.0047642 0.0087485 -0.0097619 0.037513 -0.0027191 0.034244 0.0048871 -0.029171 0.0096135 0.015812 -0.01322 0.0083532 0.0059455 0.0054021 -0.019003 -0.0039702 -0.0019344 0.017499 0.0037189 -0.0030707 -0.063909 -0.0048878 0.039143 -0.0045634 -0.0052084 0.051032 -0.015728 -0.05478 0.021067 -0.0064786 -0.037058 -0.030581 -0.0019959 -0.003485 -0.034546 0.016066 -0.016965 0.011386 -0.014977 0.018147 -0.016403 0.0082336 0.020687 0.020017 0.015849 0.017071 0.0041882 0.0045553 -0.02346 0.045827 0.0077361 -0.02229 0.016188 -0.02062 0.022147 0.0027891 0.0063467 
such 0.02502 -0.001066 -0.012679 0.010762 -0.0050634 0.010715 -0.043086 -0.0038031 -0.011707 -0.029822 -0.026773 -0.0079793 -0.01547 0.00049588 -0.047958 -0.025971 0.0051011 -0.015605 -0.0066452 0.037254 0.0010191 0.031244 0.022858 -0.011339 -0.0073309 0.0091604 0.033773 -0.037787 -0.0169 0.03682 -0.0083178 -0.0094074 0.0026541 0.0036976 -0.00014548 -0.0098415 0.047783 -0.048939 0.049797 0.029794 0.027818 -0.020046 -0.015222 -0.0011044 0.0062146 -0.0078769 0.033709 -0.0018675 0.030418 0.0057318 -0.022311 0.0098703 0.013473 -0.01141 0.0056327 0.0079058 0.0059788 -0.013011 -0.0019142 -0.0030053 0.011625 0.0021443 -0.0043115 -0.048667 -0.0063786 0.032485 -0.0047092 -0.00045217 0.041459 -0.014604 -0.044683 0.015763 -0.0060045 -0.026997 -0.025497 -0.00056676 -0.0034486 -0.027276 0.01324 -0.011375 0.010058 -0.015806 0.015089 -0.014003 0.0062317 0.015751 0.015757 0.013115 0.011145 0.0076037 0.0046167 -0.021335 0.034484 0.0030912 -0.01663 0.011974 -0.016522 0.017511 0.0042028 0.0026078 
tools 0.018021 -0.00018093 -0.010023 0.010793 -0.0034802 0.0076167 -0.033665 -0.0010794 -0.011812 -0.022239 -0.019682 -0.0085118 -0.010593 -0.0003155 -0.035041 -0.020005 0.0039626 -0.012369 -0.0026083 0.032986 0.0021092 0.020652 0.014345 -0.0068336 -0.0093104 0.0057153 0.024625 -0.033172 -0.011993 0.026778 -0.0051272 -0.0058367 0.00061433 0.0018548 -0.0053856 -0.0046474 0.03804 -0.036851 0.042067 0.024465 0.018203 -0.016969 -0.013061 -0.0034813 0.0045919 -0.0088164 0.023353 -0.0020932 0.021622 0.0036858 -0.020618 0.0046528 0.010328 -0.0072574 0.0041973 0.0047203 0.0031204 -0.010365 -0.00070281 -9.2645e-05 0.010232 0.00092019 0.00012357 -0.038722 -0.0066976 0.027612 -0.0017946 -0.0047025 0.032433 -0.011202 -0.0364 0.014704 -0.0041774 -0.022792 -0.022208 -0.001535 -0.00016667 -0.020746 0.011113 -0.0092797 0.01139 -0.0077697 0.015792 -0.010252 0.0075527 0.013774 0.010597 0.011492 0.011144 0.0049873 0.0054123 -0.013721 0.029049 0.00079551 -0.013994 0.011588 -0.0146 0.014012 0.0042956 0.0025302 
Analyze 0.025588 0.001647 -0.010853 0.012752 -0.0042004 0.0083007 -0.046751 -0.003886 -0.012516 -0.030132 -0.025919 -0.0075464 -0.01418 -0.00078044 -0.04573 -0.025993 0.0045936 -0.012773 -0.0031685 0.038537 0.0023895 0.028247 0.021018 -0.010056 -0.0069874 0.0050025 0.031424 -0.037102 -0.014032 0.036907 -0.0078016 -0.0087346 -0.00028401 0.0023109 -0.00090307 -0.0074702 0.046893 -0.047098 0.049673 0.029589 0.025698 -0.019009 -0.016489 0.00010098 0.0081042 -0.0099612 0.03143 -0.00078355 0.026357 0.0055647 -0.023696 0.0089573 0.012329 -0.010344 0.0064905 0.0089268 0.0050026 -0.013045 -0.0027527 -0.00058915 0.012577 0.0030451 -0.0035075 -0.048522 -0.0035558 0.029832 -0.0046663 -0.0031533 0.040793 -0.013319 -0.043846 0.016436 -0.0066746 -0.026132 -0.025795 -0.0031639 -0.0015847 -0.023471 0.014476 -0.013077 0.012545 -0.013922 0.015706 -0.011136 0.010748 0.016403 0.012478 0.014332 0.014304 0.0073604 0.0061952 -0.01764 0.03679 0.0013315 -0.017231 0.011253 -0.013812 0.016069 0.0042095 0.0055249 
fundamental 0.041214 -0.0013893 -0.019702 0.02126 -0.0078842 0.01646 -0.075287 -0.0038185 -0.020879 -0.048521 -0.044828 -0.013323 -0.02308 -0.0018615 -0.076008 -0.041044 0.0074894 -0.02449 -0.010116 0.066457 0.0043256 0.048376 0.036923 -0.019562 -0.01275 0.016275 0.05408 -0.062612 -0.02701 0.062015 -0.012397 -0.014701 0.003107 0.0058138 -0.0048636 -0.013225 0.078016 -0.081471 0.0822 0.048509 0.042124 -0.032484 -0.024366 -0.0020841 0.015452 -0.016388 0.051955 -0.0020278 0.045938 0.0094885 -0.039324 0.015017 0.019254 -0.016419 0.011582 0.010367 0.010956 -0.021981 -0.0041873 -0.0028733 0.02309 0.006663 -0.003253 -0.081947 -0.0091567 0.052837 -0.007596 -0.0058908 0.067239 -0.019359 -0.074377 0.027435 -0.010461 -0.048203 -0.041308 -0.0042311 -0.0022632 -0.043061 0.024131 -0.01958 0.016776 -0.022049 0.025583 -0.023044 0.016139 0.023903 0.02484 0.021937 0.022562 0.0089841 0.010779 -0.029124 0.061129 0.0054233 -0.028087 0.020341 -0.026684 0.02885 0.0047555 0.0078632 
ethical 0.048581 0.001539 -0.024159 0.025063 -0.011218 0.018545 -0.087368 -0.0064399 -0.023184 -0.056373 -0.050525 -0.016033 -0.029584 0.0004197 -0.093056 -0.048083 0.0083914 -0.030111 -0.010467 0.077576 0.0076006 0.058999 0.041905 -0.020157 -0.013109 0.018426 0.062439 -0.074628 -0.029172 0.072386 -0.016356 -0.020437 -0.00094802 0.0084335 -0.0035083 -0.016958 0.093312 -0.093037 0.099612 0.057749 0.05033 -0.039598 -0.029559 -0.0037148 0.015979 -0.019478 0.061057 -0.0032089 0.053748 0.0082712 -0.047324 0.018962 0.023292 -0.019893 0.0099846 0.012818 0.013299 -0.028182 -0.005436 -0.00081797 0.027236 0.0072435 -0.0039139 -0.09517 -0.011005 0.059766 -0.0079965 -0.0064368 0.0816 -0.025282 -0.086564 0.033117 -0.012915 -0.057052 -0.049191 -0.0055267 -0.0048118 -0.052469 0.02887 -0.022951 0.022318 -0.027812 0.030695 -0.02695 0.017851 0.030728 0.028891 0.026022 0.028781 0.011401 0.011437 -0.035324 0.068926 0.0038461 -0.031711 0.02402 -0.033245 0.035403 0.004319 0.0073775 
life 0.023436 -0.0011125 -0.0084099 0.01562 -0.0023664 0.0097365 -0.039733 -0.0052508 -0.0094658 -0.027467 -0.025269 -0.0081634 -0.014885 0.0013585 -0.044862 -0.024018 0.0052434 -0.01246 -0.0050914 0.036358 -0.0017773 0.030787 0.020862 -0.01118 -0.0070836 0.010417 0.032598 -0.036573 -0.016496 0.031884 -0.003953 -0.006059 -0.00095373 0.0034356 -0.0030232 -0.0065597 0.045492 -0.04573 0.04559 0.025721 0.02235 -0.019292 -0.015446 -0.0010901 0.0051107 -0.0080241 0.029643 -0.0016541 0.024617 0.0057392 -0.02073 0.0079379 0.010561 -0.0092302 0.0066347 0.0031686 0.0020937 -0.012207 -0.0036539 -0.00032573 0.013507 0.0021008 -0.0012535 -0.049246 -0.0016027 0.030478 -0.0054831 -0.0023207 0.036185 -0.0085017 -0.040306 0.014013 -0.0074554 -0.025021 -0.024854 -7.3463e-05 -0.0021245 -0.023084 0.012366 -0.011373 0.011788 -0.012466 0.017337 -0.015173 0.0075925 0.013087 0.012424 0.01157 0.012503 0.0071845 0.0041212 -0.01416 0.034941 0.0028716 -0.016825 0.011401 -0.011923 0.014971 0.0035149 0.0022287 
systems 0.034697 -0.00365 -0.018628 0.019708 -0.0071975 0.01176 -0.060274 -0.0072134 -0.01626 -0.041641 -0.037214 -0.015303 -0.020103 -0.00029024 -0.064474 -0.037324 0.0066081 -0.02089 -0.007124 0.057818 0.0033069 0.040915 0.032085 -0.014438 -0.010599 0.011835 0.04471 -0.054493 -0.022861 0.05206 -0.011523 -0.012086 0.0013742 0.0072064 -0.0032856 -0.0089278 0.067261 -0.068779 0.070984 0.040841 0.036495 -0.029035 -0.01891 -0.002317 0.0098205 -0.014984 0.043456 -0.0013641 0.04018 0.0065465 -0.034443 0.011999 0.017284 -0.015106 0.0079158 0.011633 0.010241 -0.020035 -0.003722 0.00062195 0.019737 0.0046328 -0.0047059 -0.071247 -0.0067455 0.045926 -0.0072425 -0.0063309 0.058456 -0.019418 -0.063618 0.023362 -0.010116 -0.041848 -0.035468 -0.0015592 -0.0029799 -0.037531 0.020603 -0.016159 0.013811 -0.020234 0.023633 -0.020094 0.013619 0.020633 0.020294 0.020583 0.018315 0.0079743 0.0089011 -0.025933 0.052924 0.0026582 -0.025512 0.017067 -0.023085 0.024091 0.0054844 0.0078899 
components 0.047217 -0.0011478 -0.025627 0.023767 -0.0098325 0.018136 -0.085557 -0.0058162 -0.024153 -0.055876 -0.05121 -0.016482 -0.027162 0.00057305 -0.08969 -0.047632 0.0073056 -0.02778 -0.010584 0.076333 0.0053646 0.056002 0.040632 -0.020594 -0.01605 0.017614 0.06088 -0.072497 -0.029526 0.070737 -0.015205 -0.018002 0.0010759 0.00749 -0.0037855 -0.014525 0.08968 -0.090812 0.095287 0.054501 0.04858 -0.037939 -0.02818 -0.0024751 0.016328 -0.020321 0.058007 -0.0046105 0.050691 0.0086003 -0.044742 0.016584 0.024018 -0.018847 0.011426 0.014962 0.0092606 -0.026757 -0.0039367 -0.0024788 0.025518 0.006676 -0.0030037 -0.093908 -0.0089099 0.059283 -0.0091091 -0.0063835 0.078843 -0.02532 -0.085481 0.032145 -0.011781 -0.053678 -0.046982 -0.0053879 -0.0058034 -0.048369 0.028306 -0.021921 0.019316 -0.025105 0.030075 -0.026567 0.01811 0.028772 0.026152 0.024944 0.026362 0.010628 0.0096485 -0.03439 0.068605 0.003764 -0.033117 0.026167 -0.029303 0.034492 0.0063239 0.0090896 
Identify 0.037634 0.00065959 -0.019409 0.01762 -0.0084228 0.012632 -0.069661 -0.0055497 -0.018213 -0.045021 -0.040181 -0.014863 -0.021207 0.00078432 -0.069299 -0.037624 0.005609 -0.022683 -0.0075021 0.061252 0.0032828 0.043016 0.033636 -0.017171 -0.01373 0.013327 0.047119 -0.059057 -0.025901 0.055466 -0.012794 -0.013118 0.0017895 0.0071834 -0.00088397 -0.014058 0.070139 -0.070899 0.076434 0.043889 0.03569 -0.029177 -0.022766 -0.0013798 0.010084 -0.015923 0.045759 -0.0031261 0.040164 0.0071223 -0.03495 0.013907 0.019383 -0.014639 0.0096908 0.0089405 0.00698 -0.021222 -0.0034887 0.000774 0.021358 0.0054596 -0.0024938 -0.074756 -0.0062867 0.048276 -0.0060013 -0.0058535 0.060657 -0.018848 -0.066851 0.025381 -0.0088801 -0.04256 -0.036884 -0.0024108 -0.0051522 -0.038428 0.020479 -0.0177 0.014539 -0.020268 0.023529 -0.020436 0.014969 0.02273 0.022179 0.019205 0.021935 0.0078678 0.0066967 -0.028329 0.052609 0.0024882 -0.025118 0.01735 -0.024197 0.026991 0.0060676 0.0053358 
Design 0.021998 0.0017425 -0.012244 0.011884 -0.0047838 0.0069853 -0.038388 -0.0028691 -0.013595 -0.024253 -0.02403 -0.0049406 -0.011831 0.00084293 -0.039877 -0.022117 0.0029979 -0.014769 -0.0031928 0.035455 0.0033386 0.025125 0.017344 -0.012485 -0.0074672 0.0085544 0.02532 -0.030605 -0.012918 0.031001 -0.0056935 -0.0087536 0.00048164 0.0027541 -0.0023254 -0.0084185 0.040376 -0.041643 0.04198 0.023429 0.020893 -0.015638 -0.013822 -0.0023628 0.0066179 -0.0097819 0.025866 -0.00106 0.02242 0.0013652 -0.021057 0.0098248 0.010907 -0.008023 0.0046231 0.0034645 0.0053634 -0.012401 -0.00099644 -0.00082049 0.012054 0.0048981 -0.0012921 -0.042061 -0.0016212 0.026383 -0.0041438 8.7241e-05 0.032709 -0.010364 -0.039375 0.014181 -0.0053291 -0.026875 -0.022277 -0.0031121 -0.0015523 -0.020959 0.013625 -0.01332 0.0072427 -0.013255 0.013855 -0.011208 0.010073 0.013986 0.011365 0.010656 0.010813 0.0064754 0.0034671 -0.014803 0.031983 0.0027698 -0.014582 0.010463 -0.015361 0.014638 0.0019948 0.0049238 
Develop 0.037646 -0.00045466 -0.018373 0.018199 -0.0078163 0.012984 -0.069504 -0.0059672 -0.017425 -0.045274 -0.042462 -0.012726 -0.020851 -0.00054782 -0.073317 -0.038198 0.0053354 -0.02251 -0.009063 0.061314 0.0036133 0.047156 0.035341 -0.017029 -0.01123 0.01179 0.049954 -0.057694 -0.023925 0.05662 -0.0090985 -0.015121 0.0023291 0.0065946 -0.0026161 -0.012304 0.074612 -0.073588 0.078748 0.045332 0.038629 -0.029638 -0.023921 -0.00077379 0.01003 -0.015714 0.046172 -0.0013318 0.04314 0.0076102 -0.037066 0.013469 0.018516 -0.015237 0.0082065 0.01143 0.0092635 -0.023208 -0.002179 -0.00089497 0.020847 0.0046015 -0.0023387 -0.07782 -0.0063201 0.04653 -0.0064493 -0.0061142 0.063516 -0.022208 -0.068288 0.027397 -0.011484 -0.044062 -0.038171 -0.0056612 -0.0025439 -0.039337 0.021783 -0.017959 0.015183 -0.019814 0.024039 -0.021352 0.014741 0.024481 0.023438 0.02129 0.020919 0.010117 0.0083241 -0.025 0.056711 0.0062895 -0.027265 0.018859 -0.024561 0.024885 0.0063615 0.0056194 
application 0.10399 -0.00087346 -0.050589 0.054804 -0.021724 0.040491 -0.19102 -0.012895 -0.053188 -0.12349 -0.11352 -0.034722 -0.061133 -0.0030325 -0.19862 -0.10434 0.019148 -0.068142 -0.023507 0.16646 0.01003 0.12545 0.09381 -0.047593 -0.032565 0.038129 0.13655 -0.16186 -0.069669 0.15684 -0.034133 -0.040377 0.0050326 0.016615 -0.010014 -0.035651 0.20019 -0.204 0.21325 0.12465 0.10682 -0.085427 -0.061969 -0.0070508 0.032534 -0.043437 0.1296 -0.0080844 0.11458 0.022139 -0.10076 0.039167 0.053135 -0.045179 0.023315 0.028564 0.025209 -0.061825 -0.011873 -0.0042725 0.057643 0.013435 -0.012304 -0.2096 -0.016529 0.13107 -0.017913 -0.016302 0.17228 -0.055742 -0.18741 0.069271 -0.027093 -0.12119 -0.10672 -0.011091 -0.010554 -0.10932 0.06213 -0.048857 0.043231 -0.055957 0.068326 -0.059512 0.040831 0.064681 0.059009 0.056345 0.056 0.025365 0.019713 -0.077947 0.15402 0.011685 -0.074018 0.052214 -0.067835 0.074266 0.012736 0.019395 
Explain 0.026863 -0.00031503 -0.012942 0.014903 -0.0051237 0.010895 -0.04926 -0.0026141 -0.01264 -0.031745 -0.029408 -0.0078845 -0.014884 0.00087997 -0.052538 -0.028348 0.0029057 -0.016535 -0.005899 0.042624 0.001855 0.031797 0.024782 -0.012115 -0.008902 0.010028 0.034721 -0.042091 -0.01603 0.04124 -0.010476 -0.0099622 0.0016016 0.0039437 -0.0024544 -0.0095019 0.052816 -0.050795 0.054208 0.03202 0.029388 -0.022164 -0.01674 -0.0012127 0.0097184 -0.013223 0.031665 -0.0026931 0.029991 0.0077038 -0.028974 0.008542 0.014019 -0.0095533 0.0034551 0.0086543 0.0059233 -0.013591 -0.0035529 0.0011542 0.014747 0.0029314 -0.0028315 -0.053775 -0.0048918 0.032507 -0.0045818 -0.0056632 0.042557 -0.014977 -0.048062 0.019727 -0.0069866 -0.029757 -0.025949 -0.0025841 -0.0021139 -0.028262 0.015108 -0.013243 0.011072 -0.014214 0.018061 -0.014594 0.01146 0.017491 0.016212 0.013528 0.013975 0.0053929 0.005044 -0.018822 0.041546 0.00069708 -0.02046 0.012486 -0.018246 0.018553 0.004171 0.0040284 
Describe 0.016873 0.00028034 -0.0077358 0.0084892 -0.0047116 0.0053169 -0.030448 -0.001464 -0.010163 -0.022798 -0.019299 -0.0060623 -0.010469 0.0015388 -0.03195 -0.017914 0.002129 -0.010991 -0.0043797 0.030367 0.002417 0.021492 0.01675 -0.010087 -0.005718 0.0050712 0.022986 -0.02576 -0.01132 0.025007 -0.0059239 -0.00687 0.001212 0.0021899 -0.0026382 -0.0057183 0.034617 -0.033788 0.03452 0.021002 0.016733 -0.016404 -0.01169 -0.0033313 0.0059304 -0.0083231 0.022513 -0.00063637 0.018579 0.0049325 -0.019928 0.0069225 0.0080172 -0.007163 0.0056929 0.0065912 0.0031862 -0.0098968 -0.000641 -0.001308 0.0087077 0.0029347 -0.00024501 -0.036082 -0.0044139 0.020408 -0.0038322 -0.0033935 0.030084 -0.0076678 -0.030361 0.010701 -0.0027484 -0.020855 -0.017751 -9.2404e-05 0.0005564 -0.020192 0.01056 -0.0067141 0.0078777 -0.011661 0.011642 -0.0088163 0.0069058 0.010975 0.010385 0.01043 0.010129 0.0048992 0.0059247 -0.01468 0.026231 0.0038424 -0.01289 0.0081281 -0.010539 0.011226 0.002544 0.0026194 
algorithms 0.018777 -0.0008734 -0.0078828 0.0087924 -0.0045094 0.0068282 -0.034417 -0.0018824 -0.0073028 -0.023137 -0.020652 -0.005949 -0.010335 0.00028948 -0.036783 -0.020978 0.00095737 -0.012298 -0.0044848 0.029156 0.0013209 0.025059 0.017946 -0.0089609 -0.0065691 0.0055716 0.024724 -0.030256 -0.013297 0.028252 -0.0051053 -0.006819 -0.00014425 0.0030727 -4.6427e-05 -0.0056903 0.036572 -0.036754 0.039558 0.022498 0.019967 -0.016279 -0.009509 -0.00092309 0.0078224 -0.0078071 0.023974 -0.00072161 0.021099 0.0022654 -0.019581 0.0081657 0.0083199 -0.006521 0.0049244 0.0060006 0.002869 -0.011564 -0.0025902 -0.00081974 0.0097277 0.0019785 -0.0011604 -0.039819 -0.0028031 0.023587 -0.0017126 -0.0032516 0.031358 -0.0086235 -0.033967 0.012829 -0.0057426 -0.022554 -0.018754 -0.00067247 -0.0019075 -0.019182 0.010492 -0.0093478 0.0063215 -0.012121 0.011046 -0.010391 0.0065576 0.013401 0.011449 0.010385 0.0094692 0.0051483 0.0044637 -0.012242 0.027915 0.0016332 -0.012371 0.0081721 -0.011517 0.013435 0.0017509 0.005013 
circuits 0.034647 -0.0017777 -0.017119 0.01929 -0.0076663 0.012062 -0.063622 -0.0038323 -0.017496 -0.041391 -0.037084 -0.011525 -0.021923 -0.00072196 -0.065543 -0.034316 0.0056641 -0.021395 -0.0075009 0.056814 0.0032347 0.041924 0.029133 -0.016081 -0.0086894 0.012169 0.043511 -0.054151 -0.021342 0.051642 -0.010564 -0.012946 0.0019842 0.0059496 -0.0023686 -0.013343 0.067254 -0.065554 0.070203 0.041202 0.034273 -0.027715 -0.021337 -0.0017474 0.010941 -0.015631 0.042653 -0.0015556 0.039049 0.0082308 -0.032841 0.01402 0.017184 -0.014733 0.0079595 0.010399 0.0071569 -0.020187 -0.0031023 0.0007499 0.019817 0.0045734 -0.00046942 -0.067124 -0.0092119 0.043553 -0.0054987 -0.0057414 0.055459 -0.01718 -0.063129 0.024759 -0.010696 -0.040589 -0.033844 -0.0032561 -0.0026734 -0.035715 0.019256 -0.014282 0.014239 -0.020191 0.023511 -0.01788 0.010796 0.021184 0.021944 0.017377 0.017851 0.0066603 0.0087623 -0.02667 0.050423 0.0045594 -0.021039 0.017197 -0.022242 0.024651 0.005962 0.0075509 
by 0.021152 0.00030492 -0.018886 0.0083828 -0.0022336 0.0063872 -0.041814 -0.0082249 -0.0080162 -0.025364 -0.02427 -0.0088501 -0.013048 -0.0044944 -0.046215 -0.023836 0.00435 -0.018096 -0.010471 0.039995 0.0025023 0.028039 0.019241 -0.010906 -0.0042157 0.0040656 0.031001 -0.030581 -0.016101 0.035321 -0.0030292 -0.011403 0.00072297 0.005385 -0.0044267 -0.0071572 0.047022 -0.050028 0.044959 0.023597 0.024327 -0.021465 -0.018191 0.0004712 0.0093121 -0.011713 0.027358 -0.0012068 0.032184 0.0038549 -0.025358 0.0086679 0.010416 -0.013265 0.0075584 0.0037403 0.0054292 -0.011748 -0.00095918 0.001407 0.01499 0.005093 -0.0047978 -0.046189 -0.0025525 0.029807 -0.0052123 -0.0037124 0.034823 -0.0077179 -0.042067 0.014342 -0.0022069 -0.022209 -0.025676 -0.0021576 -0.0014963 -0.026711 0.014976 -0.012508 0.0071253 -0.014905 0.016635 -0.01595 0.011919 0.017287 0.010057 0.018687 0.0085533 0.0050498 0.0019607 -0.017821 0.040321 0.0039265 -0.021877 0.0095906 -0.020415 0.013239 0.002076 -0.0005408 
real 0.049678 0.0016401 -0.023608 0.028647 -0.011614 0.02008 -0.094845 -0.0037337 -0.024475 -0.058688 -0.054668 -0.018829 -0.028988 -0.0019227 -0.097424 -0.050207 0.0084822 -0.035221 -0.0099079 0.080681 0.0045762 0.06372 0.046018 -0.024932 -0.015008 0.017244 0.06353 -0.07591 -0.033842 0.074992 -0.016593 -0.018691 0.0010457 0.0067208 -0.0054385 -0.01547 0.096469 -0.099685 0.10306 0.063605 0.050522 -0.041715 -0.031012 -0.0019965 0.01179 -0.021012 0.059237 -0.0019823 0.055114 0.0074989 -0.048159 0.017319 0.026902 -0.021067 0.015659 0.01407 0.010815 -0.026544 -0.0054283 0.001603 0.02543 0.008349 -0.0046701 -0.09954 -0.011318 0.065666 -0.0067401 -0.0061965 0.084321 -0.022017 -0.093404 0.034609 -0.012627 -0.058035 -0.053381 -0.0089131 -0.0051822 -0.051 0.028766 -0.023203 0.022329 -0.028753 0.035876 -0.026187 0.022278 0.031727 0.029964 0.026078 0.030234 0.011085 0.011828 -0.034315 0.074713 0.0057567 -0.035875 0.025262 -0.034449 0.034869 0.0072601 0.0084416 
principles 0.028298 0.00054933 -0.013954 0.01631 -0.0052473 0.010434 -0.049804 -0.0026055 -0.012857 -0.030458 -0.030016 -0.0079275 -0.016126 7.2971e-05 -0.052365 -0.027015 0.0059069 -0.017302 -0.0058161 0.044802 0.0030712 0.033304 0.025218 -0.011065 -0.010261 0.010191 0.034642 -0.04202 -0.016529 0.040473 -0.0079327 -0.010383 0.00071009 0.006456 -0.0023307 -0.0083429 0.052051 -0.053574 0.056097 0.033756 0.027565 -0.022798 -0.01737 -0.0012681 0.0078225 -0.011596 0.032978 -0.00092637 0.030707 0.0075557 -0.026171 0.0089082 0.014146 -0.012546 0.00663 0.0081285 0.0078562 -0.014699 -0.0034862 -0.00058663 0.014752 0.0045677 -0.0021561 -0.056169 -0.0058651 0.036297 -0.0061725 -0.0043509 0.044572 -0.013636 -0.047692 0.019831 -0.0056672 -0.028553 -0.027713 -0.0027185 -0.002985 -0.027331 0.016704 -0.012819 0.011877 -0.012792 0.016434 -0.014057 0.010922 0.015835 0.015569 0.015664 0.014766 0.0061132 0.0050669 -0.018885 0.040739 0.0021978 -0.019284 0.015002 -0.017627 0.018634 0.0046697 0.0044843 
evaluate 0.029081 -1.7897e-05 -0.014208 0.012432 -0.0074872 0.010604 -0.049546 -0.0043571 -0.013453 -0.03316 -0.031308 -0.0091001 -0.015703 -0.00054861 -0.052451 -0.02653 0.0044468 -0.017573 -0.006167 0.044273 0.0037229 0.032058 0.02571 -0.012673 -0.0094139 0.0094755 0.035346 -0.04252 -0.018497 0.040124 -0.0093559 -0.0092871 0.0021265 0.0056516 -0.0044748 -0.011111 0.051794 -0.051932 0.055854 0.033382 0.027322 -0.022998 -0.015174 -0.0031611 0.0078672 -0.011061 0.034432 -0.00091098 0.03172 0.0069145 -0.027085 0.0094627 0.01318 -0.012173 0.0069022 0.0061988 0.0060741 -0.015263 -0.0039704 -0.0019807 0.015187 0.0046446 -0.0013651 -0.055018 -0.0041172 0.035598 -0.0050258 -0.002385 0.04497 -0.01588 -0.04894 0.017663 -0.0055565 -0.031265 -0.028193 -0.0043031 0.0014581 -0.028155 0.018146 -0.01261 0.014943 -0.013474 0.018286 -0.016382 0.012027 0.014555 0.013524 0.015547 0.015722 0.0064483 0.0062016 -0.020928 0.038725 0.0045033 -0.019785 0.013579 -0.01685 0.019901 0.0052392 0.0059764 
project 0.044382 8.7035e-05 -0.022388 0.022911 -0.011417 0.018535 -0.082241 -0.0047446 -0.019797 -0.052467 -0.047223 -0.013935 -0.026405 0.00051932 -0.08642 -0.044238 0.0084643 -0.027849 -0.010583 0.073311 0.0042222 0.055549 0.039599 -0.01963 -0.016488 0.014233 0.060042 -0.069393 -0.029036 0.066794 -0.014208 -0.017638 0.0033411 0.0079997 -0.0040164 -0.017375 0.088303 -0.087855 0.091691 0.052775 0.045328 -0.036879 -0.025678 -0.00084449 0.010975 -0.020354 0.055794 -0.0023759 0.048648 0.01093 -0.042994 0.016941 0.019755 -0.016778 0.01119 0.013508 0.011974 -0.027942 -0.0063913 -0.00094036 0.024341 0.0064276 -0.0043374 -0.089799 -0.0089851 0.056624 -0.0076045 -0.0056671 0.073949 -0.021849 -0.081474 0.029818 -0.010808 -0.051776 -0.045889 -0.0035701 -0.0060627 -0.046591 0.026249 -0.021271 0.019085 -0.025617 0.029575 -0.024618 0.018707 0.024918 0.025543 0.024661 0.024851 0.010185 0.0088137 -0.033164 0.065984 0.0049494 -0.029228 0.022211 -0.028029 0.030004 0.0040498 0.0092333 
from 0.012633 -0.0028675 -0.0018056 0.010508 -0.00094407 0.0059205 -0.026599 -0.00079023 -0.0050787 -0.015493 -0.016689 -0.0040742 -0.0084848 -0.00092692 -0.029666 -0.014162 -0.00088324 -0.008559 -0.0021478 0.024685 0.0012806 0.019581 0.012077 -0.004806 -0.0027555 0.0036946 0.018008 -0.021371 -0.011384 0.0228 -0.0054648 -0.0066461 0.00086541 0.0039333 -0.0011305 -0.0028323 0.026361 -0.029706 0.026168 0.014405 0.014067 -0.011455 -0.0097356 -0.0027207 0.0029494 -0.0047291 0.016581 -0.0026568 0.016543 0.003081 -0.013505 0.00085706 0.0086997 -0.0079137 0.001609 0.0055222 0.001738 -0.0065326 -0.0043914 0.0029854 0.010199 0.0052374 -0.00459 -0.029431 -0.0025177 0.020329 0.0005075 0.00033935 0.02204 -0.008001 -0.025371 0.010067 -0.0020842 -0.014867 -0.014385 0.00064865 -0.0028713 -0.015356 0.010289 -0.0058769 0.0097856 -0.007709 0.010843 -0.0094592 0.0079363 0.010824 0.0069478 0.0060443 0.0055412 0.0022704 0.0047794 -0.01009 0.022811 0.00096547 -0.0094619 0.0073669 -0.010694 0.0096055 0.0016005 0.0029827 
develop 0.048351 0.00053717 -0.023676 0.023913 -0.011049 0.018172 -0.088813 -0.0058403 -0.023417 -0.057452 -0.053505 -0.016655 -0.026415 -0.0022097 -0.092782 -0.047192 0.0073741 -0.028844 -0.010168 0.07706 0.0057547 0.058081 0.043484 -0.021808 -0.015243 0.015629 0.063468 -0.072541 -0.030496 0.072735 -0.011502 -0.018291 0.00061266 0.0089845 -0.0025128 -0.014812 0.093253 -0.093833 0.099858 0.058013 0.047926 -0.038696 -0.030141 -0.0022552 0.015643 -0.020101 0.058134 -0.0016111 0.052727 0.0098236 -0.046688 0.017982 0.024061 -0.020724 0.011726 0.013456 0.01296 -0.029167 -0.0036563 -0.0012949 0.027454 0.0058885 -0.0018446 -0.098823 -0.010593 0.059207 -0.0087167 -0.0057659 0.078835 -0.024823 -0.087438 0.034753 -0.013227 -0.054891 -0.04922 -0.0052951 -0.0022292 -0.051632 0.027836 -0.022668 0.019191 -0.02331 0.029673 -0.026978 0.019831 0.030432 0.030041 0.026421 0.02623 0.010303 0.0084142 -0.034436 0.072825 0.006271 -0.033433 0.024717 -0.03075 0.032375 0.0065839 0.0085985 
requirements 0.032876 -6.0117e-06 -0.014812 0.01475 -0.0065432 0.01224 -0.053124 -0.002843 -0.015391 -0.036144 -0.033657 -0.011864 -0.018946 -0.0014624 -0.057935 -0.029936 0.0052204 -0.01897 -0.0069424 0.049801 0.0040652 0.036142 0.02803 -0.013017 -0.0088952 0.010851 0.038802 -0.047481 -0.019641 0.046997 -0.011009 -0.010871 0.00052022 0.0061982 -0.0033704 -0.012008 0.060134 -0.061509 0.062077 0.036746 0.031862 -0.024443 -0.018332 -0.0013692 0.010233 -0.013562 0.038286 -0.0019684 0.033522 0.0063583 -0.029753 0.011708 0.015529 -0.012007 0.0076584 0.0074954 0.0074149 -0.018762 -0.0047231 -0.0029219 0.019163 0.0027142 -0.0044137 -0.061475 -0.0067731 0.037646 -0.0058406 -0.003861 0.051416 -0.014777 -0.054298 0.020248 -0.0087271 -0.035728 -0.032475 -0.0040752 -0.0029386 -0.032221 0.017604 -0.013889 0.013316 -0.016627 0.019621 -0.017443 0.013458 0.019137 0.01846 0.015236 0.018484 0.0066908 0.0071267 -0.0207 0.046212 0.0022147 -0.021513 0.015063 -0.019526 0.020695 0.0062929 0.0058335 
language 0.036977 -0.0016488 -0.017963 0.021011 -0.0076518 0.014221 -0.068015 -0.0060507 -0.020395 -0.043064 -0.042957 -0.012472 -0.021965 0.00023224 -0.073079 -0.038835 0.0068726 -0.02339 -0.0075203 0.060613 0.0042293 0.048616 0.0341 -0.015395 -0.013262 0.013096 0.04765 -0.058882 -0.025231 0.057132 -0.011261 -0.01277 0.0033469 0.0064247 -0.0039713 -0.015168 0.073164 -0.074968 0.075947 0.045762 0.03927 -0.032149 -0.021893 -0.0023314 0.012956 -0.013418 0.046739 -3.9268e-05 0.041682 0.0089636 -0.037259 0.016077 0.020419 -0.016219 0.0080585 0.0087279 0.0093876 -0.021312 -0.0039434 -0.00048242 0.021823 0.006719 -0.0035958 -0.075307 -0.00758 0.047142 -0.0049583 -0.003765 0.062108 -0.020161 -0.068063 0.025291 -0.009757 -0.043344 -0.03994 -0.0037452 -0.0041396 -0.040112 0.022823 -0.018504 0.017391 -0.018945 0.026564 -0.022635 0.013556 0.023144 0.021634 0.020777 0.020835 0.0080852 0.0069203 -0.029956 0.05691 0.0037141 -0.027768 0.017714 -0.026241 0.026075 0.0042935 0.0062793 
writing 0.057663 -0.0015369 -0.026269 0.029821 -0.011754 0.019514 -0.10216 -0.0054009 -0.028523 -0.066578 -0.060903 -0.017701 -0.032726 -0.0025855 -0.10559 -0.055455 0.0064629 -0.034257 -0.012302 0.089549 0.0053684 0.066311 0.050659 -0.024703 -0.01869 0.020263 0.072926 -0.08613 -0.037413 0.082609 -0.0173 -0.019398 0.0038595 0.01147 -0.0056667 -0.019105 0.10683 -0.1068 0.1144 0.067214 0.055754 -0.046026 -0.034016 -0.0045955 0.017285 -0.024271 0.06988 -0.0022995 0.05844 0.011581 -0.053911 0.021551 0.027734 -0.024016 0.013377 0.01314 0.011493 -0.032827 -0.003963 -0.00064325 0.03074 0.009296 -0.0050268 -0.11058 -0.010988 0.072027 -0.010065 -0.0087992 0.093477 -0.027847 -0.10227 0.040108 -0.013609 -0.062769 -0.056618 -0.0049832 -0.0032137 -0.058385 0.033847 -0.024679 0.023084 -0.028083 0.037989 -0.031566 0.021498 0.03285 0.033424 0.031862 0.030417 0.014609 0.010364 -0.041045 0.082005 0.010775 -0.03771 0.028034 -0.036331 0.040772 0.0080199 0.011667 
level 0.034806 0.0037152 -0.018817 0.017203 -0.0065267 0.014631 -0.072192 -0.0046638 -0.016693 -0.046812 -0.041869 -0.012188 -0.019946 -0.00017582 -0.067613 -0.040379 0.0051518 -0.02258 -0.0053268 0.060755 0.0023654 0.042462 0.037754 -0.019333 -0.013653 0.01227 0.049856 -0.058228 -0.023018 0.057199 -0.012268 -0.013031 0.00096768 0.0050867 -0.0022873 -0.011952 0.069683 -0.071755 0.072643 0.046962 0.037893 -0.032546 -0.021808 -0.005575 0.011391 -0.016644 0.043742 -0.0026063 0.040413 0.0085237 -0.0367 0.014974 0.018436 -0.015237 0.0068231 0.0089907 0.0090797 -0.023765 -0.0030271 -0.0015375 0.019928 0.0053454 -0.0017219 -0.074121 -0.0071752 0.044576 -0.0058022 -0.0026339 0.061256 -0.019281 -0.06636 0.024959 -0.0073995 -0.045308 -0.037986 -0.0028129 -0.0035401 -0.040816 0.022547 -0.017702 0.014821 -0.01765 0.025698 -0.021865 0.013944 0.020215 0.020888 0.017887 0.019634 0.0064064 0.0074594 -0.026907 0.054381 0.0055671 -0.023987 0.015644 -0.025596 0.02445 0.0024946 0.0058088 
issues 0.020716 0.00018334 -0.010662 0.01127 -0.0070396 0.0092238 -0.038424 -0.0052365 -0.012137 -0.024441 -0.02666 -0.0076034 -0.01262 -0.00053237 -0.040761 -0.023442 0.0035212 -0.013606 -0.0065607 0.035501 0.0014279 0.02439 0.019068 -0.010647 -0.0081801 0.0061996 0.027325 -0.03513 -0.01423 0.034086 -0.0076802 -0.0078511 0.00010464 0.0029246 -0.0036566 -0.0067567 0.041022 -0.042254 0.044505 0.030435 0.021363 -0.015598 -0.012706 -0.0020535 0.0077653 -0.0083028 0.027875 -0.0038324 0.023648 0.0040876 -0.022892 0.0086937 0.011547 -0.010323 0.0021279 0.0059988 0.0046201 -0.01397 -0.0038798 -0.0013477 0.012797 0.003896 -0.0029809 -0.044186 -0.0044233 0.027018 -0.0021929 -0.0035275 0.035688 -0.010093 -0.039951 0.012151 -0.0037395 -0.026108 -0.020562 -0.0027396 -0.0031139 -0.024019 0.013285 -0.010418 0.0093626 -0.012974 0.013701 -0.010468 0.0080458 0.01441 0.015231 0.011258 0.010728 0.0042992 0.0034772 -0.016199 0.031175 0.003743 -0.015571 0.0097587 -0.016122 0.014185 0.0044136 0.0022679 
an 0.041409 0.0019988 -0.017327 0.027087 -0.010005 0.018437 -0.079175 -0.0079989 -0.027625 -0.044062 -0.046048 -0.015437 -0.026275 -0.0033062 -0.08408 -0.04283 0.0083904 -0.028092 -0.0062975 0.06825 0.0024 0.050905 0.036711 -0.014763 -0.012992 0.015339 0.054241 -0.06616 -0.031458 0.060247 -0.011404 -0.014172 0.0024758 0.0064488 -0.0054333 -0.014731 0.082925 -0.077415 0.081552 0.051646 0.041723 -0.033558 -0.026784 -0.00018437 0.017346 -0.013935 0.051913 -0.0017133 0.044782 0.014502 -0.038875 0.016358 0.020026 -0.019784 0.0091044 0.011004 0.011876 -0.026236 -0.0022627 -0.004342 0.023197 0.0064312 -0.0026041 -0.085159 -0.0052254 0.051831 -0.0070926 -0.0087871 0.071044 -0.022502 -0.072894 0.028419 -0.011513 -0.046563 -0.04469 -0.011726 -0.0030018 -0.040637 0.03052 -0.018059 0.022736 -0.023404 0.02906 -0.027414 0.019251 0.029754 0.022359 0.023461 0.024406 0.0097848 0.0083413 -0.032462 0.061893 0.001481 -0.024545 0.017424 -0.02347 0.025958 0.0038877 0.0077021 
problems. 0.054302 0.0010783 -0.025914 0.025747 -0.012825 0.020605 -0.096427 -0.0075631 -0.026237 -0.062117 -0.056978 -0.018323 -0.029233 -0.00057863 -0.099082 -0.052223 0.010292 -0.031906 -0.012578 0.084488 0.0042265 0.061603 0.046852 -0.022799 -0.018914 0.018739 0.068081 -0.080247 -0.032575 0.077702 -0.015564 -0.019298 0.0028511 0.0087842 -0.0050951 -0.017742 0.099478 -0.10184 0.10519 0.06154 0.055017 -0.043036 -0.029018 -0.0022892 0.01609 -0.02211 0.063619 -0.0042864 0.055169 0.010713 -0.050208 0.022255 0.025866 -0.021263 0.012772 0.014581 0.011453 -0.030282 -0.0062932 -0.0010664 0.028352 0.0083268 -0.0047888 -0.10334 -0.010002 0.065248 -0.0088589 -0.008084 0.08649 -0.026585 -0.093972 0.034165 -0.011438 -0.058101 -0.054149 -0.0063225 -0.0046731 -0.055348 0.029723 -0.023433 0.021528 -0.029615 0.033598 -0.029947 0.021909 0.0309 0.029585 0.028555 0.029951 0.012942 0.0093726 -0.037492 0.076257 0.0051622 -0.036847 0.025234 -0.03246 0.036223 0.0053375 0.010338 
functions 0.079652 0.00040531 -0.037893 0.040765 -0.015631 0.029903 -0.14122 -0.0080512 -0.040339 -0.090972 -0.086027 -0.027287 -0.045998 -0.0017617 -0.1478 -0.078343 0.012996 -0.048438 -0.016665 0.12554 0.0062075 0.092348 0.067766 -0.034525 -0.026317 0.027972 0.10116 -0.12078 -0.049013 0.11772 -0.025456 -0.029282 0.0042726 0.01261 -0.008387 -0.028519 0.14836 -0.15161 0.15916 0.092335 0.079713 -0.063776 -0.045117 -0.0057149 0.023666 -0.031944 0.096458 -0.005767 0.084213 0.017163 -0.074308 0.028017 0.039079 -0.031862 0.019079 0.022068 0.020482 -0.04435 -0.0072558 -0.0031935 0.041447 0.011753 -0.010256 -0.15526 -0.012234 0.096651 -0.011391 -0.011528 0.12914 -0.039863 -0.13884 0.052304 -0.019585 -0.087327 -0.079188 -0.0068604 -0.0070192 -0.081086 0.045985 -0.037032 0.032496 -0.040484 0.050348 -0.042673 0.031138 0.0466 0.044717 0.041112 0.043189 0.017336 0.014624 -0.058219 0.11439 0.0098232 -0.054387 0.039208 -0.049512 0.053269 0.010684 0.015281 
types 0.024185 -0.0019733 -0.012666 0.010516 -0.0064576 0.0079271 -0.042986 -0.0037951 -0.012124 -0.025956 -0.026166 -0.0080363 -0.012248 0.0004315 -0.042952 -0.022712 0.0057114 -0.017041 -0.0050291 0.038503 0.005113 0.026969 0.021823 -0.010982 -0.0094337 0.008025 0.028396 -0.038968 -0.014367 0.035537 -0.0084155 -0.0087814 -0.001092 0.004628 -0.0023842 -0.0060497 0.046838 -0.046156 0.046659 0.03033 0.02221 -0.015885 -0.015753 -0.003276 0.0095703 -0.0098661 0.027614 -0.00036385 0.026052 0.0051145 -0.025702 0.0070386 0.014051 -0.010817 0.0063157 0.0081839 0.0074536 -0.01425 -0.0035087 -2.3147e-05 0.013706 0.0040564 -0.0019092 -0.048386 -0.0058967 0.032131 -0.0045146 -0.007027 0.038844 -0.012453 -0.042904 0.017408 -0.0081876 -0.026376 -0.023119 -0.0031661 0.0008027 -0.023964 0.013903 -0.0090291 0.010645 -0.013958 0.019065 -0.012106 0.010469 0.013801 0.013719 0.014867 0.013213 0.0037961 0.0062704 -0.01834 0.034116 0.0019971 -0.015847 0.010057 -0.014359 0.018617 0.0041477 0.0036759 
write 0.027585 -0.001324 -0.012629 0.014889 -0.0051548 0.0084287 -0.045235 -0.0021611 -0.01307 -0.031008 -0.02418 -0.0087079 -0.01231 -0.001619 -0.046835 -0.02193 0.0043849 -0.016008 -0.0070127 0.038714 0.00047668 0.029747 0.023009 -0.010763 -0.0064469 0.0098955 0.030343 -0.037479 -0.018204 0.036553 -0.0082236 -0.0095772 0.00061962 0.0045011 -0.0016763 -0.006947 0.04704 -0.047693 0.05262 0.028899 0.024338 -0.019454 -0.014836 -0.0011304 0.0059521 -0.010603 0.026075 0.00036389 0.026156 0.0061773 -0.025013 0.0074734 0.012808 -0.010694 0.0069224 0.0060791 0.00432 -0.013774 -0.0024383 -0.00065408 0.016461 0.0031046 -0.0012541 -0.050839 -0.0062684 0.032531 -0.0062132 -0.0026923 0.040973 -0.0099758 -0.045646 0.018625 -0.0072762 -0.025505 -0.026841 -0.0025876 -0.0017928 -0.026317 0.014735 -0.012104 0.011648 -0.013697 0.016624 -0.013611 0.0085465 0.017207 0.016923 0.014269 0.015331 0.0076981 0.003409 -0.016673 0.034542 0.0017944 -0.017314 0.012552 -0.013591 0.016638 0.0042857 0.0034001 
process 0.064895 -0.00052875 -0.028266 0.03319 -0.014631 0.024596 -0.11874 -0.0062181 -0.032056 -0.074553 -0.070568 -0.022048 -0.034922 -0.00072741 -0.12041 -0.06551 0.010236 -0.038757 -0.012992 0.10394 0.0063575 0.077405 0.057211 -0.028103 -0.021028 0.023408 0.081467 -0.09965 -0.04071 0.094712 -0.021033 -0.023548 0.0025428 0.011278 -0.0043741 -0.022152 0.12183 -0.12489 0.13071 0.076158 0.064204 -0.051962 -0.037541 -0.0020449 0.018554 -0.028273 0.079049 -0.0031303 0.069492 0.012477 -0.061903 0.025372 0.031306 -0.026394 0.01615 0.018832 0.019064 -0.038909 -0.0063197 -0.0005631 0.035629 0.0089343 -0.0064145 -0.12783 -0.011262 0.082484 -0.011873 -0.0086236 0.104 -0.035598 -0.11669 0.042379 -0.016461 -0.071143 -0.064764 -0.0076602 -0.0046551 -0.065166 0.03873 -0.031855 0.025849 -0.033101 0.040407 -0.035952 0.024582 0.040172 0.037789 0.034044 0.035523 0.01509 0.013158 -0.046686 0.094126 0.0081488 -0.044058 0.030142 -0.040352 0.045092 0.0078802 0.011271 
Student 0.057455 0.0017153 -0.027958 0.02884 -0.012291 0.020591 -0.10391 -0.0076922 -0.02729 -0.068354 -0.062354 -0.018946 -0.034504 -0.0010133 -0.10849 -0.056992 0.0096434 -0.036511 -0.013505 0.091736 0.0047833 0.067719 0.051916 -0.025483 -0.020523 0.018717 0.074952 -0.088752 -0.037811 0.086107 -0.016498 -0.020817 0.00068006 0.0095892 -0.003876 -0.023238 0.10983 -0.10955 0.1178 0.067304 0.057647 -0.046157 -0.033566 -0.0026259 0.017296 -0.023057 0.071379 -0.0050051 0.063753 0.011207 -0.055805 0.02049 0.0299 -0.023458 0.013953 0.016808 0.010939 -0.032381 -0.0066222 -0.0017798 0.029667 0.0062551 -0.0042412 -0.11677 -0.011962 0.071593 -0.010194 -0.0055852 0.094544 -0.029362 -0.10318 0.038343 -0.013973 -0.066088 -0.057898 -0.0049556 -0.0049258 -0.061452 0.03288 -0.029533 0.023781 -0.030482 0.035433 -0.031596 0.02264 0.034032 0.0338 0.032158 0.02949 0.011908 0.012516 -0.042387 0.084598 0.0065333 -0.040227 0.027715 -0.037042 0.039815 0.0092131 0.0086591 
working 0.066147 -0.00063082 -0.030387 0.035961 -0.013121 0.025246 -0.12065 -0.0095377 -0.032811 -0.077816 -0.071989 -0.021135 -0.038845 -0.002147 -0.12516 -0.066599 0.011003 -0.040658 -0.014939 0.10551 0.0055253 0.078131 0.06063 -0.027094 -0.020516 0.023678 0.085331 -0.10401 -0.043491 0.098668 -0.022451 -0.024475 0.0024028 0.012782 -0.0039523 -0.023569 0.12706 -0.1296 0.13289 0.07811 0.067966 -0.052828 -0.040779 -0.0041075 0.02252 -0.026608 0.083159 -0.0041903 0.070304 0.012123 -0.064195 0.026518 0.033236 -0.025722 0.016889 0.017599 0.015515 -0.038056 -0.005026 -0.00082309 0.036455 0.0093545 -0.0059324 -0.13221 -0.011585 0.083378 -0.012501 -0.010903 0.10904 -0.033969 -0.12076 0.046512 -0.017016 -0.075137 -0.068312 -0.0074962 -0.0060512 -0.070794 0.036384 -0.031159 0.028501 -0.033677 0.043601 -0.037744 0.027352 0.039182 0.039323 0.036101 0.037267 0.015096 0.014718 -0.048907 0.096062 0.0063405 -0.046952 0.032821 -0.042478 0.04674 0.0084402 0.014195 
implement 0.044729 -0.0017301 -0.022569 0.022869 -0.0083822 0.01688 -0.081426 -0.0053681 -0.020792 -0.054057 -0.048916 -0.013269 -0.02601 -0.0025671 -0.085958 -0.045194 0.0080473 -0.027862 -0.010473 0.073033 0.0044226 0.053865 0.039215 -0.018989 -0.014275 0.015752 0.057796 -0.067594 -0.029532 0.066631 -0.013672 -0.016069 0.00099994 0.0096738 -0.0044349 -0.015614 0.086501 -0.086361 0.091483 0.053028 0.044339 -0.03516 -0.024797 -0.0028981 0.014529 -0.019723 0.055584 -0.0023213 0.049483 0.0076802 -0.041861 0.017834 0.023216 -0.018557 0.0099177 0.010777 0.01098 -0.026799 -0.0049816 -0.0017601 0.024672 0.0058658 -0.0046028 -0.08992 -0.010136 0.054527 -0.0077887 -0.0062129 0.072928 -0.022782 -0.07919 0.031003 -0.012212 -0.050206 -0.045379 -0.0041181 -0.0034659 -0.047507 0.026698 -0.020952 0.019312 -0.023888 0.029672 -0.024593 0.019518 0.026423 0.027044 0.025297 0.025251 0.0099634 0.011421 -0.032806 0.06501 0.0063386 -0.029985 0.022195 -0.028157 0.029892 0.0072695 0.0090412 
demonstrate 0.036139 -0.00053459 -0.01739 0.018253 -0.0064348 0.014041 -0.064276 -0.0051229 -0.018674 -0.040486 -0.038301 -0.011962 -0.022255 -0.001844 -0.067651 -0.035106 0.0060362 -0.02353 -0.0068775 0.059046 0.0018823 0.042752 0.031425 -0.015956 -0.010717 0.01208 0.047479 -0.055051 -0.022517 0.051247 -0.010855 -0.012458 0.0012072 0.0064598 -0.0032223 -0.012516 0.066139 -0.069765 0.072165 0.042325 0.036052 -0.028195 -0.022583 -0.0043561 0.0099976 -0.016397 0.042726 -0.0034473 0.038215 0.0082173 -0.03519 0.013023 0.019592 -0.015047 0.0093785 0.010493 0.0083837 -0.021708 -0.0039282 0.00088576 0.019943 0.0047413 -0.0033186 -0.07146 -0.0051619 0.045798 -0.0059031 -0.0066173 0.059985 -0.016358 -0.064847 0.023902 -0.0081397 -0.04056 -0.036491 -0.004636 -0.0030964 -0.037059 0.021297 -0.016409 0.015907 -0.019512 0.023817 -0.01862 0.013838 0.021255 0.020182 0.019717 0.018627 0.0065432 0.0081063 -0.026438 0.052731 0.0035632 -0.022983 0.016568 -0.023559 0.025046 0.0042499 0.0062806 
processes 0.055485 -0.0011516 -0.025513 0.029033 -0.013925 0.020019 -0.10383 -0.0064927 -0.027596 -0.065002 -0.061073 -0.01907 -0.031007 -0.0002983 -0.10527 -0.056227 0.0090542 -0.03579 -0.011548 0.090597 0.005083 0.066206 0.05017 -0.024401 -0.019413 0.020112 0.071944 -0.086484 -0.033954 0.083132 -0.018873 -0.020771 0.0011336 0.010455 -0.0043699 -0.019292 0.1068 -0.10936 0.11392 0.065177 0.055558 -0.045179 -0.034048 -0.0037387 0.015898 -0.024371 0.069601 -0.0026535 0.062097 0.010655 -0.054201 0.022306 0.028144 -0.022395 0.01212 0.017462 0.014195 -0.033042 -0.0066298 8.108e-05 0.030035 0.0077492 -0.0063225 -0.11131 -0.0089828 0.070782 -0.011249 -0.0073918 0.090438 -0.030701 -0.10185 0.037745 -0.012706 -0.062874 -0.05741 -0.0064626 -0.0035423 -0.056778 0.033531 -0.026666 0.023166 -0.029426 0.036004 -0.030641 0.021395 0.035483 0.033416 0.029746 0.031204 0.013435 0.012607 -0.040376 0.081477 0.0063377 -0.037114 0.026758 -0.03537 0.0391 0.0066351 0.009061 
R 0.018348 -0.0040903 -0.0095788 0.014701 -0.0082597 0.010942 -0.024788 0.0025167 -0.013102 -0.015897 -0.015326 -0.0061286 -0.0054185 0.0046691 -0.026912 -0.010528 -0.0002396 -0.0044899 -0.008216 0.027763 0.0018046 0.01364 0.0062912 -0.011818 -0.0072571 0.006487 0.027367 -0.029779 -0.014873 0.021303 0.00043292 -0.0011962 0.0020967 -0.0013565 -0.0034165 -0.0050606 0.022691 -0.028227 0.033621 0.011352 0.015645 -0.0099907 -0.0093551 -0.00084551 0.0046461 -0.0081038 0.019925 0.0022903 0.018244 -0.0013508 -0.0052955 0.0029543 0.0047307 -0.0056409 0.0011267 -0.00055527 0.0062562 -0.01196 0.0030477 0.00011178 0.014341 -0.0018007 -0.0062729 -0.033924 -0.001929 0.0092209 -0.0087748 0.0045476 0.026892 -0.0074097 -0.027718 0.018474 -0.0044876 -0.016903 -0.020566 -0.0038736 -0.0066463 -0.020366 0.011597 -0.0052269 0.010352 -0.0012338 0.0040684 -0.01038 -0.00011557 0.0072844 -0.0015063 0.014285 0.0041568 0.0016566 0.0058306 -0.0049525 0.018354 -0.0042949 -0.0083428 0.0087836 -0.012003 0.01122 -0.0019802 -0.0025233 
effectively 0.023987 -0.00086156 -0.013944 0.012795 -0.0054836 0.0088862 -0.042086 -0.0022199 -0.01152 -0.029014 -0.026714 -0.0076478 -0.013924 -0.00052363 -0.044464 -0.024527 0.0060806 -0.01606 -0.0052531 0.037852 0.0021398 0.02781 0.020279 -0.011076 -0.0095518 0.0071167 0.031876 -0.035985 -0.014044 0.035399 -0.0071416 -0.0082225 0.00048599 0.0044246 -0.00070665 -0.0085884 0.044838 -0.047055 0.049019 0.027395 0.025153 -0.01816 -0.012498 -0.0022545 0.0077446 -0.010371 0.02937 -0.0003187 0.026535 0.005156 -0.022248 0.0097114 0.012176 -0.0089662 0.0050653 0.0061411 0.006453 -0.014443 -0.0028364 -2.2275e-05 0.012591 0.0028639 -0.0027095 -0.047591 -0.0047072 0.029521 -0.0056053 -0.0041367 0.03936 -0.011136 -0.042325 0.017235 -0.0061334 -0.027742 -0.024114 -0.0023509 -0.0025319 -0.025254 0.01399 -0.010657 0.0096336 -0.011929 0.014615 -0.01466 0.010405 0.014187 0.013212 0.013635 0.013142 0.0040549 0.0055978 -0.017277 0.033698 0.0015508 -0.01693 0.012296 -0.014175 0.016904 0.002966 0.0048876 
identify 0.03737 0.0012451 -0.015847 0.018003 -0.0081268 0.013619 -0.070372 -0.0042838 -0.018836 -0.045215 -0.041322 -0.015471 -0.021826 -0.00036629 -0.069569 -0.037184 0.0074848 -0.023355 -0.0071912 0.059892 0.0018335 0.044116 0.032615 -0.018144 -0.013597 0.013826 0.047706 -0.058916 -0.024371 0.05612 -0.011781 -0.013686 0.001021 0.0065459 -0.0018864 -0.0141 0.070615 -0.070645 0.074524 0.043306 0.03618 -0.029565 -0.020564 -0.0018067 0.010853 -0.015685 0.04589 -0.0022754 0.041328 0.0078511 -0.035044 0.014817 0.020256 -0.014916 0.0092351 0.010296 0.006887 -0.019854 -0.0041786 -0.00088208 0.021585 0.0048653 -0.001405 -0.074795 -0.0059325 0.046488 -0.0064812 -0.0060676 0.061377 -0.019438 -0.067195 0.025301 -0.010707 -0.042365 -0.037117 -0.0038584 -0.0040955 -0.038606 0.022 -0.016597 0.016658 -0.020527 0.023957 -0.020724 0.015228 0.020447 0.022476 0.020975 0.021704 0.0065496 0.0071247 -0.027472 0.053027 0.0028157 -0.02539 0.017091 -0.024928 0.027107 0.0064023 0.0048102 
database 0.023574 -0.00017921 -0.011147 0.012093 -0.0066524 0.0068031 -0.045283 -0.0036328 -0.012866 -0.028833 -0.025819 -0.00861 -0.014292 -0.0014486 -0.047311 -0.026251 0.0019023 -0.016033 -0.0043146 0.041603 0.003267 0.02814 0.021657 -0.01286 -0.010263 0.01177 0.031018 -0.037972 -0.014301 0.035352 -0.0082998 -0.0093101 0.00088477 0.0056623 -0.0005938 -0.0097454 0.044728 -0.047466 0.049041 0.027247 0.026292 -0.020391 -0.014024 -0.0013366 0.0089846 -0.0097633 0.029489 -0.00093653 0.02608 0.0066608 -0.023365 0.0086248 0.011458 -0.010663 0.0050317 0.0048719 0.006156 -0.013937 -0.004074 -0.00072275 0.013962 0.0030488 -0.0004205 -0.047972 -0.0066421 0.031611 -0.0034926 -0.0048212 0.039681 -0.011802 -0.044443 0.017271 -0.0035761 -0.0261 -0.025837 -0.0010143 0.0005696 -0.023445 0.013912 -0.010893 0.010493 -0.012425 0.014283 -0.014379 0.010868 0.015018 0.013848 0.013935 0.013415 0.0054581 0.00334 -0.017387 0.035218 0.0026121 -0.017116 0.011256 -0.014498 0.017229 0.0029394 0.004096 
models 0.031841 0.0014725 -0.017676 0.017305 -0.0063221 0.011868 -0.057302 -0.0040484 -0.018673 -0.035213 -0.035341 -0.010081 -0.018237 -0.0026795 -0.061874 -0.034014 0.0059611 -0.021975 -0.0068538 0.050831 0.0038848 0.037671 0.027899 -0.014225 -0.012782 0.011052 0.039157 -0.049344 -0.020111 0.046127 -0.011434 -0.011378 -0.0023183 0.0044036 -0.0023122 -0.012322 0.061179 -0.064347 0.065191 0.040859 0.034263 -0.028465 -0.018428 -0.0042141 0.0094449 -0.011575 0.039274 0.00059212 0.03709 0.0075322 -0.031554 0.011282 0.015408 -0.010793 0.0086632 0.0090455 0.0094621 -0.019069 -0.0039603 0.00019962 0.017671 0.002053 -0.0019398 -0.064208 -0.0046411 0.038103 -0.0045703 -0.0028439 0.052832 -0.017386 -0.057523 0.02392 -0.0074686 -0.035296 -0.03403 -0.00046404 -0.0015115 -0.03361 0.017912 -0.015567 0.012182 -0.016825 0.021354 -0.019364 0.010503 0.017928 0.020648 0.01839 0.018367 0.0059494 0.010574 -0.022674 0.045668 0.0041343 -0.023102 0.016377 -0.01956 0.020155 0.0057004 0.0032255 
security 0.027955 0.00026882 -0.013567 0.016059 -0.004899 0.0088319 -0.047545 -0.0021733 -0.013272 -0.030206 -0.027725 -0.011689 -0.015999 -0.0017883 -0.050482 -0.028671 0.0047263 -0.016947 -0.0057774 0.040564 0.0034927 0.031762 0.023596 -0.011701 -0.0078997 0.0094448 0.033427 -0.042955 -0.016434 0.038501 -0.008668 -0.008703 0.0014648 0.0057605 0.00025564 -0.010141 0.052002 -0.050503 0.056008 0.030605 0.025967 -0.023181 -0.016965 -0.0034095 0.0077046 -0.011189 0.033335 -0.00026823 0.027578 0.0058547 -0.025805 0.010597 0.012315 -0.012171 0.0041598 0.0070828 0.0071723 -0.014455 -0.0021543 0.00087661 0.013994 0.0035317 -0.0028751 -0.053472 -0.0037551 0.034312 -0.0046035 -0.001857 0.044351 -0.010789 -0.046241 0.018262 -0.0076258 -0.030184 -0.02693 -0.002884 -0.0021907 -0.027642 0.015899 -0.012388 0.010996 -0.016075 0.01737 -0.016119 0.0096393 0.016046 0.013859 0.013696 0.014018 0.0070128 0.0062723 -0.019588 0.039369 0.0041321 -0.018169 0.012617 -0.017918 0.020234 0.0026374 0.0032607 
that 0.036375 -0.0010095 -0.014601 0.019925 -0.0034001 0.013023 -0.063891 -0.0053918 -0.018011 -0.039938 -0.038432 -0.0093539 -0.018171 0.00081127 -0.067228 -0.036972 0.0099357 -0.019555 -0.004268 0.057767 0.002918 0.039998 0.031273 -0.014724 -0.01043 0.016048 0.043017 -0.051595 -0.021675 0.050167 -0.010369 -0.011229 -0.00069722 0.0056449 -0.0023715 -0.01192 0.066206 -0.068091 0.068298 0.040348 0.035596 -0.029307 -0.019972 -0.0012157 0.011019 -0.017523 0.039568 3.3167e-05 0.037196 0.0062672 -0.032923 0.012274 0.019776 -0.013775 0.0082163 0.0097768 0.0099215 -0.020353 -0.0053765 0.00087028 0.019601 0.0064821 -0.0055578 -0.067365 -0.0056087 0.041764 -0.0062911 -0.0032382 0.056135 -0.018355 -0.060886 0.02305 -0.0095388 -0.040979 -0.031891 -0.0023299 -0.0021548 -0.036331 0.020754 -0.01561 0.011463 -0.019696 0.02184 -0.019968 0.013228 0.019491 0.01809 0.017808 0.019039 0.013387 0.010448 -0.026235 0.050927 0.0090277 -0.02004 0.014498 -0.022271 0.026442 0.0063198 0.0090259 
analysis 0.035181 -0.00015367 -0.015748 0.016196 -0.0067134 0.011338 -0.059777 -0.004404 -0.015027 -0.038155 -0.033932 -0.010606 -0.020326 -0.00062397 -0.059799 -0.032944 0.0055341 -0.018532 -0.0072845 0.051577 0.0036389 0.036525 0.028655 -0.011695 -0.0128 0.010532 0.041377 -0.050569 -0.02268 0.046647 -0.0098539 -0.012615 0.00054359 0.0045654 -0.0041914 -0.011192 0.06122 -0.063084 0.06522 0.039911 0.03312 -0.024435 -0.019368 -0.00091032 0.011126 -0.013921 0.040987 -0.0031382 0.036796 0.0050839 -0.031182 0.011365 0.016339 -0.012233 0.011115 0.011395 0.0075421 -0.02003 -0.0043013 -0.0025733 0.018776 0.0049358 -0.00327 -0.065197 -0.0048885 0.041002 -0.0062501 -0.0030078 0.054586 -0.018059 -0.055992 0.021147 -0.009803 -0.034541 -0.034072 -0.0018097 -0.00057303 -0.032372 0.020607 -0.016397 0.013574 -0.018286 0.021435 -0.018479 0.01075 0.019308 0.019717 0.01727 0.018578 0.0072506 0.0087873 -0.025561 0.047288 0.0039819 -0.019253 0.016604 -0.020763 0.022072 0.003285 0.0057299 
its 0.035395 -0.0020873 -0.01634 0.016341 -0.0030361 0.014298 -0.065412 -0.0045384 -0.019068 -0.039845 -0.037177 -0.0081815 -0.021513 -0.001711 -0.065615 -0.036294 0.0041008 -0.020702 -0.0030188 0.055208 0.0038776 0.040232 0.031253 -0.01814 -0.0080142 0.012528 0.045689 -0.05014 -0.025712 0.050997 -0.013285 -0.0097025 0.00099554 0.0013845 -0.0061964 -0.016586 0.072184 -0.067745 0.074721 0.04162 0.035073 -0.029609 -0.02055 -0.0037834 0.011742 -0.016187 0.044193 -0.00055582 0.039989 0.0066255 -0.031721 0.014091 0.015659 -0.015678 0.0081078 0.0055267 0.0049551 -0.022298 -0.002674 2.8876e-05 0.01921 0.0040765 0.00016801 -0.06937 -0.0061949 0.045368 -0.0052823 -0.0044061 0.058768 -0.019804 -0.059856 0.026304 -0.011315 -0.038739 -0.032477 -0.0069173 -0.0059372 -0.034831 0.019934 -0.016518 0.013747 -0.019341 0.026705 -0.016143 0.0080253 0.019598 0.022659 0.017895 0.015286 0.0044778 0.0069377 -0.024507 0.048684 0.00014064 -0.021985 0.022611 -0.022467 0.022455 0.0072101 0.0089164 
