717 100
and -0.5992817 -0.012469848 0.78089607 -0.07924786 0.43080363 0.4642224 -0.13501684 0.18128553 -0.5556245 -0.25513276 -0.0069666416 -0.39046115 -0.73929214 0.4267456 -0.23505287 -0.1521611 0.63255244 0.1721289 0.7135876 -0.50313634 0.2156412 -0.10183692 0.030889105 -0.1989825 -1.0256094 0.06780792 -0.12457993 0.2106043 -0.21095037 -0.7965989 -0.52022505 0.3563873 -0.20684011 0.1353244 0.4221482 0.123871535 -0.63325053 -0.11679103 -0.123506896 0.0971646 -1.0949364 0.13990797 0.55252945 -0.41693723 -0.47556934 -0.22676796 -0.9161549 -0.7624127 -0.4333352 -0.0051187263 -0.07032041 -0.710595 -0.90898424 -0.09875935 -0.019653015 -0.47036007 1.016432 0.29096866 0.16749187 0.59764045 0.5576186 0.12476446 -0.32085598 -0.0042014904 0.23472632 -0.84567004 -0.14602982 0.36133388 0.07375449 0.20306996 1.0459323 0.7367655 -0.63514614 -0.27362332 0.44829005 0.5491132 0.13332678 -0.27227953 0.59422725 0.31744152 -0.48082945 -0.19704004 -0.1252995 -0.13450432 0.67091405 -0.9459682 -0.46032086 -0.29566 -0.19909735 -0.3248236 0.109959595 0.23922853 -0.415875 0.4690303 -0.55320305 0.31577235 0.2433121 0.5346181 -0.11582694 -0.14165096
to -0.18080291 -0.37404895 0.04795744 0.021093078 0.67016107 0.33230695 -0.23143369 0.16752553 -0.1816266 0.5438613 0.3214521 -0.2047671 -0.12262985 0.48699385 0.011457022 -0.18358196 0.492242 0.34780604 0.6358849 -0.29234034 0.32273972 0.08557402 0.022055035 -0.16213518 -0.51855606 0.3932473 -0.19678627 -0.003927256 -0.40783668 -0.8703922 0.090480775 0.46607396 -0.2752778 0.118676394 0.61295044 0.6219306 -0.693567 -0.67369974 0.35379067 -0.02136172 -1.0199527 0.57754457 0.5332868 -0.40406728 -0.20827097 -0.14738871 -0.9983966 -0.36173463 -0.18702964 -0.28646624 -0.5879559 -0.4599042 -0.28574538 -0.4485898 -0.5683555 -0.35618535 0.29149845 0.32378185 0.8689019 0.5964772 0.25919855 0.3609871 -0.0030308773 -0.13908197 -0.3763784 -0.1975551 -0.32873058 0.34424776 0.60675824 0.1559287 0.9990618 0.5828319 -0.3241487 -0.20263116 0.17393656 0.18857837 -0.35641778 -0.20411764 0.27257833 0.2916356 0.2288993 0.275439 -0.23923095 -0.09871054 0.4564628 -0.56266034 -0.57924294 0.18533784 0.013448996 -0.83692753 0.05927 0.31584656 -0.5730697 -0.1770467 -0.6682339 0.15613629 -0.18757457 0.29065213 0.9771522 0.26628244
of 0.13709113 0.029682118 0.20796666 0.073553406 -0.16019885 -0.34143743 0.010689631 0.37386635 0.12432481 -0.040326055 0.06880744 -0.11363603 -0.16364017 0.27688637 -0.5753841 -0.39070848 0.07653613 -0.15508196 0.18450288 0.07663209 0.65817577 0.13791807 -0.4512166 -0.24687773 -0.21009251 0.30939606 -0.11567638 0.2305074 -0.15583257 -0.043728273 0.392565 0.016339451 -0.65266603 0.6980842 0.5399942 0.021581586 -0.40755317 -0.6750244 0.5889613 -0.63759786 -0.3196855 -0.2630367 -0.0072629666 0.16844411 -0.030713173 -0.4908894 -0.43540046 -0.15051545 -0.5391481 -0.00059299765 -0.27319297 -0.046011493 -0.10333075 -0.56734556 0.190008 -0.35214052 0.17638318 0.093068674 -0.05899385 -0.039865345 -0.09485431 -0.28084108 -0.6625674 -0.2255884 -0.21772094 -0.064905874 -0.36716473 0.40263227 0.23237894 0.5860814 0.12514934 0.0006821299 -0.009768123 -0.013912653 0.44211105 0.09103234 -0.058918633 0.10026864 0.076044716 0.2122135 -0.5119995 0.60349846 -0.02501009 -0.13995545 0.017532827 -0.12091682 -0.39447182 0.338394 -0.5510385 -0.17775656 0.6110717 0.23563518 -0.06744385 -0.18540166 0.067393385 -0.14774932 -0.31961888 0.35563213 0.11508315 0.47989908
the 0.038447924 -0.08722235 0.52931887 0.17421794 0.5692229 -0.09303318 0.10159275 0.69425315 -0.22935078 0.082171455 0.23442365 -0.15565269 0.013672948 0.38144618 0.0069209333 0.11696296 0.51278794 0.18703352 0.5521485 -0.43974087 -0.03441399 0.4217135 -0.52000535 0.16596046 -0.33110106 0.03072547 -0.12412378 0.01812868 -0.012817524 -0.62932044 -0.06447477 0.021656748 0.10572143 -0.16548324 0.12894465 0.005552864 -0.1633096 0.13351876 0.0064705615 -0.44159 -0.586182 0.074799545 0.27332494 -0.56946546 -1.0479251 0.037641324 -0.31254697 -0.6397863 -0.17718664 0.09633978 -0.114443935 -0.117216624 -0.6596306 0.033770025 -0.13330592 -0.06722836 0.64395463 0.83863115 0.19831374 0.14734398 0.82575476 -0.119128756 -0.123325266 0.19144982 -0.12964548 -0.17587548 -0.38629147 -0.10065985 0.019401401 0.015175509 0.4616432 0.096023664 -0.15120144 0.13327032 0.3318794 0.36279914 -0.005516155 0.009852838 0.6312287 -0.07119574 -0.40482712 -0.08585107 0.09324017 -0.0013567645 -0.19379841 -0.17805147 -0.71744454 -0.11367096 -0.12612309 -0.17947613 -0.35127622 0.14175308 -0.46612093 0.21610658 -0.0032556814 0.29958263 -0.025624627 0.54490274 0.22996777 -0.13925935
a -0.26210132 0.25393876 0.16620193 0.06596699 0.38568476 -0.067011386 -0.073927745 0.25035393 0.040179074 0.2251725 0.27054346 -0.029706268 -0.22563249 0.05546111 -0.07173427 -0.1271987 0.28149366 0.095147945 0.21506457 -0.3767434 0.18142226 0.41717148 -0.1737369 0.02826866 -0.2394856 0.39009598 -0.1943177 -0.29415038 0.052280586 -0.22534886 -0.03920284 0.14528665 -0.18982396 0.11976156 0.0076524494 0.06077609 -0.24545404 -0.2241582 0.17398977 -0.032568246 -0.45461383 -0.038524274 -0.038443543 -0.041448098 -0.25786752 -0.21569711 -0.46478617 -0.58125603 -0.12143072 -0.16733979 -0.4297139 -0.022759628 -0.12642363 -0.17723364 -0.51282454 -0.36192414 0.4437631 0.48230258 -0.042956218 0.40425327 0.07603168 -0.06300961 -0.23530976 0.10913601 -0.13134162 -0.28312674 -0.16058151 -0.17998025 0.1877635 0.28845632 0.59815913 0.06827877 -0.19654036 -0.18272907 0.24004272 0.46646485 -0.3422677 -0.045528714 0.36429566 0.2818855 -0.43800262 0.26906693 -0.18185581 -0.088239364 0.29705843 -0.33999157 -0.50031 0.29937866 -0.29510227 -0.33049974 0.16242056 0.0053474726 -0.30977455 0.123851575 -0.46667215 0.094825745 -0.08479517 0.38706055 0.44993854 0.13870406
in -0.22270876 -0.4382499 0.24232416 -0.4313454 0.18518701 0.11518445 0.23509587 0.26391336 -0.29371718 0.099173345 0.33299857 -0.2499402 -0.29658931 0.1624935 -0.45203608 -0.39422804 0.009738914 0.21533488 0.120131835 -0.45943072 0.24916811 0.3860437 -0.21954666 -0.41276643 -0.30024648 0.5750664 -0.0980665 -0.0007739283 -0.13823985 -0.19053794 0.28260472 0.14237244 -0.2905251 0.4637472 0.19628762 -0.15618818 -0.3610004 -0.44692358 0.30681655 -0.18147612 -0.27898166 -0.15193595 0.03808463 -0.29499868 -0.4383401 -0.29345667 -0.013053833 0.014905864 -0.25220138 -0.16689545 -0.097977616 -0.20639563 -0.21579823 -0.13210474 -0.116380155 -0.21910337 0.19888048 0.1701315 -0.003744278 0.33161992 0.506513 0.18082808 -0.30043074 -0.2273193 -0.53642666 -0.26340508 -0.22875899 0.37961528 0.28063098 0.4296833 0.063238315 0.06338543 0.017067073 -0.56866676 0.039681673 0.35903367 -0.16967453 -0.0033636482 0.14387037 0.4664036 -0.3180183 0.43686256 -0.4431433 -0.29405633 0.21381654 -0.06210807 -0.2715487 0.48428354 -0.29720154 0.038785912 0.22171491 0.14252588 -0.10758495 0.4369271 -0.33189413 0.5051513 -0.37166548 0.14886089 0.14548264 0.4183074
data -0.39993432 0.03922018 -0.06794842 -0.13343412 0.04679108 0.11796083 -0.079523645 0.31376314 -0.0254658 0.3675355 0.21378312 -0.29635167 0.007485533 0.25314304 -0.20775156 -0.13272019 -0.04017419 0.2069721 -0.013041636 -0.08615571 0.1234969 0.16590306 0.0519587 0.23425734 -0.36090156 -0.04680856 -0.34407637 -0.22581458 -0.21138878 -0.14245373 -0.065082364 0.30214775 -0.2741883 0.25594187 0.17782077 0.19111766 -0.25076133 -0.15666935 0.457597 -0.11927326 -0.35110173 -0.21285784 0.3037008 0.18586223 -0.013961335 -0.45907038 -0.58828443 -0.04349458 -0.15287106 -0.25807458 -0.31850332 0.0027717792 -0.022889143 -0.28480712 -0.25101134 -0.3038266 0.20703062 0.251543 0.3841611 -0.19334166 -0.06619529 -0.09537764 -0.17851914 -0.12783335 -0.105159126 -0.19615893 -0.14071593 -0.0724733 0.023888562 0.23662376 0.41385356 0.17924485 -0.344181 -0.12314955 0.3817297 0.2771084 -0.3871988 -0.1997981 0.2524837 0.17752779 -0.001849494 -0.09318184 -0.0089135505 -0.056281216 0.0852355 -0.21244352 -0.3431215 0.21158433 -0.10032225 -0.1731757 0.21891005 0.10987708 -0.39179948 0.01072603 -0.116304 -0.009910617 -0.15571345 0.23098093 0.4692244 0.14865753
for -0.25422707 -0.30999467 -0.0033978163 -0.053210676 0.22495711 0.23318298 0.2678098 0.2976911 -0.08342999 0.32522172 0.21443325 -0.09071648 -0.31216097 0.13739446 -0.11225946 -0.19049788 0.06598652 0.12459446 0.20228852 -0.21196626 -0.06310184 0.27742293 -0.2323336 -0.2707155 -0.18411385 0.31708506 -0.06921285 0.08933083 -0.2583428 -0.072862044 0.08095447 0.2928809 -0.12587549 0.2534665 -0.09482028 0.06823724 -0.24911168 -0.33873758 0.27551624 -0.080421954 -0.1619532 -0.054428052 -0.046484154 -0.12476589 -0.40725577 -0.19842461 -0.18416262 -0.061042022 -0.09819777 -0.12479979 -0.15658341 -0.10268122 -0.30575633 -0.057156503 -0.17339581 -0.25893253 0.10564354 0.10635805 0.24202733 0.054311365 0.13930283 0.3305079 -0.041091826 -0.41196725 -0.31609726 -0.25880745 0.10411397 0.13257813 0.2980447 0.43422636 0.16273922 0.12320415 -0.33546883 -0.4470424 0.08777278 -0.017632624 -0.04982723 -0.27419192 0.18635406 0.44563347 -0.03102755 0.17584468 -0.34910733 -0.14751025 0.27268633 -0.076332636 -0.2962268 0.2685818 -0.36726722 -0.1366312 0.10923096 0.5039868 -0.06965224 0.2406844 -0.22539684 0.25633484 -0.23596777 -0.00061505754 0.16311017 0.24322662
be 0.17270881 -0.15194671 -0.20253775 -0.23823492 -0.10411189 0.13722709 0.0021999262 -0.035043646 -0.40349412 0.0044382894 -0.03866197 -0.013995806 0.1926496 -0.113969944 0.07856031 -0.11980414 -0.04705993 -0.08924099 0.046133142 -0.15753733 0.25997543 -0.035026405 -0.054719973 -0.34518415 -0.054212205 0.27222037 -0.10176859 -0.051348224 0.03531826 0.028282048 0.14393958 -0.010315099 0.010494434 -0.060827374 -0.028076159 0.07123103 0.07280179 -0.014067642 8.280839e-05 0.024612457 -0.10464642 0.2904294 0.13039072 -0.013876468 0.015744315 0.1825557 -0.0030175145 0.42267415 0.10720553 -0.057237007 0.07575706 0.016904546 0.11969679 0.05634005 0.047068857 0.0777328 0.075881995 -0.06348403 0.07500194 0.25706318 0.20839281 0.027133215 0.23576914 -0.13309363 0.11484581 -0.078443155 -0.058902428 0.26575714 -0.021710563 -0.12151152 0.016371844 -0.09343227 0.17914696 -0.1652526 -0.20744845 0.15512271 0.045219455 0.015124362 -0.0061245007 -0.006025206 -0.11056002 0.07244197 -0.03400179 -0.26093662 0.005295761 -0.06776852 0.053678017 -0.08545693 0.022491379 0.07918935 -0.08435027 -0.10889599 -0.045203872 0.119608864 -0.18799797 0.2026931 -0.15883414 -0.021271395 -0.07763092 0.21595418
an -0.045522448 -0.06513355 0.340119 0.08744641 0.33170184 0.0009078289 0.021925025 0.37990177 -0.094880186 0.08606076 0.09404056 -0.04980943 -0.080135055 0.16400954 -0.0870715 0.15254931 0.32224017 0.17167497 0.26612854 -0.12236723 0.0048448844 0.21043065 -0.15874504 0.05339506 -0.13748866 -0.108450465 -0.20410329 0.10034199 0.060901888 -0.18487564 0.11970435 0.052544225 -0.15609129 -0.065673165 0.15130559 -0.09255262 -0.073137626 -0.00024158473 0.08147516 -0.3155024 -0.121540934 -0.21025425 0.021087788 -0.12492987 -0.19577335 -0.17705995 -0.16612573 -0.30594873 -0.21365522 0.0035046798 -0.06119703 -0.06681413 -0.2601923 -0.100936085 -0.12082796 -0.11512618 0.2687835 0.5454648 -0.11452926 0.06736589 0.18487868 -0.05378038 -0.21351424 0.027905453 0.072002366 -0.08455416 -0.28856245 -0.026612017 0.02306819 -0.003495205 -0.015014556 -0.22331636 -0.15505056 -0.018867413 0.1723375 0.082636215 0.0043331045 0.08499994 0.34586766 0.0002122987 -0.3244474 -0.055595253 0.08581669 0.005587518 0.016391842 -0.07335938 -0.26283205 -0.06538869 -0.22505036 -0.055754185 0.14117311 -0.07991278 -0.111300945 0.07047162 -0.073708765 0.0143127665 -0.1283951 0.26005605 0.010234916 0.008656632
design -0.02711315 -0.27517983 -0.09084547 -0.22778827 -0.16415079 0.27136272 0.17041686 -0.09511396 -0.09848144 0.078345984 0.13522105 0.05814346 -0.026058177 -0.08503974 -0.17677641 -0.1578573 0.11014382 0.038909324 -0.119139634 -0.21141474 0.001254474 0.057013333 0.064971976 -0.23673537 -0.066969186 0.21203674 -0.011798742 0.18438521 -0.11256119 -0.013420057 -0.07628799 0.065794446 -0.0012400034 0.13294779 -0.07301186 -0.12028904 -0.012752431 0.16258223 0.06831776 0.07285407 -0.16651182 0.30969965 -0.056490768 -0.097099036 -0.10696869 0.1797654 -0.12088848 -0.024253806 -0.012329169 0.028636856 0.08180603 -0.02144182 -0.029211901 0.13439062 0.026788518 -0.067205496 0.21282801 -0.03551039 0.015421482 0.1063463 0.009135128 0.1837306 0.16454555 -0.36181447 -0.11230867 -0.26508102 0.17346652 0.1753395 0.13984235 0.20155309 0.015811857 -0.06686273 -0.12463438 -0.31127018 -0.024079073 -0.028094199 -0.10550923 -0.042316284 -0.009117623 0.1438236 0.18347031 0.05453856 -0.22020772 0.017536474 0.107993744 -0.2340084 -0.07151037 0.015568509 -0.050395865 -0.013698355 -0.11180168 0.3008252 0.036659013 0.1358376 -0.19630961 0.12913935 0.0050586797 -0.12452999 0.20379774 0.0034680031
given -0.103811495 0.17020987 0.00044335646 0.021791957 0.20349942 0.015252007 -0.113815375 0.27407753 0.14022942 0.1344218 0.23417892 -0.16611056 -0.115690045 0.21542396 0.059211653 0.07850552 -0.0035450845 0.16920155 0.24076864 0.06430146 -0.014531816 0.18750669 0.05067221 0.10334369 -0.20049198 0.147421 -0.10362424 -0.18209508 -0.11061383 -0.2569039 -0.0022876887 0.16783237 -0.18476246 0.124858946 -0.021588821 0.08623068 -0.105507724 -0.11309579 0.13242811 -0.058694243 -0.1896587 -0.11328576 0.0656794 0.24065328 -0.09196223 -0.0060906056 -0.25550961 -0.14371212 -0.030532882 -0.28278688 -0.15242587 -0.06447063 0.053131837 -0.11002229 -0.5021275 -0.066256694 0.15952115 0.14525594 0.15457124 0.19885883 -0.013500333 -0.020955458 -0.009076948 0.027951863 0.026859635 0.044594854 -0.22543328 -0.25286332 0.1439739 0.12969577 0.38062972 0.28074494 -0.121767186 0.005384443 0.056328084 0.13536985 -0.1366296 -0.32507625 0.17004953 0.10324444 0.0420396 0.08024193 -0.030972453 -0.0040743556 0.093830876 0.021627216 -0.354177 0.20062862 0.077086784 -0.25900123 0.12653038 -0.1038781 -0.17893244 -0.033731043 -0.20453864 0.018550055 -0.07142392 0.25039795 0.34135404 0.18052615
understand 0.17983831 -0.26479056 -0.1027361 0.0011459293 0.010262011 -0.050872497 0.2040537 -0.008756299 -0.04288581 -0.07686482 -0.1468733 0.12218349 0.11823973 -0.15945278 0.04440683 -0.06609403 -0.044444013 -0.20614865 -0.05157752 0.11980542 0.109646976 0.013428529 -0.042494416 -0.08981704 0.22479609 0.087573454 0.22381942 0.16671795 0.122342825 0.062393658 0.23481369 -0.12737592 -0.016352981 0.13036452 -0.017861247 -0.20340964 0.06593249 -0.21584451 0.10614248 -0.027891569 0.23564522 0.047722913 -0.20189878 -0.054791123 0.034418292 0.09191161 0.18292885 0.13683186 0.18273531 0.15071951 0.12979504 0.17618634 0.12694004 0.046981834 0.09649082 0.02615956 -0.13139115 -0.06811642 -0.13276954 -0.07788523 0.0027665207 0.03888804 0.011860657 -0.0020565614 -0.026728837 0.16217093 0.035383627 -0.009894665 0.11781573 0.08078671 -0.21509661 -0.27917013 0.19437283 0.029894548 -0.14334811 0.05199126 0.13727963 0.3206248 -0.12375266 -0.019413386 -0.16373092 0.07632104 -0.06953009 -0.02727867 -0.121959865 0.012262344 0.0139104305 0.045413226 -0.20457673 0.12274045 0.02629416 0.017837469 0.113236286 0.09798459 0.08085426 -0.10157971 -0.20011324 0.024650825 -0.14215727 0.22082943
able 0.2574328 -0.22717385 -0.15743746 -0.03522289 -0.015864052 0.2280632 -0.029683238 -0.29975992 -0.12007089 -0.07758231 0.00545567 0.16064177 0.20620516 -0.1124494 -0.020429457 -0.16453138 -0.19706787 -0.23791158 -0.16120052 -0.17053168 0.42503813 -0.12807183 -0.09508717 -0.34472647 -0.1521526 0.23976922 -0.13129924 -0.15468962 0.10624434 -0.041077755 0.046409663 -0.21033084 0.2756418 -0.2781227 -0.11640826 0.032501604 0.16122605 0.14288715 -0.1488 0.120361514 -0.10408821 0.16302355 0.07715945 -0.20321731 -0.12694213 0.29382792 -0.0711208 0.32324976 0.31481022 -0.054054115 0.22677575 0.06660424 0.2966689 0.015818117 0.18732768 0.22996897 0.1615261 -0.08601997 0.04556461 0.35570133 0.17714408 0.015198446 0.3011322 -0.16778131 0.102417424 0.0056857155 0.25586575 0.110747956 -0.053690013 -0.16039453 0.08737147 -0.096417695 0.33976883 -0.056018844 -0.3047136 -0.06500153 0.068154566 -0.017432103 -0.07212779 -0.0015411326 0.058560982 0.012989126 -0.13418181 -0.19294673 -0.05596548 0.042839795 0.116962776 0.060081642 0.13032976 -0.018164514 -0.13279651 -0.05952527 0.030000297 0.12240192 -0.08061065 0.15182541 -0.22842543 -0.17450829 -0.17979592 0.12821203
correctly -0.11296515 0.03342239 -0.059569772 -0.16906393 0.10930299 -0.13675977 -0.14946605 0.21138805 0.023852726 0.016844017 0.14558427 -0.035492916 0.024705289 -0.029788544 -0.08514456 0.009452679 -0.1381297 0.062062148 0.15464525 0.06856929 -0.00015681685 0.05897789 0.06187095 0.19518425 -0.16150957 0.09968591 -0.161211 -0.14853549 -0.01853983 -0.20252134 0.015728826 0.12864423 -0.10884205 -0.03280969 -0.019745415 0.13740385 0.0075136535 -0.07547517 0.2640088 -0.062350236 -0.19417779 -0.14952242 0.1961816 0.043797955 0.004121649 -0.14570789 -0.20097835 -0.2407227 -0.12394454 -0.14626522 -0.11197288 0.06510729 0.017912988 -0.15925749 -0.21861963 -0.18518221 0.07131791 0.06791732 0.05829259 0.029883582 -0.1091962 -0.082681574 -0.033932667 0.14427282 0.028037297 0.045552082 -0.2517579 -0.118509695 -0.01206517 0.024906171 0.13376358 0.20437793 -0.09902889 0.06491456 0.23303929 0.040108386 0.023009097 -0.26807377 0.014538004 0.10855271 -0.10007571 -0.053272925 -0.050250676 0.06395875 0.16441698 -0.0006847392 -0.12679286 0.07607392 -0.094640456 -0.10002613 0.1938243 -0.029257428 -0.1092536 0.12570655 -0.055645384 0.024920983 -0.083231665 0.25247908 0.19846407 0.16979608
implement 0.061614625 -0.09368146 -0.04637929 -0.040864043 -0.039735693 0.16414568 0.27281287 -0.047450155 -0.028681573 0.0041268794 -0.026549544 0.11903116 -0.02169279 -0.08643628 0.019541368 -0.23567398 -0.038019553 -0.16206071 -0.11355152 -0.07677761 -0.10382816 0.14356494 -0.2307804 -0.23755227 0.011857815 0.32777765 0.0729143 0.13714235 0.02082442 0.20156972 0.17438363 -0.09406146 -0.09422766 0.09059039 -0.12652484 -0.17892292 0.0020112284 -0.11698516 -0.078859165 -0.022436988 0.11720526 0.117635526 -0.18912868 0.046182506 0.013418981 0.033893112 0.08331701 0.03367289 0.13968398 0.01021087 0.036117792 0.010594201 0.07510228 0.045792393 0.043167293 0.061632313 -0.018272175 -0.034812402 -0.07459814 -0.03571679 -0.027613379 0.046122357 -0.034018572 -0.2497333 -0.162585 -0.012568812 0.042188536 0.06438383 0.10182142 0.26738676 -0.078258626 -0.110274576 -0.07184425 -0.09347336 -0.061360504 -0.099323265 -0.077839024 -0.01434548 -0.09145555 0.053950947 -0.029059496 0.06570117 -0.1860854 0.0020333244 0.09624143 -0.010972889 -0.013669316 0.17025302 -0.039784003 -0.028686952 0.015555173 0.30262533 0.044811208 0.025940346 -0.012798886 -0.03493526 -0.14162964 -0.09532822 -0.06860368 0.16104299
apply 0.08942006 -0.20083478 -0.008631938 0.08503562 0.120559916 0.100917906 0.17136227 0.017842464 -0.1525104 0.062515974 -0.03444317 0.09884497 0.04281386 -0.046259794 -0.11291685 -0.3155034 0.03930399 -0.12998638 -0.023519404 -0.058181033 0.1290669 0.15753295 -0.22029738 -0.22480817 0.1504383 0.28065008 0.0125118755 0.04493868 0.04103604 0.06026648 0.20959598 0.0013606147 -0.09376386 0.0023132083 -0.0949278 -0.10794386 0.00012100558 -0.17157032 -0.033370826 -0.17559198 0.07982895 0.05092903 -0.105477266 -0.071356356 -0.07665416 0.02855201 0.08645656 0.10895366 0.08230414 0.09131033 -0.0015817333 -0.03112219 -0.0045690965 -0.02822598 0.1268757 0.116411306 0.008635325 0.0015050212 -0.10738085 0.049934864 0.12573746 0.059887737 0.04824639 -0.13514857 -0.07525941 -0.026567668 0.004665239 0.13170877 0.09961989 0.20786965 -0.0577279 -0.14853042 0.13558953 -0.045015767 -0.11429098 -0.044177085 0.054383475 -0.028181374 -0.032818455 0.07526113 -0.19837768 0.12629904 -0.0956716 -0.041407213 0.024362095 0.040771734 -0.15966985 0.1564494 -0.14485785 0.078212835 0.07969881 0.07683545 0.07731769 0.005883126 0.064484626 0.13499202 -0.24810973 -0.023757216 -0.14936902 0.27944493
problem -0.13613386 0.2082232 -0.09542601 -0.11530557 0.09566644 -0.048234593 -0.12248693 0.0029421449 0.056494858 0.0025828634 0.11987341 0.10487178 0.10210288 -0.0059567783 -0.0536949 0.028663822 -0.024599288 -0.02743008 0.14145032 0.108420216 0.16191429 0.09885721 0.20302239 0.19572158 -0.035265323 0.024560915 -0.019811869 -0.14286609 0.07434042 -0.1590501 -0.084318645 -0.008682207 -0.12919894 -0.11225256 -0.06935362 0.1504231 0.037118915 0.04955955 0.18198304 -0.1774336 -0.14009342 -0.10176883 0.09263927 0.14501691 0.0618844 -0.16581121 -0.23679811 -0.134151 -0.06084575 -0.21957919 -0.002618032 0.08037821 0.15291792 -0.031660005 -0.20210394 -0.045719657 0.11882886 0.11225869 0.110520795 -0.0038253104 -0.20234956 -0.15058163 -0.017815173 0.09733722 0.090384185 0.08540724 -0.054966994 -0.019019146 -0.014407994 -0.047746923 0.18188706 0.07277176 -0.08781977 0.043660123 0.050232008 -0.070419505 -0.07447515 -0.17320924 0.0069725635 -0.038451392 -0.07354143 -0.07924963 0.1266434 0.029937798 0.036508825 -0.04347142 -0.14140639 -0.041640893 -0.05130742 -0.14810105 0.20114414 -0.1318158 -0.085665636 -0.12499547 -0.034538683 0.005521374 0.0011882663 0.113690525 0.2619701 0.061624847
their -0.047555067 -0.34167224 -0.05414432 0.02590138 0.050505813 0.10682214 0.3147213 0.055869073 -0.2048102 -0.07206512 -0.04270238 -0.07822934 -0.010575231 -0.064051114 -0.096244395 -0.26783088 -0.10031637 -0.0583005 0.0038742917 -0.1589172 0.045000795 0.27774814 -0.25370505 -0.25876987 0.049123924 0.26415738 0.078557596 0.190889 -0.11311715 0.09470528 0.28679702 -0.029188957 -0.04835773 0.20619485 0.025683055 -0.16867399 0.026751222 -0.10672462 0.10319232 -0.31614882 0.038918767 0.18584907 -0.19792777 -0.08517971 -0.24460974 0.006102505 -0.009355368 0.14474495 -0.008164087 0.077320725 -0.080580324 -0.06533754 -0.10830258 -0.018180752 0.009505699 0.012682204 0.027198663 0.06765571 -0.027067078 -0.06281083 0.09294085 0.1227491 -0.13573161 -0.075018905 -0.23639466 0.03410239 0.07053808 0.14464343 0.019112065 0.2823633 -0.07224519 -0.3162175 -0.039020903 -0.18313384 0.029141255 0.09465794 -0.05413251 0.146163 0.0023034988 0.16071174 -0.14530885 0.2645129 -0.27439559 0.05047901 0.013409746 0.030247003 -0.22144285 0.18283448 -0.13518676 -0.06853543 0.049573265 0.262323 0.076553084 0.042403124 -0.0569209 0.20208165 -0.28059483 0.092012316 -0.10859963 0.2429277
learn -0.029911881 -0.12200102 0.029681297 -0.083266556 -0.08749848 0.07395155 0.15717082 -0.071738124 -0.06220335 0.014849827 -0.052810088 0.07407021 -0.021525634 0.009301834 -0.093837224 -0.085509345 -0.015319406 0.026669787 0.0031281277 0.07743361 -0.04978258 0.06767484 -0.060873467 -0.12837568 -0.026124064 0.12460755 0.040815726 0.15608786 -0.059023857 0.08411909 0.13845064 0.018947782 -0.04597622 0.19515544 -0.045892138 -0.05683909 -0.05562793 -0.08925328 0.05514017 -0.049997244 -0.015454925 0.24330261 -0.10328848 0.027891055 -0.0094181895 0.10899153 0.022827297 0.107983634 0.030611211 0.044662382 0.10574916 -0.012345149 0.011806547 -0.019635776 0.06229141 0.05051606 0.041282326 0.0039529004 -0.090995096 0.03019406 -0.03749557 0.034420915 0.036739126 -0.13291106 -0.17959309 -0.031128436 0.030755827 -0.00864186 0.09346136 0.11599161 0.017328115 -0.06922673 0.022638142 -0.07677154 -0.017875541 -0.06766225 -0.09365948 0.09550381 0.00046391576 0.029611534 -0.027836522 0.15771945 -0.16136535 0.017540364 -0.026503695 0.021083273 0.009434731 0.039498758 -0.13166939 0.028320909 0.014232825 0.12335537 0.013148064 0.00583463 0.09250437 -0.016649589 0.06736244 -0.07091372 -0.10922012 0.15404706
with -0.30871943 -0.22549263 0.053124096 -0.24696288 0.109392315 0.23370585 0.24526542 0.08570799 -0.27732456 0.25790092 0.2346851 -0.14897689 -0.13737895 0.11237439 -0.3234152 -0.22653607 0.1939199 0.28278226 0.09417047 -0.35653237 0.13367437 0.14709257 -0.029282156 -0.1798604 -0.21685049 0.27907938 -0.25984797 -0.19565725 -0.32687727 0.003095154 0.081829 0.16820504 -0.20797318 0.26206127 0.1412182 -0.09614751 -0.26578623 -0.19073297 0.24012224 -0.15417479 -0.2866469 0.18410479 -0.022693882 -0.3309851 -0.260093 -0.24300456 -0.14465569 -0.01683535 -0.19587076 -0.2445862 -0.21606728 -0.15438065 -0.18163337 -0.05772176 -0.13148397 -0.2678018 0.15004851 0.25420547 0.2527002 0.20408182 0.20626661 0.12470159 -0.102603935 -0.36735082 -0.19320476 -0.2984812 -0.07180268 0.20557114 0.14842714 0.27512744 0.13743658 0.08251879 -0.26351923 -0.28380847 0.11140793 0.18748033 -0.057756662 -0.14389716 0.18549715 0.26924428 -0.1091337 0.22187513 -0.28350705 -0.15685621 0.18317318 -0.2272555 -0.32017097 0.19781129 -0.15271518 0.009819371 0.18719833 0.21499746 -0.2312249 0.17329973 -0.35799083 0.34151202 -0.12043702 0.17294505 0.15464853 0.10215956
structures -0.14949532 0.07709038 0.014023535 -0.029068733 0.13369328 0.021229606 0.030838324 0.1780952 0.041803386 0.008194562 0.125353 -0.07657111 0.14081037 0.12299164 0.062183842 0.15408614 0.019125987 -0.06274503 0.045813218 -0.07542445 0.056243457 0.08497691 0.1267879 0.2195539 -0.21374287 0.043177772 -0.14379254 -0.13782576 0.1271425 -0.15323476 0.0037784795 -0.0006006561 -0.12784103 0.14387843 0.046526227 0.23945735 -0.010032651 0.073933035 0.14206761 0.043272465 -0.20403737 -0.31990728 0.29684854 0.09010382 -0.19909577 -0.24429135 -0.2577873 -0.10944114 -0.10948712 -0.06256659 -0.09304806 0.009038966 -0.11815065 -0.09370118 -0.14969896 -0.15070784 0.13396838 0.10411241 0.21299773 -0.03370832 -0.03641983 -0.1464092 -0.089394845 0.22280662 0.13714626 0.07069074 -0.034297034 -0.023221863 -0.21350957 -0.13440752 0.10195928 0.12636246 -0.12089421 0.034284435 0.3071053 0.124379665 -0.09087087 -0.061188053 0.087470524 -0.075801335 0.045923855 -0.12024758 0.11791954 0.17992371 -0.03940028 0.034680944 -0.07191566 0.07498807 -0.018086968 -0.22289015 0.0152161755 0.047111098 -0.19838844 -0.056814577 0.02891132 0.06905308 -0.11119831 0.19752179 0.1699489 -0.025235893
basic -0.2925316 0.039144285 0.10261448 -0.0776547 -0.0028949548 0.09386032 -0.0017054537 0.22725146 -0.008251737 0.13495778 0.17277914 -0.1564284 -0.0072765453 0.1385032 -0.14847587 -0.028125761 0.088287875 0.13437141 0.046531998 -0.096807025 0.09688016 0.0034292573 0.019551655 -0.0014085212 -0.39540422 0.065065555 -0.17922856 0.015158752 -0.07596734 -0.13149628 -0.016535264 0.23243403 -0.22932354 0.13817933 0.14929077 0.23746997 -0.19542667 -0.11598374 0.28329152 0.030612973 -0.322375 -0.04823432 0.23194106 -0.016465591 -0.11210139 -0.22261187 -0.3653154 -0.12269083 -0.1546942 -0.18957673 -0.3134976 -0.0875964 -0.20592393 -0.18284103 -0.2194242 -0.14620249 0.2241522 0.12575154 0.34007043 0.13533464 0.054283142 0.021006705 -0.19376011 -0.06938043 -0.09277807 -0.1637506 -0.07430074 0.18149015 -0.008923107 0.1302788 0.20177522 0.19282143 -0.17855623 -0.090328224 0.31745014 0.19655676 -0.11319345 -0.16360772 0.14048204 0.019647468 -0.04042227 0.038205963 -0.016860101 0.017148156 0.20305368 -0.17086977 -0.10131451 0.057084166 -0.029022774 -0.26604357 0.048868828 0.06857982 -0.2764138 0.08813219 -0.12937579 0.0785604 -0.03690945 0.2184592 0.090206854 -0.05403828
programming -0.1063428 -0.21436882 -0.0020448393 0.08553593 -0.008599079 -0.023228029 0.20204754 0.028957065 0.032338515 0.10948056 -0.13483489 0.015256441 -0.010692371 -0.044279877 0.03239862 -0.06492548 -0.06005791 -0.13385637 0.03771745 -0.04067141 -0.1518531 0.17433152 -0.12099677 -0.123234905 -0.084131114 0.1370475 -0.009739536 0.17936848 -0.041387387 0.0926289 0.16849191 0.03268559 0.07588936 0.1926671 -0.119723946 -0.031249436 0.09624516 -0.11377436 -0.046007216 0.012263637 -0.016544653 0.07411197 -0.12285584 -0.026396934 -0.0864818 0.027511245 0.095844574 -0.0712009 -0.08316613 -0.12140192 0.008759402 0.03668853 0.047617465 -0.0655575 0.034784 0.024460077 0.040608138 0.013291244 0.036521856 -0.04327477 0.04775857 0.08486255 0.017994167 -0.031178538 -0.18107821 0.07224035 0.06238487 0.05853721 -0.017914312 0.11944984 0.0802572 0.006081457 -0.069430664 -0.036242824 0.050568096 -0.10054017 -0.114713386 -0.07282363 -0.015179993 0.08732277 -0.041834056 0.04438662 -0.12148111 -0.016470065 0.055645812 0.033020623 -0.09733006 0.07113096 -0.049578235 0.060049985 0.004504102 0.1600559 -0.0541605 0.002778701 -0.10351643 -0.062402364 -0.11720255 0.037030976 0.025807226 0.16617055
language -0.09902146 0.047814645 0.062321737 -0.07034484 0.020127507 0.017671322 0.018088887 -0.029557226 0.13136524 0.142535 -0.0016856025 -0.05629144 -0.018015875 0.019289443 0.079646066 -0.0083598085 0.07436117 -0.02511607 0.06750586 0.0040908437 -0.04765833 -0.040988084 0.099152796 -0.09472795 -0.15070605 -0.055335406 -0.11125154 -0.065892175 -0.029539507 -0.086101174 -0.10379241 0.09647898 0.10176306 0.09475729 -0.042993367 0.11779614 -0.022285553 0.03800121 -0.011115482 0.110679515 -0.19898342 0.021591045 0.068844154 0.007761672 0.07242435 0.05350134 -0.10771716 -0.24092987 0.029280571 -0.15414125 -0.06902556 -0.07273832 0.06031907 -0.010278964 -0.030573428 -0.019433105 0.17321429 0.06214859 0.13949886 0.009911395 -0.027424319 -0.06836588 0.072565906 -0.005820681 -0.053077538 -0.02636041 0.07665997 -0.027688 -0.026812831 0.027440121 0.1719854 0.17569551 -0.15006249 -0.10434698 0.13128416 -0.1196093 -0.14637494 -0.21153216 0.14480887 0.03543902 0.044057213 0.047300205 -0.06322229 -0.0048925458 0.10259013 -0.07964428 -0.02009201 -0.053504046 0.116849065 -0.09046331 -0.021928914 -0.036210176 -0.11985638 -0.056522742 -0.12119432 -0.020209251 0.07104467 0.07058084 0.21929136 -0.039197862
about -0.11864814 -0.32316345 0.05526513 -0.070282675 0.022408905 0.1243522 0.3457294 -0.0052063884 -0.09249466 0.15788524 0.014272532 -0.05433416 -0.14535266 0.049672935 -0.24000736 -0.3468754 0.019678036 0.14482057 0.064633906 -0.001719738 -0.013569122 0.34144783 -0.44031748 -0.44008684 0.011847218 0.3579761 -0.021185031 0.41845387 -0.19700465 0.17470124 0.36750987 0.12850578 -0.26514837 0.3800625 0.047623858 -0.19051024 -0.17524703 -0.3748149 0.24298584 -0.36889467 0.016318392 0.17877087 -0.20157531 -0.17156017 -0.15220657 -0.14474191 -0.0017354514 0.13824682 -0.12627672 -0.018008646 -0.14763844 -0.13810855 -0.12292279 -0.22375245 -0.008989236 -0.032519512 -0.07761578 0.046575613 0.03603061 -0.069480345 0.085670434 0.2906066 -0.10955241 -0.25543076 -0.33664578 -0.032261807 -0.11908253 0.1826307 0.1809313 0.3886295 -0.1038885 -0.35790804 0.0242414 -0.27718678 0.060993046 0.15152445 -0.21618849 0.023571903 -0.016812716 0.15895918 -0.015593617 0.3198509 -0.35564774 -0.09859869 0.07444752 -0.014034016 -0.2228899 0.3517352 -0.29833612 0.05109119 0.19373581 0.4175604 -0.0453618 0.17479992 0.058934495 0.04055151 -0.29134223 -0.015276845 -0.20503889 0.2896151
on -0.13972105 -0.08867784 0.06420026 -0.08438048 -0.027385736 0.12907898 0.100212544 0.1973728 -0.032099087 0.1116824 0.15025699 -0.18309702 0.040101353 0.11743116 -0.19516782 -0.109190114 0.17130585 0.14763421 0.11153951 -0.05718046 0.1671038 0.15454738 -0.13720642 -0.10533121 -0.060012504 0.1940608 -0.18332703 0.13169841 -0.1757003 -0.12594913 0.24196531 0.10004576 -0.18547466 0.38805574 0.14303368 0.10539841 -0.031177837 -0.33277297 0.22769602 -0.21748255 -0.106575765 0.006343833 0.011701677 -0.037235875 -0.065710425 -0.25831097 -0.14664744 0.06262316 -0.124337055 -0.09748256 -0.11023054 -0.07826145 -0.11073849 -0.1441342 -0.048962515 -0.15244558 0.14740427 0.1205304 0.17421895 0.02650857 0.040201157 0.15509705 -0.1701718 -0.2659296 -0.15361743 -0.13231498 -0.100402914 0.1396831 0.062637076 0.1906043 0.023134097 -0.048660897 -0.08444802 -0.08963157 0.18907344 0.16713765 -0.20915686 -0.17645046 0.11900089 0.1282519 -0.10507433 0.1789872 -0.14837947 -0.048022978 0.09837166 -0.16022563 -0.13981923 0.27653354 -0.053495366 -0.049918536 0.25904617 0.17820726 -0.10848062 0.03856425 -0.07846138 0.08936789 -0.33732677 0.12925239 0.1478985 0.21539983
system 0.010423873 -0.08551895 0.035292573 0.0028353182 0.15424979 -0.040043823 0.07420973 0.25726256 -0.12683485 -0.0065946244 0.08621695 -0.02308985 -0.079937644 0.09172216 -0.15161209 -0.017497255 0.17469397 0.060328387 0.122856796 -0.050689034 0.06447497 0.2581642 -0.26981536 -0.17890486 0.04230977 0.13741507 0.047586083 0.06687208 0.053910505 0.0042840983 0.021706363 -0.02923953 -0.12150113 0.014587807 -0.009379843 -0.14077283 0.030888412 -0.09248443 0.010543802 -0.26628566 0.07326513 -0.048460398 -0.120367445 0.068129264 -0.16180517 -0.1100094 -0.023458598 -0.041589335 -0.016306333 0.01740851 -0.034127433 -0.04828494 -0.10164662 -0.038008504 0.0037136576 -0.08048534 0.06914682 0.12839371 -0.039888687 0.05627422 0.067346565 0.013941875 -0.1383667 -0.06653667 0.0004342352 -0.11184351 -0.06974317 -0.013694484 0.103223205 0.06427044 -0.09606885 -0.14267838 -0.06762838 -0.06728836 0.029065572 0.04645842 0.05034899 0.07214279 0.030923598 0.1675125 -0.1047087 0.14588101 -0.13674927 -0.02086696 -0.02037111 0.04124473 -0.22558433 0.07730415 -0.14333607 0.023857081 0.15184197 0.08971821 -0.071422674 0.01399584 -0.011924967 -0.07093876 -0.19137119 0.10463278 -0.0072545214 0.13865143
from -0.11653733 0.08572588 0.13189737 -0.09333019 0.2131684 0.15553918 0.052230444 0.30146885 -0.08329575 0.10942669 0.13235527 -0.18592377 -0.25356624 0.18235147 -0.19971178 -0.07352153 0.21477985 0.2059486 0.1524993 -0.088806845 0.2001842 0.14249709 -0.03675595 -0.0488409 -0.15868434 0.1802318 -0.11335846 0.011454961 -0.20458476 -0.23478737 0.14858563 0.26313895 -0.11134452 0.231986 0.11404756 0.103019536 -0.25503045 -0.21648607 0.18829909 -0.15859328 -0.12136373 -0.028110089 -0.053054754 -0.058687616 -0.14449462 -0.07738585 -0.08383962 -0.18855782 -0.17168638 -0.15854523 -0.21136363 -0.1708853 -0.19923174 -0.108961806 -0.1618622 -0.21948417 0.05987046 0.1992039 0.16542885 0.14588141 0.093145184 0.05028114 -0.13173378 0.009303326 -0.2176768 -0.09436924 -0.2001534 -0.018560285 0.11063833 0.17565203 0.15634726 0.0106986435 -0.09734515 -0.081823245 0.10418776 0.17717329 -0.052171394 -0.041114457 0.12033089 0.21849175 -0.14260966 0.09719315 -0.105994344 -0.21161272 0.14029868 -0.107907616 -0.33427468 0.081689194 -0.25786227 -0.28208634 0.20227706 0.16245471 -0.11422955 0.1429599 -0.15454417 0.06858277 -0.12044646 0.19725901 0.15712847 0.2056261
hardware -0.03899363 -0.13961883 0.045392927 -0.02177245 0.020553831 0.13969672 0.15253308 0.00793685 -0.024935964 -0.046589028 0.04191929 -0.031726524 -0.048994683 -0.08379714 -0.14462769 -0.16417156 0.13244078 -0.039236315 0.059042886 -0.031841718 0.14285244 0.07354183 -0.001977343 -0.09112623 -0.11081984 0.08200669 0.01065624 0.18034686 -0.018042883 0.043131374 0.010841141 -0.020086506 0.02003333 0.18146856 0.057994902 0.09476828 -0.048753466 -0.11809939 -0.07769051 -0.035818618 -0.14376543 0.032019783 -0.06998882 -0.1664579 -0.0648231 -0.03918835 -0.053704746 -0.056216188 -0.062112827 0.039711922 0.01322254 -0.084881365 -0.14026922 -0.095086835 -0.058137935 -0.0135620115 0.090795435 0.031445555 -0.02759378 0.075823426 -0.000485969 -0.05684692 -0.10206987 -0.27428377 -0.05615583 -0.11987458 0.088225566 0.1997826 0.032978203 0.18426426 0.106082946 0.016569095 -0.11086227 -0.16057369 0.1251988 -0.07359962 -0.07309885 -0.015777016 0.038296632 0.10536539 0.061449777 -0.019797219 0.027547605 -0.029859351 0.078433104 -0.08851082 0.00031006147 0.015087557 -0.028344445 0.048041675 0.04530639 0.081225164 -0.03661081 0.09285613 -0.09749879 0.058455445 -0.0014866131 0.041991703 0.10800565 0.029151026
using -0.25963172 -0.21475671 0.1955245 -0.21663412 0.2842779 0.15278377 0.15967521 0.100499004 -0.36105785 0.13068667 0.24935442 -0.22371216 -0.31454656 0.24082069 -0.24986026 -0.22781916 0.24688949 0.2821297 0.108229 -0.30706343 0.18120003 0.25005296 -0.09964896 -0.36937267 -0.042906824 0.25736868 -0.1382058 0.04037657 -0.21695963 0.016343364 0.23637858 0.17732316 -0.32577637 0.3558672 0.1866791 -0.26545686 -0.1766948 -0.20294933 0.19037491 -0.20044062 -0.053530775 0.12882775 -0.2369256 -0.24571116 -0.17957659 -0.17505857 -0.044559803 -0.08367801 -0.2107561 0.027218927 -0.22168913 -0.21302466 -0.23489234 -0.08254694 -0.12330128 -0.2464234 0.030077863 0.14778298 -0.038905974 0.21346748 0.21716455 0.33665472 -0.2950546 -0.32637373 -0.28212348 -0.2488412 -0.18285455 0.23568833 0.2751203 0.29346302 0.0024233325 -0.042412434 -0.2156421 -0.29565388 0.14584294 0.20354082 0.030923262 -0.013724615 0.08962389 0.3300208 -0.19689924 0.23964472 -0.28869018 -0.25042373 0.28250024 -0.19462146 -0.26620182 0.33874536 -0.22674751 -0.032594588 0.25761124 0.2854141 -0.15499151 0.22911857 -0.2930958 0.19607525 -0.22940554 0.11825519 0.022649368 0.31709793
as 0.021204952 -0.05625514 0.20821962 0.004329713 0.23666371 0.13943437 0.12213191 0.2579636 -0.025595495 0.033177193 0.18899737 -0.17265822 -0.18228884 0.11162219 -0.041736275 -0.08525435 0.16949433 0.004446978 0.14038959 -0.13196671 0.04957577 0.28596452 -0.15556994 -0.07479865 0.07594059 0.15987752 0.14607564 0.07132047 -0.037194114 -0.034263592 0.09845475 0.11051574 -0.06737098 0.06524966 0.13629575 -0.14052022 -0.17442276 -0.16499545 -0.041711997 -0.16049509 -0.122217685 0.11247942 -0.1595229 -0.17603362 -0.2209767 -0.11006352 -0.02350135 -0.38189596 -0.030663425 0.0786826 -0.06306434 0.037298035 -0.25282127 -0.12603863 -0.13129333 -0.08525821 0.008317253 0.23800522 -0.06109024 0.2152122 0.112164184 0.1275389 -0.189684 -0.09600962 -0.16236532 -0.028050533 -0.20778708 0.07120499 0.16521116 0.11732481 0.06148921 -0.10696279 -0.1405072 0.00059599534 0.01708692 0.16737849 -0.047884256 -0.0038902338 0.17140205 0.2052831 -0.25634637 0.15150371 -0.14804997 -0.068497054 0.07386377 -0.08511832 -0.15656187 0.19459668 -0.2189925 -0.030648533 0.09698666 0.31796172 -0.06312605 0.16312124 -0.19930075 -0.00010512071 -0.118991695 0.13375908 0.115187325 0.06653194
embedded -0.049414292 0.008721647 0.028769838 -0.11113806 -0.06550638 0.116155714 0.10079411 -0.04529487 -0.06713728 0.16959588 0.057838757 -0.0018110403 0.0031367717 0.0019048877 0.013446575 -0.029888688 0.11488316 0.035044473 0.00663317 -0.0371489 -0.11132845 0.028308045 0.091101475 -0.08935839 -0.047384806 -0.009028886 -0.04066479 0.010354617 -0.07974238 -0.081484854 -0.07133497 0.018484749 0.16269183 0.030250428 0.0059750043 0.021597402 0.033758033 0.108632945 -0.022005798 0.110190965 -0.12360668 0.07264609 0.035120077 0.018834066 -0.10385041 0.21577813 -0.06987784 -0.18747704 0.07516273 0.0076926704 0.047043458 0.010474683 -0.09775461 0.14850672 0.10845666 -0.09378437 0.11721446 0.07756097 0.022138897 0.044577338 -0.033748135 0.056607794 0.064011045 -0.14110322 0.08190918 -0.20865162 0.13084039 -0.0031759888 0.009899582 0.14986713 0.08765467 0.049421016 -0.21543184 -0.08994438 -0.079902284 -0.11128376 -0.11048668 -0.17303917 0.08518594 0.06279035 0.20320264 -0.07907258 -0.038271382 0.0070746886 0.03221266 -0.0778237 0.0029480243 -0.04764596 0.13150351 -0.024746215 -0.07259902 0.053873308 0.023585694 0.0643827 -0.06310981 0.0002041605 0.053473502 -0.047726307 0.0011371044 -0.089769155
scientific 0.07653681 -0.12116524 0.03470949 -0.08537528 -0.008055867 0.06813841 0.11298411 0.054092463 -0.051239833 0.14659525 0.026003335 -0.08062774 -0.01163905 0.04769739 -0.072502084 -0.12364574 -0.0007102445 -0.017311031 0.08098957 -0.058970343 0.13544244 0.018210705 -0.05788893 -0.042987093 -0.08814174 0.1931291 -0.08434033 0.10739647 -0.048845984 -0.14374535 0.08843172 0.041450873 -0.14327236 0.17164211 0.05742839 -0.016354997 -0.06834183 -0.083616056 0.07864352 -0.16006647 -0.15148294 -0.039582554 0.05167576 6.106461e-05 -0.09233693 -0.060434904 -0.01710607 -0.009451982 -0.15006503 -0.07808295 -0.083231755 -0.047335204 -0.00943988 -0.08065603 0.011660941 -0.047155645 0.08096439 0.029791629 0.07840634 0.094778754 0.05418444 0.09539688 -0.12847307 -0.06552086 -0.122173324 -0.10221477 -0.07394942 0.021602029 0.13825516 0.08597438 0.14526458 0.014969138 -0.08697574 -0.0733583 0.04436652 0.07666579 -0.15679565 -0.09602764 0.04473285 0.068472736 0.061015166 0.020455474 -0.08857009 -0.09610199 0.036903024 -0.05143172 -0.06472871 0.037899505 -0.035132326 -0.105087884 0.023574958 -0.00374278 -0.025716979 -0.038344797 -0.056281604 0.08439754 -0.117579564 0.06958968 0.13137816 0.17216785
that -0.26269323 0.048498992 0.15692388 -0.14815648 0.099730544 0.22665204 -0.04826107 0.13936792 -0.18153377 0.17185527 0.29288623 -0.17993616 -0.19614369 0.20453233 -0.1367354 -0.106059246 0.22415985 0.13446301 0.26711416 -0.18990108 0.29534426 0.03844448 -0.11448214 -0.1597377 -0.26063696 0.17547037 -0.22690673 0.008034061 -0.20617796 -0.0857538 0.08426719 0.27883023 -0.17080161 0.18737192 0.18426737 0.046316925 -0.15287898 -0.24301086 0.22369619 -0.19502987 -0.2684596 -0.019843593 0.086459555 -0.22170463 -0.10945728 -0.1929515 -0.29102397 -0.17631508 -0.18019725 -0.23269887 -0.16344954 -0.21140297 -0.19830234 -0.1416024 -0.0881802 -0.18939014 0.17318256 0.22966038 0.15764555 0.20397733 0.18190122 0.1037594 -0.13559823 -0.073975146 -0.069430955 -0.15099044 -0.17863007 0.28717807 0.114402756 0.06924001 0.17254981 0.008959713 -0.1347915 -0.23766167 0.2475771 0.25720716 -0.1092155 -0.18127269 0.22334965 0.10422966 -0.0366283 0.08776019 -0.122937776 -0.20004508 0.19564958 -0.24375917 -0.18161345 0.008250017 -0.12883341 -0.12968886 0.22713254 0.103320695 -0.28246212 0.24269585 -0.24522267 0.19263488 -0.13901657 0.20540573 0.12263936 0.18822056
develop -0.037173137 -0.10846889 -0.043457184 -0.09707753 -0.043682642 0.026026277 0.09634083 -0.08694341 -0.10551335 -0.109165095 -9.97656e-05 0.048804425 0.0833597 -0.13102125 0.031328883 0.035306193 -0.07215611 -0.13614684 -0.07355674 0.01940317 -0.04652741 -0.018717144 0.028669646 -0.10301986 0.05554991 0.041746274 -0.018340755 -0.04218772 0.08826959 0.04983871 -0.0831905 -0.046087775 0.14304022 0.00091313315 -0.14840966 0.010102889 0.21911137 0.051001675 -0.1846542 0.10833307 -0.0020030537 0.21515602 0.00729663 0.059014298 0.03152763 0.18203273 0.0338344 0.04759751 0.1224303 0.08321138 0.105234854 0.05415459 0.050294843 0.17114966 0.09628245 0.06477953 0.014819847 -0.11605272 -0.020277526 0.014311618 -0.11233024 0.0030611646 0.17500062 -0.07965441 0.09109248 0.01643729 0.10623364 -0.08766545 -0.13099508 -0.004112622 -0.056776296 -0.09684361 -0.012618213 -0.09761966 -0.12775017 -0.14489043 -0.092359066 0.009625419 -0.05639505 -0.02235858 0.127115 -0.048828863 -0.008211376 0.08584928 0.006310869 0.02252135 0.074085884 0.0025840378 0.048604164 0.12551984 -0.12508221 0.013076416 0.04706291 0.11491097 0.004543701 -0.013818871 0.013918773 -0.10471692 -0.116327114 -0.01944913
problems 0.079705775 -0.06326765 0.07915348 -0.15711793 0.030144528 -0.0049133818 -0.02454022 -0.007609971 -0.15933113 -0.15423842 0.086725794 0.007537838 0.0019221018 -0.027800938 -0.037349 -0.023447089 0.04499127 0.021200156 0.016784472 -0.12823945 0.1052269 0.11731556 -0.028930401 -0.07123591 0.047028564 0.10350612 -0.0009979677 -0.1470777 0.02683693 0.029583031 -0.029308273 -0.030017922 0.015490724 -0.11276522 0.0022840719 -0.17248604 0.10433652 0.04287642 0.0013281414 0.030442953 0.03681818 0.10480808 -0.05353486 -0.100570224 -0.16678832 0.11188339 -0.019113084 -0.041709766 0.03326934 0.012911701 0.03850448 0.023642803 0.06388148 0.11740111 0.03683711 -0.03829075 0.12423732 0.06585675 -0.0051172115 0.12339378 0.16113013 -0.05289918 0.07466486 -0.03874937 0.07817913 -0.06501224 0.03817049 0.04683561 0.0569582 -0.10293531 -0.08381076 -0.0905467 0.11960651 -0.11298696 0.012390059 0.025351387 0.13469718 0.054295357 -0.028733544 0.023361722 -0.081578806 -0.0034846014 -0.028487032 -0.0012443294 0.041993376 -0.07466191 -0.031536177 0.101330854 -0.05168287 0.059539456 -0.032207925 0.014039087 0.06350253 0.12162343 -0.1660431 0.10607493 -0.032171313 0.022384299 -0.081252836 0.09189277
computational -0.024232185 -0.015489161 0.085241094 -0.05705144 0.080720305 0.20068212 -0.038278546 0.07392249 -0.098572776 0.07799753 0.103025265 -0.1627576 0.012887094 0.073663354 0.009151515 -0.13037197 0.19418034 0.11917633 0.19331832 -0.14782073 0.15393382 -0.1065459 0.040301748 -0.08351251 -0.14766313 0.07738016 -0.22132711 -0.08548898 -0.096133396 -0.22466585 0.053075373 0.12232646 0.05697724 0.02381407 0.059349217 0.1328184 -0.047284573 -0.08996866 0.03419581 0.011201194 -0.16202018 -0.057143454 0.094746165 -0.12978135 0.0059158197 0.09580702 -0.17965382 -0.07526988 -0.072385326 -0.0998888 -0.14407116 -0.08921818 -0.043247 -0.09384372 -0.1312257 -0.0032621284 0.23230585 0.1533998 0.1749373 0.13581544 0.13888949 -0.011890576 -0.0041396343 -0.115510195 -0.027772242 -0.03780018 -0.052260317 0.15144047 0.035996955 -0.07085402 0.13725989 0.072441176 -0.0855025 -0.11164716 -0.029809674 0.110665925 -0.0203774 -0.13828866 0.13253257 0.04793566 0.02859406 0.004786372 -0.04792528 -0.18521824 0.12730935 -0.061552733 -0.04673391 -0.057318687 0.0143244555 -0.1090354 -2.0380598e-05 -0.009037722 -0.2026161 -0.016219849 -0.15983455 0.110747024 -0.04458148 0.00077779195 0.07437869 -0.010468024
concepts 0.056751154 0.0063100755 -0.057816915 0.06093264 0.014160845 0.04528398 0.022898577 -0.006949245 -0.0006148891 -0.0065857815 -0.031798217 0.04482731 -0.03786423 -0.039084397 -0.024774646 -0.085053615 0.018260937 -0.022899365 -0.059727874 0.047105398 0.099803925 0.13889821 -0.01777132 -0.07394529 0.04115443 0.004532231 0.034426495 0.024524372 -0.04197448 -0.047333807 0.0028772373 0.022362804 0.011496531 0.09256565 0.07242372 0.04754634 -0.034329783 -0.062296394 0.061018445 -0.018189846 -0.03631312 -0.06049152 -0.02740043 0.0021397881 -0.050985776 -0.013904259 -0.014396982 -0.04043908 -0.005742786 0.008353935 0.040795088 0.05514952 0.013636571 -0.05583674 -0.083112784 -0.05477548 0.0025704678 0.022841616 -0.11792142 0.09609253 -0.023267752 -0.017526777 0.0050287726 -0.09416485 -0.08404023 0.056712855 0.011549442 0.13567406 0.018928858 0.0035714968 -0.075766444 0.046715416 0.048957344 -0.06616384 0.060715973 0.013405427 0.07206112 -0.0547545 -0.038999747 0.014173759 -0.039626036 0.011638352 -0.009828227 0.12633228 0.11281476 -0.05280229 0.052781176 0.03061741 -0.11291653 0.05178707 -0.010737211 0.05786857 -0.015080795 0.01031665 -0.11078493 0.058823217 -0.13365726 0.054389194 0.014998781 0.05119907
will 0.04772771 -0.14391473 -0.02287793 -0.025098471 0.12062346 0.025633834 0.052734487 -0.009793858 -0.098952904 0.08105897 -0.06777262 -0.066015124 -0.061623495 0.07177701 -0.015542806 -0.15795955 0.024947204 0.12791881 0.044796146 -0.03143921 0.12781827 0.14212503 -0.13373044 -0.15358159 -0.044006765 0.13786438 -0.0773785 0.102804884 -0.05433532 -0.09744715 0.13103254 0.10362213 -0.099107146 0.11784177 0.059324004 0.06748886 -0.060294118 -0.13768947 -0.0488281 -0.015479197 -0.13290402 0.120680906 0.049018968 -0.055381835 -0.055893537 -0.027945437 -0.0406859 0.13682535 0.06022736 -0.10980458 -0.047197033 -0.06254706 -0.03399088 -0.11580759 -0.006921543 0.03303997 0.031465627 -0.04667974 -0.005273518 0.09525116 0.03754069 0.08518726 -0.011223218 -0.20588428 -0.15495408 0.024053175 -0.13214646 0.083779275 0.11160603 0.13361028 0.11545547 -0.08359904 0.061696883 -0.113633655 0.10295921 0.063028194 -0.15154658 -0.02341051 -0.018371683 0.15961964 -0.04206019 0.18323183 -0.22166137 -0.1635945 0.16171426 -0.059352398 -0.07620479 0.07304722 -0.117434405 -0.13452674 0.1152188 0.09050315 -0.04407344 0.073794104 -0.09175919 0.04995965 -0.058582313 -0.015854085 -0.065184735 0.16631591
processor 0.087522425 -0.028209096 0.11736321 -0.06379212 0.09325476 0.13707948 0.10660526 0.02927302 -0.019575182 0.1315878 0.19090818 -0.16804527 -0.25681955 0.01433594 -0.08355653 -0.2054221 0.13756715 -0.064597346 0.05061788 -0.23045674 0.092928916 0.18563262 -0.09271079 -0.11584051 -0.002232936 0.24822736 0.07400471 0.084380195 -0.00819985 -0.115152285 0.076288946 0.11120477 -0.04602271 0.073903516 0.032332916 -0.050682172 -0.14331137 -0.2223377 -0.008671214 -0.065051615 -0.18191387 0.1285003 -0.18785378 -0.18392049 -0.071244225 -0.05900152 -0.036389783 -0.29249364 0.042226188 -0.03410715 -0.0145971505 -0.05322705 -0.10279248 -0.08463675 -0.115666874 -0.17077367 -0.00924214 0.16087948 -0.015113042 0.17528674 0.088078156 0.15152541 -0.049273003 -0.05316977 -0.08968991 -0.13285701 -0.01157037 0.119396955 0.19950144 0.13468139 0.11718699 -0.055677943 -0.11947362 -0.10880543 -0.009187741 0.0810979 0.0652258 -0.048679505 0.102869496 0.20942785 -0.054759573 0.095122926 -0.1309293 -0.08293399 0.10963611 -0.19110452 -0.055210732 0.16967778 -0.17394479 -0.0646966 0.004123431 0.22963558 -0.06536296 0.21106079 -0.16608179 0.07397612 -0.06607329 0.07726123 0.12381311 0.12674688
different -0.010414525 -0.15587355 0.03463461 -0.10965506 -0.0023959079 0.13098882 0.15237114 -0.079714425 -0.024804968 0.062415484 0.037309475 0.02665161 0.0029817317 -0.10862134 -0.0012871666 -0.07798297 0.043029036 -0.06321841 0.038759016 -0.12282469 -0.023773205 0.10104517 -0.01555808 -0.06425031 -0.026220502 0.14367618 0.014521373 -0.088118315 -0.023133121 -0.019058824 0.013182506 -0.07026577 0.12076743 0.034274288 -0.052172683 -0.0060801725 0.04683636 -0.08425688 -0.136444 -0.0013704614 -0.04894775 0.123464175 0.060114704 -0.0192766 -0.06873118 0.050871745 -0.09644999 -0.1408666 -0.010089868 -0.005440344 0.07395433 0.06827793 -0.0045210375 0.020171598 0.014032056 -0.02292412 0.049957424 -0.029308524 0.03852723 0.028985765 0.13128108 0.099105895 0.06315991 -0.018894134 -0.020577414 -0.033904675 0.023340825 -0.022781415 -0.03575519 -0.030468088 -0.049173824 0.011981707 -0.026757883 -0.042813893 -0.070738636 0.009382852 -0.06178825 -0.0136910435 0.034521982 -0.04713909 -0.09306442 0.04773715 -0.028877864 -0.07176134 -0.048326306 -0.07000704 0.021197902 0.04901633 -0.094161905 0.04413753 -0.066977754 -0.0140252765 -0.096950136 0.054766975 -0.09200103 0.036400132 -0.05337364 -0.05602718 0.08070891 0.006880847
including -0.06907828 -0.2411261 0.08372478 -0.19398916 0.16070168 0.08606312 0.28074646 0.31789055 -0.2611922 0.06157234 0.265078 -0.09223251 -0.119494595 0.19329578 -0.2238507 -0.0103014605 0.28954032 0.18012644 0.18963794 -0.33090112 0.13919747 0.22770436 -0.138659 -0.13345912 -0.14230716 0.17647786 -0.13626078 0.07885102 -0.03729876 -0.07695658 0.0883327 0.13099906 -0.20480661 0.07885581 0.17291291 -0.21990809 -0.10452829 -0.13595025 0.11253854 -0.31569502 -0.04283049 0.08700923 -0.26624015 -0.2519481 -0.25083858 -0.21555148 -0.08876554 -0.11372816 -0.14832817 0.07694602 0.0027473613 -0.09253991 -0.17821677 -0.0006089028 -0.08955003 -0.15281856 0.13126083 0.19075973 0.12703104 0.16761883 0.18700813 0.1755171 -0.18493423 -0.18862644 -0.1070697 -0.23318066 -0.13133489 0.20193967 0.08615852 0.043336943 -0.10634658 -0.2981699 -0.085928775 -0.17640285 0.22642867 0.13789068 -0.015650006 0.030527199 0.22845942 0.18686248 -0.18346548 0.14506994 -0.15773721 -0.17950478 0.19055514 -0.2000181 -0.1485582 0.14814009 -0.124470085 0.060402937 0.11720155 0.13114846 0.015869064 0.27803534 -0.12115849 0.20213123 -0.22484565 0.13629761 0.036544792 0.04544161
how -0.020327998 -0.06290169 0.1000663 -0.16336621 0.13566548 0.12453271 0.12813956 -0.005994075 -0.13435173 0.13938077 0.0943512 -0.054599375 -0.024890734 0.039757248 -0.08258081 -0.22950476 0.10365267 0.08266571 0.08497348 -0.13252592 0.15029377 0.03982438 -0.12564024 -0.17667021 -0.17638254 0.182183 -0.092890956 0.069612436 -0.13632144 -0.13596037 0.041865826 0.21868211 -0.14274353 0.18863168 0.18923838 0.00741919 -0.10002665 -0.16457893 0.16112553 -0.05198262 -0.06873485 0.21316996 -0.019656379 -0.10020242 0.024045058 0.025269961 -0.06391914 -0.051633094 -0.093932614 -0.1705124 -0.046048358 -0.11232537 -0.10155191 -0.093753465 -0.052371748 -0.045750376 0.0728178 -0.011908389 0.048847467 0.2016193 0.2252928 0.12759727 -0.0075118137 -0.185899 -0.13816538 -0.12216858 -0.102808885 0.0984999 0.09182561 0.13918886 0.17531565 -0.025821595 -0.03971461 -0.29293972 0.045174867 0.13654146 -0.11591831 0.021250485 -0.038991317 0.038518287 0.0047377953 0.13011271 -0.18314554 -0.27699453 0.06341655 -0.21724896 -0.045579795 0.11417428 -0.07088525 -0.07101508 0.12706752 0.036408678 -0.11058716 0.22036976 -0.20513329 0.2763206 -0.009646633 0.03219416 0.16644207 0.20733793
science -0.11041677 -0.025956742 -0.0313612 -0.08404898 -0.10498931 0.034004502 -0.039868835 -0.01926372 -0.018696763 0.08724722 0.07471217 0.039755117 0.04417227 0.061031267 -0.0037148003 0.020843409 0.010854874 -0.040934645 0.046474908 -0.014023124 0.06678459 0.05091633 0.02029482 0.10786965 -0.15579477 -0.0010931935 -0.07906076 -0.10211589 -0.0029250016 -0.04374692 -0.048671164 0.011957023 -0.012563243 0.05120156 0.042045068 0.16352539 -0.040950537 0.023764495 0.17234506 -0.0011011767 -0.22205812 -0.17008525 0.15853383 0.041183442 0.021370938 -0.008925823 -0.12294948 -0.041000094 -0.08729969 -0.08195586 -0.045903698 -0.042171683 0.023892079 -0.10925661 -0.17279792 -0.12432074 0.0759616 0.08690481 0.18713577 0.028055828 0.03908953 -0.1103367 -0.028518101 -0.02024541 -0.04058106 -0.085973054 -0.0008606142 0.003132511 -0.03036961 0.029648919 0.18489693 0.05204908 -0.17400748 -0.06803785 0.056248546 0.030239923 -0.1910678 0.030282285 0.037635963 0.03195326 0.11233705 -0.03510783 -0.040374696 0.017417055 -0.008506624 -0.06332367 -0.06411937 0.02856555 0.033771325 -0.10186969 -0.060545344 -0.059121758 -0.04652873 0.058331233 -0.028826216 -0.019955408 -0.09895096 0.07236493 0.13301721 -0.03646587
perform 0.012868769 -0.056584086 -0.06050453 -0.12089314 -0.00858043 -0.010866305 -0.013495299 0.054831807 -0.10173333 -0.01769192 0.036141213 -0.043755487 -0.06796603 -0.01648301 -0.01656996 0.005870445 0.023433892 -0.061902665 0.06320042 -0.13661252 0.07952793 0.017229786 0.05609048 -0.05304746 0.0126357 0.047473215 -0.10742457 -0.038255334 0.04829061 -0.038376577 0.022816116 0.060712136 0.04394867 0.03002231 0.004974814 0.026133394 0.002966113 -0.00947085 -0.017843686 -0.07220383 -0.019431176 -0.075476535 -0.027618585 -0.105222344 -0.08759044 -0.08236941 -0.087582976 -0.0349761 -0.038973007 0.040195063 -0.043911494 0.011635432 -0.035554763 -0.00012659468 -0.1015686 -0.03587608 0.07050804 0.053637456 0.011488298 0.0023087938 0.07636455 0.0003492402 0.012840771 0.009705655 -0.018496443 -0.060042698 -0.053709406 0.052966032 -0.04919807 -0.014402149 0.004022647 -0.034379635 0.014320712 -0.036311854 0.10069297 0.11323341 0.0924472 0.005953233 -0.07388008 -0.014305561 -0.07145347 0.031705517 -0.020693384 -0.05621193 0.03746075 0.028481046 -0.028739126 0.022667887 0.0069355206 -0.036016576 0.0073488615 0.026326027 -0.064823896 0.07608865 -0.036349878 0.12707762 -0.057753637 0.0048006102 0.040309798 -0.02104567
use -0.039183177 -0.09877954 -0.045372885 -0.07274507 -0.063663706 0.005468656 0.045782924 0.015705904 -0.027876103 0.08198274 0.06653565 0.0001054469 -0.029764282 0.076672256 -0.039526377 -0.12834397 0.004907754 0.04517645 -0.012220219 -0.12172543 0.100079685 0.08240073 -0.0155205745 -0.03267096 -0.09455228 0.09712401 -0.12019373 -0.13093351 -0.12928866 0.043667737 -0.013485268 0.052907046 -0.03893863 -0.022659075 -0.056629285 -0.03197707 0.010721244 -0.016341697 0.10615557 0.039058488 -0.14041716 0.019336563 0.03504475 -0.034869093 -0.10513981 -0.081893325 -0.07798263 0.053292014 -0.07465136 -0.08312098 -0.018442595 0.014921958 0.03775904 -0.006277977 -0.041608654 0.004728749 0.17136312 0.0074483147 0.0862563 0.10354217 0.05664729 0.010845902 -0.06072867 -0.03023652 0.014217259 -0.042370714 0.071937904 0.04459079 -0.00076387526 0.06805612 0.107885264 0.08292858 -0.04520452 -0.048835173 0.13707058 0.020430414 -0.06343118 -0.054466847 0.09777221 0.057689164 -0.09818535 0.094728604 -0.0056558084 -0.15082853 -0.005115566 -0.066874966 -0.050753355 0.12137501 -0.017751077 -0.01509233 0.039205603 0.054295354 -0.06253801 0.13433453 -0.1271394 0.11870911 -0.14024538 0.1198199 0.16725829 0.10764586
analyze -0.014845027 -0.028622631 -0.06591412 0.030512214 -0.03720699 0.056909535 0.10095313 -0.04554887 0.012852172 0.032657363 0.028411526 -0.014319944 0.0762412 -0.06873899 -0.04350657 -0.18195924 -0.059745204 -0.012840223 -0.079106316 0.021159962 0.009601432 0.030558456 -0.03304088 -0.14761955 0.049110904 0.051095612 -0.079728365 0.03352658 0.0099007245 -0.013994287 0.18281099 0.033145986 -0.030466598 0.14996931 -0.04319143 0.0064744297 0.02242298 -0.016425852 -0.038293023 0.0033142492 -0.032459054 0.036331683 -0.08359359 0.033489507 0.03818101 0.022031942 -0.0498857 0.042879675 0.09238747 -0.053916026 0.05566702 0.008665899 0.12320599 -0.010854998 -0.01739821 0.03696391 0.019140322 -0.026618179 0.040954437 -0.027316682 -0.06353324 0.011505089 0.03498866 -0.120517716 -0.068465 0.057100542 0.111188255 0.047758628 -0.067397565 0.14171004 0.06558647 0.0053017363 -0.054569535 0.021035153 0.011161887 -0.0720745 -0.06095877 -0.030446142 -0.054752417 0.01609988 0.08735174 0.12848721 -0.042475346 -0.018911887 -0.022452805 0.077992864 -0.0811346 0.04842923 0.0034656671 0.003108523 -0.051682852 0.08570977 -0.031921063 -0.016424133 0.021832364 0.0672744 -0.01628029 -0.040330295 0.019819617 0.1505939
identify -0.048463423 -0.015226451 0.027538411 -0.04657565 0.100706674 0.049240973 0.06304701 -0.015453934 -0.014608171 0.04398586 -0.028133184 -0.07078361 -0.05369637 -0.009283953 -0.025489686 -0.101941355 0.06527366 -0.039484598 0.036550663 -0.0035154552 0.039936595 0.0694907 -0.020628922 -0.12397148 -0.06677778 0.052412596 -0.092218146 0.08957201 0.0067473203 0.0078581115 0.019890891 -0.03636677 -0.020438006 0.09054208 -0.010103389 -0.04766546 0.008072253 -0.1732663 0.014944232 -0.077815816 0.024780769 0.06902887 -0.06898657 -0.029228074 -0.053352892 -0.013084707 -0.05630168 0.015273332 -0.0028943988 -0.028697312 -0.011552684 -0.068276666 -0.019831749 -0.0014597205 -0.024850111 0.012531013 0.043535173 -0.040262766 0.0014440289 0.00859511 -0.010243835 0.091705225 -0.064794935 -0.085654214 -0.12202635 -0.00029195278 -0.0034382658 0.059391517 0.03308556 0.0930261 -0.0009986068 -0.024529448 0.10048812 -0.026199305 -0.038183372 0.022138767 0.018562363 0.04258414 -0.032277733 0.00082030776 -0.07021254 0.060377188 -0.08365967 -0.03904115 0.12682359 -0.008591229 -0.021063304 0.11033572 -0.046015702 -0.006490971 0.06215089 0.079933785 -0.07396372 0.0033969563 -0.056659896 -0.05424614 -0.12700586 -0.014293878 0.034013715 0.08256133
have 0.06612707 -0.049411424 0.13325259 0.10739337 -0.00023157476 -0.07680461 0.07002704 0.16802701 -0.03966828 -0.04112691 -0.048554387 -0.001575384 0.075537376 0.077515215 -0.08962918 0.02595349 0.08764214 0.10227809 0.07706856 -0.027801732 0.013551767 0.06391997 -0.14295441 0.12478702 0.014261271 -0.113163166 -0.07391446 0.037233327 0.05667716 -0.048591472 0.059786234 -0.0002594064 -0.0114577245 -0.018705603 0.028690048 -0.038885318 0.0028784482 0.033341654 0.00583441 -0.27994356 0.066818446 -0.053426474 0.014373795 -0.1091681 -0.1619794 -0.030604443 -0.039573845 -0.08924364 -0.06458342 0.006316355 0.008524295 0.1091675 -0.12414738 -0.0060575674 0.12862374 0.12474149 -0.027858384 0.16388959 -0.03289328 -0.10194457 0.12376203 -0.069058366 -0.13546602 0.052048266 0.09920061 -0.039902166 -0.06944525 0.0024183744 0.005577478 -0.033693973 0.041123115 -0.12611905 0.07910909 0.04294515 0.12407232 0.019869406 0.042321686 -0.0020573535 0.15279935 -0.003420296 -0.22340992 -0.00874846 0.117670156 0.061099052 -0.12906627 0.05931476 -0.0364145 -0.065415226 -0.17339112 0.076329865 -0.011620109 0.02846662 -0.005933777 0.017904757 0.10011385 -0.12803462 -0.09122247 0.050024237 -0.077629 -0.09985944
software 0.11491113 -0.14441146 -0.011499637 -0.019780355 0.016768603 0.079320766 0.124599695 -0.06904928 0.009771557 0.058276203 0.06499502 0.07404673 0.027158244 -0.06528905 0.015438815 -0.018128281 0.064851895 -0.062230892 -0.013541774 -0.06576665 -0.08122187 0.09440251 -0.081140906 -0.0821201 0.04134278 0.0037492923 0.10790987 0.18300125 0.0146270385 0.03362247 -0.10431786 -0.008207728 0.06824177 -0.011093839 -0.029619493 -0.06686398 0.027044231 0.07905434 -0.058982648 -0.044611916 -0.030945094 0.11254028 -0.083144315 -0.19486216 -0.12578045 0.058012404 0.08292751 -0.061861694 0.07197163 0.13839145 0.07502646 0.10868134 -0.0049732523 0.0848719 0.027808426 0.06690212 0.079727374 0.050262317 -0.06828278 0.03264464 -0.0073064803 0.011691773 0.024376202 -0.12366338 0.006643355 -0.06291402 0.13502595 0.05124515 -0.034203157 0.075328924 -0.080658115 -0.07342265 0.045538947 -0.08777048 0.013529897 -0.010624488 -0.07948953 0.016276216 0.009875622 0.0058501386 -0.044166658 -0.0299884 -0.011401543 -0.018479215 0.026970495 0.0076277973 -0.011727597 -0.028496282 -0.011039935 0.08776984 -0.12092394 0.022618743 0.10780085 0.0027848966 -0.00613838 -0.009832608 0.0023715417 0.013382017 0.06691102 -0.083109476
various 0.018671734 -0.14354011 0.046167344 0.012712106 0.048275802 0.030821275 0.1644676 0.12171687 -0.19817218 -0.039746903 0.021088464 0.0042474424 -0.052775875 0.02938933 -0.13392796 -0.020553175 0.044776976 0.029591892 0.053724416 -0.10899643 0.0788034 0.16190636 -0.22871307 -0.2380892 0.12889004 0.17411752 0.022387646 0.09098713 0.04633892 0.048612155 0.073723786 0.08731122 -0.0370582 0.08885033 0.049113967 -0.15335697 -0.0383946 -0.11486856 0.037247535 -0.17934464 0.089937046 0.087677196 -0.12670006 -0.13875993 -0.24787663 -0.01589408 0.0827348 0.045614462 -0.031275976 0.14196678 0.034294635 -0.11486596 -0.10779669 0.022057397 -0.018596409 -0.026644789 -0.05712036 -0.004443416 -0.032002963 0.11930726 0.08983381 0.197401 -0.09897948 -0.07012428 -0.09994682 -0.042921834 -0.056403305 0.14809175 0.12084924 0.15093036 -0.14958505 -0.1654627 0.012501783 -0.11679462 -0.019699883 0.13970467 0.031609338 0.11866022 -0.0356846 0.11613027 -0.08635057 0.09271876 -0.17673077 -0.07241456 -3.0851224e-06 -0.02460905 -0.14180517 0.21705696 -0.17432074 0.102747485 -0.00356986 0.11904866 0.023950981 0.1039659 -0.065173045 0.10884249 -0.17167248 0.0129287 -0.09910083 0.05426124
explain 0.15038154 -0.0064195935 -0.014264225 0.07183826 -0.062695794 -0.055731237 0.009523694 -0.0700355 0.13088386 -0.1340027 -0.120645724 0.11730743 0.035250094 -0.10726799 0.0019488794 -0.07818172 -0.076464154 -0.1494041 -0.081583746 0.113353014 0.021716846 0.032019917 -0.036157936 0.0016423601 0.12974307 0.10962888 0.07241081 0.12089054 0.11933342 0.07716944 0.05657016 -0.108981244 0.06755469 0.004921547 -0.17937869 -0.044861726 0.021544753 -0.04695177 -0.10205634 -0.011460106 0.0797314 -0.012812013 -0.037128635 0.115943454 0.058703832 0.06640753 0.15613568 0.05940301 0.12263968 0.052146737 0.039576463 0.08057039 0.07948351 0.010907859 0.02642154 0.034201153 -0.15445484 -0.05517992 -0.12973815 -0.11387705 -0.10849137 -0.014348129 0.0057057696 -0.036659554 -0.0046166773 0.14703703 0.068658695 -0.04508378 -0.08377738 0.05614654 -0.050773837 -0.018193785 0.1448651 0.080683045 -0.1481997 -0.19010156 -0.0056264894 0.050450798 -0.15526019 0.017884094 -0.029969545 -0.023691941 -0.029246088 0.03299786 -0.10148294 0.06073454 0.022702128 0.034815867 -0.05304004 -0.007648916 0.011626293 0.07403447 0.0866854 -0.14231715 0.0838194 -0.15870333 -0.080184735 -0.056957193 -0.04457623 0.020792868
power -0.027710045 -0.2028467 0.12465849 -0.033194643 0.099003606 0.022335125 0.17648059 0.23882493 -0.25897187 -0.021429937 0.13550057 -0.14423402 -0.13434118 0.028343545 -0.21421598 -0.036525134 0.13216077 0.027525254 0.0751547 -0.11420049 0.0063570514 0.2677028 -0.2381428 -0.18018247 -0.02767997 0.17288268 0.0422247 0.03585035 -0.06359954 0.00765173 0.16142544 0.09391537 -0.22190256 0.09455822 0.0686554 -0.23043102 -0.14838894 -0.16642185 0.01448479 -0.33159065 -0.008657852 0.084620826 -0.11652751 -0.106393315 -0.15976755 -0.21286735 -0.01863297 0.051070984 -0.09146869 0.065832734 -0.013991687 -0.01049866 -0.18904832 -0.04253146 0.030632796 -0.14810763 0.0053895027 0.11429183 0.0033212113 0.051926322 0.14526004 0.23492359 -0.20584746 -0.14386469 -0.060534 -0.11526003 -0.08391279 0.19669239 0.15271862 0.13507475 -0.060819708 -0.20949903 -0.09188632 0.03625463 0.13168612 0.14428034 -0.00798196 0.013985762 0.08435105 0.09400261 -0.04900633 0.14777704 -0.1538072 -0.09606766 -0.028607493 -0.13323817 -0.14304996 0.16440183 -0.34518787 -0.013477337 0.10499337 0.27740586 -0.1292037 0.11960353 0.009996455 -0.015874466 -0.2470552 0.040324952 -0.028686753 0.06555347
between 0.020868296 -0.24802421 -0.0061204513 -0.064561516 0.03212208 0.12471605 0.20590378 -0.022529144 -0.039116587 0.01029822 0.024972394 -0.027993737 0.055496905 0.0047586984 -0.15987177 -0.22018974 -0.09814167 -0.003169669 0.02944262 -0.0466833 0.10585354 0.14006521 -0.17711712 -0.14696829 0.01623644 0.112483606 0.039991755 0.12185055 -0.03965801 0.06313023 0.27961856 0.063947104 -0.19452819 0.0964691 0.05498638 -0.020774774 -0.025565559 -0.15664078 0.10113003 -0.11049137 0.0726983 0.0714168 -0.14007387 0.013837654 -0.014257126 -0.1170895 0.063233756 0.18851449 -0.079478376 -0.08072893 -0.037450634 -0.057074822 -0.027624853 -0.02006853 -0.0822466 -0.002131571 -0.06002166 0.0094442135 -0.016239362 -0.011504301 0.061476737 0.04213855 -0.10455014 -0.1974991 -0.11206768 0.04395987 -0.0034983791 0.10417957 0.014772599 0.1286696 -0.005317497 -0.09465794 -0.019596271 -0.1403398 0.060582835 0.0031500764 -0.097534776 0.012694198 -0.08975248 0.007405402 -0.02590142 0.14765283 -0.12492477 -0.030073008 -0.06577139 0.016640507 -0.03830328 0.18217285 -0.052694134 -0.03451672 0.044117913 0.066165105 0.01449398 0.08420911 -0.01364082 0.054332152 -0.050832532 0.03797786 0.117711924 0.2200093
process -0.10066366 0.025596669 0.036665544 -0.11109421 0.10258781 0.110715434 0.066476755 0.110017754 -0.11929735 0.08112272 0.13813153 -0.10538881 -0.12526691 -0.015914666 -0.21363474 -0.13645574 0.09415193 0.082469776 0.027088262 -0.033945777 0.15415642 -0.049849205 0.08880823 0.012371087 -0.13140984 0.07942388 0.030473374 0.121604465 -0.1437868 -0.023137197 0.16234073 0.09724818 -0.21265608 0.21442552 0.178171 0.08773652 -0.08863638 -0.16562122 0.22992198 -0.049176756 -0.12875953 0.02229062 0.050769143 -0.021908134 0.071524575 -0.13669427 -0.11394258 -0.09777814 -0.1736313 -0.08405966 -0.07103087 -0.05565454 -0.107099466 -0.15550558 -0.06328391 -0.20994034 0.05405699 0.056853548 0.07289276 0.08122337 0.060666088 0.061052904 -0.042556018 -0.13401955 -0.04250141 0.03422993 -0.061377395 0.049729332 0.06747698 0.13545644 0.1467223 0.01522166 0.013946479 -0.11185411 0.076371044 0.014501437 -0.043842852 -0.009609131 -0.012196975 0.021865025 -0.077316955 -0.015293349 0.034731384 -0.16872936 0.008257023 -0.16935222 0.04756745 -0.007585196 -0.10054439 -0.11230165 0.30529842 0.029261006 -0.033740334 0.10684438 0.024493901 0.039801724 -0.009415222 0.08833864 0.2342664 0.07489917
evaluate 0.062297568 -0.049683135 -0.118805826 -0.05055418 -0.021129513 0.09603479 0.039608933 -0.058700047 0.002081459 -0.081717074 0.0033970124 0.07771138 0.0056330487 0.0070632976 -0.053061582 -0.13441356 -0.039488323 -0.015391929 -0.036526665 -0.06421301 0.04368349 0.09304776 0.043500073 -0.0739183 0.09588563 0.06683336 0.03969735 0.06701604 0.07981937 0.02753409 0.082378015 -0.02482524 0.022132397 0.070561185 0.032900397 -0.04556868 0.08775662 -0.11246314 -0.024971552 -0.0634662 0.027144311 -0.004664711 -0.06575161 -0.0012851327 0.050870292 -0.05653294 0.007316095 0.067275174 0.024844853 -0.031442128 0.09962096 0.045557756 0.00450762 0.039120097 0.042269647 0.0646406 -0.05782161 -0.041684784 -0.011882949 0.002467498 -0.00048457133 0.061337657 0.001080649 -0.07504887 -0.0053256964 0.084475905 -0.00950963 0.03669599 -0.027496621 0.023136694 -0.10188257 -0.028125685 0.04638435 -0.09023276 -0.006843878 -0.019289305 -0.09910543 0.009074662 -0.054513607 0.008158011 0.022698484 0.05248932 -0.048691444 -0.08500079 0.015506068 0.019647142 -0.011559773 0.090234466 -0.031714372 0.016655 0.06739695 0.060755573 0.033661537 0.10188025 -0.049257744 -0.02459316 -0.06400606 -0.044397365 0.062450543 0.16680406
by -0.05851992 -0.2938655 0.120046355 -0.05484987 0.06282904 0.11866547 0.29278794 0.18643983 -0.20566799 0.029708518 0.012334164 -0.1411687 -0.12452311 0.06615889 -0.23803686 -0.22140433 0.078714736 0.1137335 0.04583552 -0.07249961 0.18227251 0.27310625 -0.24684635 -0.25518996 0.10658917 0.313059 -0.057924837 0.26771268 -0.13366032 0.0427763 0.25650668 0.10766633 -0.18144232 0.27485722 0.072704874 -0.20556302 -0.03615859 -0.26541656 0.12555271 -0.24806559 -0.049730457 -0.0144664645 -0.258622 -0.14112142 -0.14630656 -0.19486113 -0.03907306 0.08686487 -0.10996084 -0.05615449 -0.081620194 -0.1353038 -0.12397942 -0.18294123 -0.02366794 -0.09105012 -0.08063409 0.02742539 0.068682544 0.08437838 0.18734117 0.21571563 -0.26890963 -0.23920146 -0.21016484 -0.14269161 -0.23726143 0.1971454 0.24650328 0.2763133 -0.044722088 -0.24635716 -0.07065513 -0.18447863 0.09221508 0.12991457 -0.12011476 0.04021073 0.04758502 0.14522524 -0.14576253 0.23870195 -0.21290916 -0.14680792 0.06971444 -0.116839685 -0.11675857 0.30254596 -0.27717245 0.036376398 0.18027559 0.18202515 -0.07283292 0.13905479 0.009919128 0.108705886 -0.2690193 0.0943579 0.017023556 0.3625844
based -0.031242954 -0.19008721 -0.032008793 -0.17162137 0.03229541 0.09596803 0.10848275 0.041495644 -0.13231717 0.09094771 0.06790268 -0.027387349 -0.0983473 0.05694569 -0.1526542 -0.10607157 0.057798684 0.08663899 0.012176816 -0.05461693 0.14937364 0.1126981 -0.06853925 -0.18544705 0.052998636 0.18760341 0.009865503 0.17066252 -0.061769266 -0.06925504 0.07144518 0.08328467 -0.18035391 0.17860545 0.10629256 -0.100769155 -0.07817066 -0.17453189 0.08061798 -0.16130754 0.0072017894 0.10696714 -0.07640432 0.012031862 -0.072789185 -0.07229575 -0.05346037 0.032633618 -0.12741126 0.01712585 -0.034239527 -0.025182333 -0.02041215 0.021199998 0.014188809 -0.052050594 0.074119434 -0.035942614 -0.024314921 0.018417794 0.07420307 0.098090395 -0.07721879 -0.14754896 -0.07889069 -0.1558353 -0.07304819 0.13226683 0.14807051 0.18582554 0.007439181 -0.06933761 -0.023629386 -0.13550131 0.048766017 0.07886246 -0.10588802 -0.113936424 0.06569009 0.09076491 0.036190588 0.047736768 -0.103325814 -0.13234873 0.021975223 -0.079293475 -0.07025959 0.08609911 -0.02100845 0.045787934 0.10419071 0.14354664 0.05303542 0.08151037 -0.090865724 0.07801045 -0.113259435 -0.06832647 0.089148864 0.17726818
level -0.22836778 0.087348655 0.12150285 -0.15237837 0.15382564 0.034551118 0.10301322 0.10049219 -0.021527326 0.15913302 0.14523496 -0.18457724 -0.12160336 0.2158738 -0.068619885 -0.021206772 0.16788508 0.12109981 0.19821331 -0.13331379 0.1493973 0.115610175 0.0033384638 0.025348345 -0.26520947 0.14823054 -0.1734098 -0.023074811 -0.113564044 -0.13009335 0.04056195 0.21800967 -0.12380915 0.21913956 0.05774583 0.12609817 -0.18180637 -0.08449215 0.11314424 -0.11574681 -0.17436177 0.023830134 0.083355635 0.0026342452 -0.12612179 -0.19544688 -0.19098428 -0.17542386 -0.20507331 -0.16367581 -0.15398054 -0.12273949 -0.096732244 -0.20647655 -0.17843194 -0.22043216 0.20149256 0.20642069 0.2635881 0.13701668 0.100714214 0.023378277 -0.06917425 -0.098489136 -0.18820803 -0.14457819 -0.097458914 0.0651423 0.07907197 0.15897568 0.20061393 0.18621615 -0.25670445 -0.14885345 0.26492092 0.15980121 -0.051873785 -0.1736041 0.10184343 0.118540175 -0.027383368 0.057075433 -0.06296169 -0.115799956 0.17512518 -0.1908408 -0.22571062 0.082002245 0.037044052 -0.2063912 0.15408283 0.13910857 -0.25451642 0.11989828 -0.20424905 0.12245362 -0.10802317 0.16742541 0.22266714 0.09096266
structure 0.00047459162 0.11407046 -0.17274073 -0.053252555 -0.0064962525 0.01868165 -0.004457688 -0.017230725 0.09438717 0.015461773 0.046795286 0.1575929 0.044926975 -0.0535573 0.047989283 0.05561464 -0.20897053 -0.008030221 -0.018212846 0.110379525 -0.025253177 0.0074691763 0.2296717 0.09369095 -0.055412613 0.0011790255 -0.04722493 -0.14448407 0.010847189 -0.046636414 -0.025790464 -0.062603496 0.018938731 -0.1105393 -0.09468821 0.14132296 0.015769752 0.027917758 0.07740251 0.03009854 -0.09501474 -0.1282478 0.13409594 0.17886966 0.100482084 -0.046553753 -0.1011185 -0.09720798 0.02249203 -0.0141594205 -0.058546558 0.07203507 0.14063002 -0.02853164 -0.10347336 0.03171939 0.05602208 -0.017522909 0.085878156 -0.0048544263 -0.1472811 -0.07545542 0.11917207 0.13762581 0.04915988 0.10201997 0.003437742 -0.14880565 -0.13488261 -0.031993244 0.11358 0.15761566 -0.051259045 0.058175914 0.0662767 -0.033701126 -0.1454895 -0.13636054 0.016980322 -0.05523441 0.15986991 -0.08443922 -0.006422219 0.17964704 -0.08039676 0.055935584 -0.055753738 0.06433177 0.000706611 -0.09159904 0.02183255 -0.034766838 -0.045927525 -0.08168792 0.019478595 0.030754779 0.012017839 0.078266844 0.18679638 -0.053087264
its -0.13325861 -0.06165017 0.07980266 -0.092244424 0.048931208 0.039764524 0.08155132 0.014129164 0.004769453 0.13012697 -0.020702066 -0.10532316 0.040849958 0.11417202 -0.062288802 -0.12228107 0.13971601 0.0781241 0.039972108 -0.020697005 0.08487594 0.03824366 -0.111154206 -0.14062865 -0.16517432 0.064227685 -0.04222711 0.07744379 -0.12227173 -0.08424099 0.07415722 0.021259857 -0.09384749 0.19309899 0.045688022 0.0707511 -0.1524694 -0.030822134 -7.112854e-05 0.03554356 -0.09589079 0.19803317 -0.08355755 -0.026273837 -0.11580742 0.027336746 -0.043289572 0.0151516 -0.03142565 -0.104436696 -0.13203742 -0.0062289033 -0.04201382 -0.08500027 -0.13592495 -0.064326845 -0.01881431 0.06542364 0.10701899 0.00438038 -0.030307047 0.060956754 -0.043855507 -0.20126832 -0.2107487 -0.115580186 -0.0580384 0.10294256 0.1440766 0.14388189 0.09824199 0.0039997958 -0.09470313 -0.2120695 0.027748419 -0.065524004 -0.042293303 -0.004332944 0.02612985 0.06983867 -0.0046060565 0.2030812 -0.11539772 -0.08916813 0.07216528 -0.06990309 -0.06415587 0.08908484 -0.0729277 -0.061656624 0.07053548 0.18943477 -0.05600521 0.060290184 -0.033808153 0.00021941902 -0.09434407 0.041164897 0.040567726 0.14088207
project 0.05121304 0.122787185 0.091019206 0.07332553 0.14087388 -0.08984601 0.031273376 -0.014712642 0.13332872 0.0048828386 -0.14080164 0.023234406 -0.033589505 -0.049137603 0.09778509 0.1366398 0.052096844 -0.010261837 0.06782383 0.09500631 -0.025222048 -0.0009240826 0.07296425 0.05727709 0.07963372 -0.08006467 0.031314213 0.07165245 0.095025584 -0.13147627 -0.089832745 0.042052187 0.044593304 -0.017367817 -0.018112384 0.04639041 0.0625068 -0.046706352 0.029033868 0.061781336 -0.07553714 0.018199801 0.050806943 -0.03577128 0.054575417 0.0801401 -0.023762763 -0.21832576 0.11278818 0.02319357 0.06676906 -0.025589867 -0.017629953 -0.048397385 -0.053657733 0.083262265 -0.009498057 0.05752376 -0.08637318 -0.059804916 -0.10082393 -0.0420837 -0.022530831 0.042469107 0.023630043 0.13750832 -6.249081e-05 -0.077253334 0.0593491 -0.050877422 0.059836946 0.06575331 -0.05493128 0.12354375 0.0026860763 -0.061019514 -0.033977672 -0.06299773 0.049104635 -0.0009139732 0.029950742 -0.03800048 0.038461696 0.15759043 -0.009685151 0.04721349 -0.0053225644 -0.06323468 -0.011623483 -0.08868998 -0.010560859 -0.081269 -0.07335836 -0.1311925 0.037494093 -0.11796353 0.09768057 0.13272901 -0.10622314 -0.03480746
determine 0.036036987 -0.028050948 -0.044398956 0.049592823 -0.042461455 -0.06712773 0.12519057 0.047452483 0.048229333 -0.05462417 -0.022448119 0.042788297 0.123732045 -0.0667311 -0.06179341 -0.0882437 -0.044646226 -0.08391828 -0.13076156 0.074770436 -0.0041772504 0.040611267 -0.08623209 0.0027098767 0.099473044 0.12550691 0.108810164 0.15541136 0.043577366 0.07228252 0.08027052 -0.0101353405 -0.09484715 0.07563062 -0.07644064 -0.05780588 0.06401585 -0.077614136 0.035326146 -0.1307907 0.07254962 -0.014475798 0.016914703 -0.0068547325 0.051066782 0.039746873 0.054189485 0.14049794 -0.012471004 -0.010910492 0.04683239 0.007477025 0.071024865 0.036430646 0.14284459 0.08449255 -4.040776e-05 -0.07356752 0.011606008 -0.04387555 -0.04448069 -0.059896752 -0.08383418 -0.05540034 0.065889776 0.021224415 0.03602175 -0.022600878 -0.05900994 0.06437995 -0.122777194 -0.1412022 0.026984945 0.056482285 -0.06786222 -0.04606782 0.040417206 0.064742535 -0.04653644 -0.079556845 -0.07718726 0.056591064 0.03724009 0.02717903 -0.04511865 0.10507659 0.034943607 -0.0398101 -0.12176846 0.14267907 0.019332236 -0.014857231 0.044604372 -0.05802811 0.08388608 -0.07051447 -0.060897578 -0.040445685 -0.0772164 0.0059813904
models -0.10808516 -0.071814634 0.0640228 -0.18473835 0.120081015 0.26865482 0.06701527 0.04069352 -0.118367985 0.09981629 0.19685408 -0.067728914 -0.11078635 0.1254816 -0.14322941 -0.028008947 0.14565706 0.072476774 0.15299086 -0.17540677 0.23724727 0.10143582 0.028600015 -0.08941894 -0.21601403 0.13637252 -0.100101314 -0.08545239 -0.1839273 -0.14739962 0.022957396 0.14547281 -0.010830232 0.078471795 0.088361554 0.03209503 0.024058543 -0.06604468 0.02501567 -0.044883423 -0.1295778 0.073767446 0.08243753 -0.037734676 -0.09925247 -0.102483094 -0.18132679 -0.1757977 -0.11248797 -0.12079348 -0.021551436 -0.103553005 -0.13603708 -0.025137883 -0.09695489 -0.051618937 0.23264983 0.05676416 0.11686919 0.15641595 0.10995977 0.05945223 0.00075702235 -0.1257319 -0.09289901 -0.148306 -0.091055594 0.1610454 -0.041098323 -0.030048832 0.17920269 0.05209186 -0.12496514 -0.15565135 0.089510806 0.09949344 -0.0050649256 -0.057401452 0.1525759 -0.041122556 -0.025323171 0.0549717 -0.019135175 -0.27592313 0.03415213 -0.2976203 -0.0306814 -0.029673265 -0.04220249 -0.18469626 0.096253015 -0.011952897 -0.19026539 0.13691187 -0.24357389 0.20484816 -0.042783055 0.06894255 0.22001013 0.10966887
techniques -0.12508595 -0.064922094 -0.021859812 -0.0043633343 0.030141558 0.13590263 0.17391513 -0.020562068 -0.028457087 0.08694928 0.00947263 0.017504126 -0.119294025 0.07963189 -0.11181069 -0.17956267 -0.08801178 0.021894526 -0.041559234 -0.035876352 0.11145012 0.1289776 -0.13628767 -0.19390164 0.026667688 0.1608164 -0.060770627 0.23803058 -0.046250425 -0.058435686 0.119652696 0.04999843 -0.08867427 0.22946951 0.00883641 -0.08737054 -0.14094114 -0.22260681 0.020815494 -0.10629867 -0.03528451 0.0047406596 -0.094740614 -0.03665513 -0.062018476 -0.029770765 -0.11802382 0.02860787 -0.033926137 -0.0322462 -0.073783904 -0.078972965 -0.016232993 -0.080887884 0.03218335 -0.0123870205 0.01639973 -0.04081682 0.07855434 0.035858154 0.03599419 0.11423813 0.032494158 -0.19349061 -0.17567316 -0.07235817 -0.033473153 0.03824432 0.12747245 0.13204165 -0.013478587 0.024040896 -0.04655909 -0.1365728 0.009487161 0.011793652 -0.14056432 -0.045477655 0.00091903564 0.15410851 0.04017868 0.062223792 -0.21878311 -0.046199206 0.067215845 -0.109252356 -0.12604395 0.037389457 -0.13412948 -0.123831145 -0.029233824 0.12349621 -0.104806595 0.107114665 -0.078585416 0.09399766 -0.07964217 -0.015098135 -0.055027537 0.13301218
learning -0.11397338 -0.1872561 -0.014332712 -0.059279643 -0.07747665 0.123482525 0.16434073 0.09761472 -0.055635203 0.05127453 -0.029961295 -0.11918456 -0.08164492 -0.0018709773 -0.02491386 -0.24639907 -0.050859097 0.07481042 -0.037159946 -0.13118304 -0.006664326 0.15641491 -0.17402162 -0.12849307 -0.03924126 0.10229021 -0.01829261 0.2222697 -0.12324123 0.092342936 0.08550419 0.06305691 -0.086495854 0.24060912 0.02799214 -0.025577938 -0.16390976 -0.11627063 0.047991905 -0.104108654 -0.06350527 0.063757114 -0.030185428 0.04496313 -0.0855274 -0.061258662 0.0017410626 0.030337978 -0.033415012 0.008827502 -0.0942511 -0.092022836 -0.071222045 -0.041592848 -0.027347451 -0.028166559 -0.019229801 -0.044277772 0.07133408 -0.06359793 0.103616156 0.1433555 -0.02397488 -0.17852274 -0.21605301 -0.088576764 0.010358119 0.07101306 0.085235305 0.16832262 0.08571757 -0.032411177 -0.105924554 -0.10269338 -0.002740301 0.034644857 -0.07221353 0.060220875 0.01602658 0.14617212 0.038206786 0.15058143 -0.17771764 -0.020946713 0.095428936 -0.040437922 -0.11747912 0.0881947 -0.080469154 -0.06447846 -0.008272795 0.2317582 0.0068116426 0.06735225 -0.01563255 0.1179332 -0.08711066 -0.04716698 -0.09408077 0.2334081
cycle 0.14284277 0.015978528 0.04840472 0.057912968 0.029548772 0.059523948 -0.0580601 0.126356 0.086783476 -0.0736999 0.026868073 -0.0718214 0.03324052 -0.09635454 -0.019712886 -0.013223723 0.022808615 -0.15981352 0.033992022 -0.01842995 0.11568652 0.043205693 0.017212993 0.04666069 0.0880021 0.13194156 0.14363462 -0.0029221019 0.067122586 0.0879025 -0.0067713824 -0.027649334 -0.102574244 0.056712285 -0.0048059374 -0.07863222 0.041380603 -0.12757194 0.014912046 -0.07067267 0.0057764747 -0.09771736 -0.113195136 -0.04314782 -0.03905822 -0.11086334 0.039235458 -0.1321558 0.027850952 0.10779455 0.03680143 0.117340505 -0.03774901 -0.055810615 0.052129976 -0.08639291 -0.06980316 -0.055726957 -0.04658678 -0.0108618075 -0.0878409 0.049365982 -0.07867302 0.06434204 0.041619055 0.058460783 -0.013446234 0.02132482 0.014775765 -0.06723802 0.00240468 -0.030446498 0.017377956 0.07682879 -0.032235865 0.044762004 0.09047669 0.013866328 -0.017169422 -0.010095621 -0.12276331 -0.032719962 -0.059958078 -0.06360858 -0.022334648 -0.079132386 -0.0073304134 -0.020903816 -0.1179515 0.051833943 0.06806339 0.095842056 0.0037173391 0.00812558 -0.029648725 -0.054786317 0.0034229874 0.056341093 0.017580137 0.06748473
microcontrollers 0.03316831 -0.05784578 0.027428458 -0.033051472 -0.118526764 -0.06128202 0.12111927 -0.03722573 -0.019188883 -0.0022996804 -0.08097786 0.13436256 -0.006987936 -0.03333135 0.097646974 -0.02968045 -0.02832397 -0.046449814 -0.046682715 -0.003453224 -0.019029228 0.06171052 0.019725733 0.008440873 -0.06364736 -0.0359273 0.12504269 0.016184399 0.07617935 0.009022469 -0.07561723 -0.08555722 0.10525783 -0.061710227 -0.07584341 -0.048526637 0.0024821789 0.030225703 -0.04584802 0.009474545 -0.007410052 0.08065164 0.021493865 -0.07203041 0.03365139 0.088092364 0.03336652 0.038936324 0.03144158 0.105680585 0.018250631 0.03251525 0.071751595 0.005194821 0.05651904 0.11606531 0.04156042 -0.05298912 -0.055986043 0.013019153 -0.009256508 -0.07257904 0.14278705 0.042090263 0.030202232 0.010439498 0.13940272 -0.047094744 -0.045943804 -0.02508751 -0.047855034 -0.04257649 0.04515483 0.0038921454 -0.03016793 -0.10186662 0.018518802 0.02545941 -0.03332153 -0.025061518 0.05032622 -0.017549638 -0.0447881 0.12986685 -0.06931067 -0.0028177442 0.053936213 -0.009814124 -0.001149402 0.04685112 -0.10516431 0.017809963 0.054798957 0.025631282 0.032159604 -0.0021288027 0.07192046 -0.033427853 0.01251385 0.002285109
understanding -0.026160384 -0.056561325 0.1321539 -0.017043624 0.042504318 0.03051221 0.10971163 0.16841398 -0.075768024 0.04847701 -0.004062823 -0.036973517 0.024880117 0.09615769 -0.04221279 0.009847033 0.13279054 0.0884395 0.12735052 -0.0938837 -0.029839033 0.13359997 -0.0744833 0.082813255 -0.049624145 -0.078891374 -0.006515196 -0.02047067 0.005811792 -0.010647594 -0.010303809 -0.04101369 -0.028262567 0.024063384 0.009356641 -0.043419 -0.06456513 0.042563986 0.01978505 -0.111674905 -0.062050026 0.04983942 0.0671163 -0.12537763 -0.10151293 -0.033155836 -0.054530863 -0.108524255 -0.079367645 -0.00025630172 -0.020690368 -0.07196367 -0.12424426 0.029429391 0.008692637 0.02674062 0.08559252 0.10414017 0.10301162 0.028896052 0.16736412 0.046180427 -0.07712482 -0.06330125 0.018092915 -0.08602577 -0.045105033 0.020970015 -0.006499267 0.008567476 -0.04405446 -0.0883607 -0.08236179 -0.030633261 0.13020457 0.1304264 -0.06335897 -0.007340451 0.13639693 -0.027396278 -0.094851755 0.044263374 -0.043121897 0.00036541437 -0.012417483 -0.0031745331 -0.10607693 0.03271289 -0.06641744 -0.015377927 -0.01723413 0.060963415 -0.1340079 0.02162477 -0.024260942 0.052422646 -0.108048566 0.075314924 -0.012157207 -0.006454128
it -0.039300904 -0.09194855 0.05602585 0.030510657 0.17881416 0.037169453 0.007485059 -0.023405047 -0.056869265 0.071927525 0.047801837 -0.03495987 -0.09510101 -0.008116207 -0.021373704 -0.091035284 0.06046226 0.01159537 0.074115284 -0.09201651 0.11831165 0.11198781 -0.15629342 -0.014038118 -0.0954827 0.082454585 -0.03905728 0.061920434 -0.050395 -0.07437035 0.063498475 0.122044876 -0.060179222 0.16293226 0.05268786 -0.008353847 -0.08422819 -0.08386024 0.17787358 -0.11184116 -0.04098989 -0.003967532 -0.07797606 -0.026315615 0.0072837886 0.049305137 -0.047482476 -0.050457545 0.008074819 -0.098363124 -0.0196249 0.0285344 -0.12498802 -0.08036453 -0.052076403 0.003628326 0.046386458 0.056306593 0.01803936 0.08784719 0.037390333 0.08445121 -0.059920337 0.0032762329 -0.13970193 0.06401809 -0.0005832709 -0.016943956 -0.014142778 0.018222138 0.1490299 0.05920944 -0.025739212 -0.049822126 -0.017329762 -0.028710265 -0.10587065 -0.029209722 -0.018435378 0.036712658 0.03835567 0.05416924 -0.08006014 -0.12842752 -0.028814584 -0.047521107 -0.04751204 0.040099546 -0.05369329 -0.066351905 0.096744664 0.03843237 -0.047819756 0.017187921 -0.076797105 0.13277297 0.008196527 0.04047784 0.036714368 0.042095277
write 0.05599763 0.066794574 0.007853504 -0.019730043 -0.02390139 0.046056915 -0.05770096 -0.0006339799 -0.0007888516 0.044308487 0.105074614 -0.013067598 0.03179002 0.04730336 0.015361678 -0.0012883494 -0.123622976 -0.034701355 -0.0011551136 0.039110772 0.023522241 -0.008451709 0.037270967 -0.07246019 -0.036638822 0.04952884 -0.11297166 -0.10184015 0.059142012 -0.030143447 -0.05261502 0.018499352 0.000763849 -0.006634879 -0.011783895 4.9421564e-05 0.020972462 0.07003486 0.091188364 0.026765767 -0.1488124 -0.037379727 0.042832434 0.028314702 0.05765781 -0.07672599 -0.100832246 -0.07389218 0.019282507 -0.04401773 -0.074236095 -0.028366452 0.023253512 -0.04865731 -0.09383005 -0.05513001 0.11360458 0.0074169133 0.08378604 0.100542724 -0.019140115 -0.047629908 -0.005476125 0.05898447 -0.0047456957 -0.018900191 0.011331628 0.019348802 0.011635035 -0.0150290355 0.14962567 0.14429411 -0.006055503 -0.053775374 0.08476581 -0.024341825 -0.010933318 -0.0520741 0.02324241 -0.043989163 0.04680714 0.02265398 0.07608782 -0.010572055 0.11183815 -0.022341516 0.02382541 0.052199505 0.017368505 0.0071739415 -0.015606144 0.00893976 -0.07233177 -0.07196568 -0.07302115 0.06507897 0.05128998 0.058985922 0.05007787 -0.07592595
model -0.015342361 -0.036841404 0.079170495 -0.020621644 0.039278325 0.037414756 -0.009122935 -0.034425795 0.0039271303 0.0044495678 -0.013406725 0.06306537 0.0012648628 -0.04444873 0.017395541 -0.07441914 0.041390784 0.027371671 0.10188534 -0.042519793 0.050060157 -0.07911125 -0.029691963 -0.040040053 -0.10764512 -0.023645798 -0.08066398 -0.070707224 -0.003055174 -0.10971397 0.044992458 -0.0077726035 -0.010056638 0.013491867 0.049400553 0.014700605 -0.016576048 -0.004313942 0.14338855 -0.014808789 -0.102429286 -0.033239074 0.0061007813 -0.018946096 0.06635357 0.016603613 -0.030031027 -0.0044946973 -0.049700134 -0.062356845 0.014561143 0.008769097 0.0026110765 -0.09778242 -0.05548619 -0.008917493 0.10457628 -0.028291538 0.09133262 0.1259494 0.007892335 0.032763217 0.022582896 -0.014637968 -0.029600762 -0.024865748 -0.030998461 -0.017505834 0.036391392 0.0035543775 0.078898855 -0.026932076 -0.024801368 -0.018384902 -0.008077183 0.011448379 -0.007129584 0.022980541 0.07938185 0.0039221854 -0.09106902 -0.038025737 0.032201495 -0.09167993 -0.044681456 -0.003143549 0.0009726586 -0.007484674 -0.028379356 -0.039998848 0.06324025 -0.043289036 -0.023027962 0.028866267 -0.049474515 0.058560397 -0.004545583 -0.0006315012 0.07376534 -0.022886747
complexity 0.035839323 0.058254227 0.09442853 0.0527699 0.08526174 -0.04812297 -0.024935141 0.009601436 0.06417907 0.023290887 -0.09489219 -0.040705323 0.053381 0.0033463156 0.092817135 0.023775294 0.12573488 0.009573282 0.018906886 0.06304411 0.000349415 -0.062385753 0.004607888 0.12000819 -0.06070364 -0.12044551 0.01887324 -0.042492278 0.038850985 -0.14815515 -0.022160953 -0.035786767 0.027036324 -0.019545414 0.017978992 0.02566242 0.032596216 0.008120829 -0.06640837 0.059641533 -0.03982473 0.08305605 0.07141613 -0.05333951 -0.00073760166 0.011882469 -0.056575354 -0.14850993 0.030417765 -0.027534524 -0.0047134017 0.04956342 -0.058556296 0.007914436 -0.09642872 0.07322068 0.023488991 0.12461163 0.030597856 0.03758175 -0.0070160674 -0.0677285 -0.043465164 0.09694088 0.08981448 -0.029267905 -0.00872255 -0.06295959 0.0020745797 -0.08555228 0.09058658 0.10368072 0.06140851 0.1042804 0.0061543398 -0.089009844 0.07238514 0.014541162 0.006099942 -0.0117727155 0.0061427047 -0.109596066 0.077579066 0.061068956 0.006013254 -0.010125883 -0.021916728 -0.08579173 0.091390274 -0.010223606 -0.0064650658 -0.03765651 -0.012931932 -0.0114892805 -0.0129205305 -0.061673135 0.07462946 0.10029862 0.040540364 -0.059588615
utilize -0.032225166 -0.038213614 0.029500686 0.006937685 -0.015502548 -0.0030347747 0.00619578 -0.0821033 -0.020959273 -0.013115163 0.017547667 0.018307088 0.015161815 0.052149806 -0.021861997 0.032606773 0.047980417 0.00562399 0.026499296 -0.08847627 0.03621921 0.062463142 -0.04178281 -0.024829607 -0.008538756 -0.007046637 -0.09529274 -0.051582105 -0.010002357 -0.053683475 -0.06259604 -0.08373582 0.07294026 -0.060007673 -0.010681336 0.00980081 -0.009480902 0.069177315 -0.07230718 0.001952393 0.020478692 0.027630309 0.04533125 0.012920029 -0.074762024 0.05015565 -0.0047994857 -0.048372947 -0.017887458 -0.052654676 0.085830614 -0.025262162 -0.048727784 0.041578744 -0.04694603 0.027474608 0.008917342 0.042339057 -0.0014322654 0.09373438 0.042412154 -0.016874267 -0.008621097 0.00086654164 0.065137595 -0.044628058 0.04202293 0.024159776 -0.06448302 0.008281066 -0.029122612 -0.04667705 0.0100250775 0.035725575 0.06643765 -0.0036442738 -0.023702431 -0.011106696 0.032862365 -0.031149216 -0.056005865 -0.047448277 -0.00686206 0.065811545 -0.006158381 -0.033682216 0.02544669 -0.064552255 0.029816812 0.018678423 -0.006207378 -0.013239337 -0.05030874 0.05887018 0.00032475725 0.06972595 -0.020546924 -0.008475488 -0.06849827 -0.027203457
tools -0.06572256 -0.08192616 0.0967803 -0.09957506 0.098372445 0.04754321 0.03632449 0.12193183 -0.13413212 0.06709361 0.05421517 -0.081438676 -0.13484663 0.10596742 -0.01874922 -0.028148783 0.0697561 0.06313516 0.1239747 -0.04274584 0.08989884 0.05015189 -0.021106714 -0.025755597 -0.01744519 0.07344019 -0.035849255 -0.026112374 -0.039133903 -0.043360364 0.020763105 0.04010456 -0.10941095 0.03053753 0.035011344 0.029571135 -0.10311737 -0.04092732 0.18420106 -0.04765587 -0.08729022 0.0894585 0.01024775 -0.06845312 -0.0656546 -0.13052556 -0.15801948 0.021657344 -0.08201222 -0.0935592 -0.076152675 -0.048422232 -0.09150888 -0.08303731 -0.08792396 -0.060738087 0.09911301 0.14421605 0.049952954 0.12851508 0.07016236 0.004412001 -0.02485167 -0.047911134 -0.06212097 -0.07530244 -0.018962728 0.031956244 0.088033006 0.09964479 -0.018660352 -0.01695215 -0.046356928 -0.07153131 0.0692293 0.138234 -0.040445518 -0.06780914 0.09732425 0.084523275 -0.13089643 0.12153398 -0.053935844 -0.024314377 0.12909542 -0.14036773 -0.122551695 0.054297563 -0.039031345 -0.10095786 0.037056256 0.120126374 -0.038309593 0.10546288 -0.14757985 0.11883887 -0.06791166 0.051001787 0.079332545 0.0044624293
algorithms -0.059724007 -0.20429215 -0.00828881 0.018096918 -0.1029278 0.08895911 0.08205738 -0.046372365 -0.07540284 0.026156051 -0.058350716 0.05362032 0.02869071 -0.021823814 -0.03456098 -0.16906527 -0.03908731 0.047329716 -0.07642549 0.027378261 -0.016610935 0.024661314 -0.07189257 -0.23407623 0.02814458 0.10948166 0.023173198 0.07231778 -0.06028466 0.12735915 0.060013313 -0.001634778 0.05609529 0.12072329 -0.090528205 -0.09371684 0.048784845 -0.0049216105 -0.046953987 -0.014460469 -0.01940518 0.13921915 -0.14599818 0.020646006 -0.07720424 0.038162984 0.012139549 0.053377736 -0.016670944 0.05735936 -0.012022109 -0.008067069 0.04380521 0.028990146 -0.015203349 0.037985817 -0.008634499 -0.06629643 -0.020756673 0.026667709 0.03594886 0.08410284 0.044030897 -0.19203627 -0.11416586 -0.075732045 -0.0022566586 0.073692106 0.00822337 0.071453415 0.01749094 -0.0522283 0.058107667 -0.006453181 -0.00015021145 -0.08355715 -0.04608519 0.07390392 -0.028279353 0.035786096 0.04317444 0.0693186 -0.14440598 -0.037506767 -0.039082576 0.025381839 -0.1242768 0.10788025 -0.029242415 -0.057427865 -0.0434476 0.12780467 -0.013410814 -0.006912587 -0.022646526 0.03595063 -0.019416656 -0.114349835 -0.119466625 0.05545375
some 0.025826506 0.030241158 0.042438753 0.053885695 0.014580003 -0.044873964 -0.0022112809 -0.019228874 0.060536843 -0.054840475 -0.033877052 0.077307746 0.037038624 -0.029198421 0.049153008 -0.012233141 -0.041720055 -0.077288285 -0.04073148 0.078585505 -0.08710001 0.016098645 -0.12373153 0.043714494 0.030833488 -0.022683641 0.017814454 0.16497812 -0.02721846 -0.057911865 0.059749417 -0.0165305 -0.0040506227 -0.10309202 -0.048953567 -0.042098463 0.059598435 0.015757374 -0.03678093 -0.07839244 -0.030800667 -0.019032054 0.040545642 -0.02174697 -0.048120838 0.011599695 0.002390523 -0.1411598 0.013713223 0.022641083 0.03250905 0.025489965 -0.0015309828 0.04213347 0.17395553 0.1084895 -0.021369113 0.06391857 -0.062056534 -0.030850025 0.037300725 -0.046455443 -0.031005856 0.020105641 -0.02561606 0.06009992 0.0024087117 -0.0149820205 -0.038367696 -0.013565411 0.008319095 -0.064287834 0.040269602 -0.022119258 0.03730898 -0.0507488 0.089081295 0.03861603 -0.044268735 -0.06094719 -0.07343849 -0.0074021136 -0.0019539166 0.03471137 -0.06316401 0.05341358 -0.021888943 0.003834914 -0.039439864 -0.001311358 -0.021216039 0.11202782 0.04170562 -0.056592233 0.14017339 -0.009462491 -0.026539112 -0.027409662 -0.026207319 0.034174208
history 0.055532515 0.035640866 0.068190604 0.17480594 0.021318018 -0.19701087 -0.0073418864 0.15483366 0.115648694 -0.06295538 -0.07794826 0.0009460008 0.12024544 0.0069803405 0.020466436 0.011921717 0.08695605 -0.026433792 -0.067783155 0.11695162 -0.09111736 0.00660377 -0.09893139 0.12311715 -0.025676303 -0.18094742 -0.024990164 0.090230964 0.08784579 -0.006463779 -0.072721936 -0.1384173 0.061701905 -0.15198982 -0.098358326 -0.017884525 0.11330353 0.18205824 -0.08360898 -0.13202707 0.06904802 -0.082164235 -0.03543251 -0.07462274 -0.1698307 -0.01186944 0.030925073 -0.039944317 -0.05930891 0.11845951 0.060698472 0.08552688 -0.11535478 0.036537033 0.1487525 0.10141511 -0.010146406 0.08987715 -0.098492816 -0.16187757 0.03585368 -0.17347582 -0.00023810373 0.040147986 0.14245136 0.065025434 0.01807402 -0.07003662 -0.027373154 -0.02902256 -0.01923639 -0.057322133 0.06658378 0.110047854 0.012042663 -0.048598815 0.19836062 0.08956007 0.031996116 -0.1292004 -0.21914956 -0.10447017 0.20686167 0.13095938 -0.18261664 0.115717284 -0.01486766 -0.07726286 -0.0418026 0.08583454 -0.12821639 -0.039664365 0.08017137 -0.17945348 0.12186522 -0.16947508 0.016551163 0.05179966 -0.062518455 -0.07580084
idea 0.1304165 -0.004747282 0.105355054 0.14510539 -0.016581634 -0.19185193 -0.031664316 0.13843654 0.10388982 -0.16441521 -0.16654441 0.06259375 0.10668617 -0.04089284 0.027462365 0.09571047 0.052073732 -0.009364821 0.00018479559 0.054952566 -0.115105905 -0.017679371 -0.057027712 0.17005083 0.13517404 -0.1290297 0.07838991 0.100864775 0.085019596 -0.03281918 -0.036541406 -0.14513868 0.09339397 -0.13824879 -0.047435433 -0.026427748 0.12770517 0.11116526 -0.090364024 -0.14515288 0.11661525 -0.06352319 0.016926836 -0.020176565 -0.13041806 0.049000528 0.016721364 -0.13092658 0.018400138 0.046804946 0.13326071 0.09957254 -0.041187134 0.05050567 0.11867791 0.12140471 0.047376543 0.13079715 -0.1317794 -0.16819711 -0.0747393 -0.14987701 -0.062330604 0.18479078 0.2560805 0.15408647 0.0065848497 -0.046122316 -0.12587619 -0.12624568 -0.08809178 -0.05437051 0.07492165 0.1773238 0.027055224 -0.046898898 0.18892428 0.07995424 0.12569119 -0.0837529 -0.0785079 -0.12702465 0.19552661 0.08724742 -0.1577834 0.14486727 0.053178646 -0.14201823 -0.07806804 0.07614617 -0.050005943 -0.092831194 0.043092478 -0.14718851 0.12760343 -0.20762743 0.012520942 0.08625734 -0.062699296 -0.14983863
systems -0.09841743 -0.050354224 0.10672374 0.01750581 0.086108595 -0.03297028 0.095847204 0.10584246 -0.07202846 -0.001228463 0.012015612 -0.08185341 0.032546856 -0.0048700254 0.00067377184 0.027309008 0.15287209 0.100670144 0.012281308 -0.038732972 -0.03685915 0.037713714 -0.09000079 0.0054571666 -0.018710323 0.005137116 -0.010009112 0.06903252 -0.06225115 -7.1800314e-06 0.011315654 0.022927988 -0.0286135 0.004974531 0.07054606 -0.1367061 -0.06716444 -0.041032128 0.055716947 -0.06440296 -0.057137705 0.030277472 -0.059377447 -0.15141232 -0.08999508 -0.008956436 -0.040388785 -0.03250282 -0.07489601 0.007743528 -0.032291394 -0.008609067 -0.087283336 -0.04287213 -0.016719593 -0.083449796 0.049076352 0.11911677 0.11551245 0.038220678 0.10356267 0.048908334 -0.07168483 0.0019030758 -0.024322424 -0.021763926 -0.04932912 0.010620529 0.068064064 0.01549964 -0.07572287 -0.02841228 -0.042382013 0.03839018 0.041123252 0.09402482 0.02383291 0.07796583 0.05413955 -0.013851023 -0.05342267 0.03104267 -0.05792082 0.03483757 0.0122416355 -0.041952964 -0.05037223 0.058608223 -0.063361704 -0.025924787 -0.017307362 -0.025496481 -0.098304525 0.04109082 -0.06888166 0.0010965428 -0.023445139 0.0073024416 -0.03426305 -0.031604417
management -0.0005034945 -0.012606035 -0.0016937639 -9.337277e-05 0.061130933 -0.059813377 0.12183453 -0.057401553 0.05857461 0.036128845 -0.08245291 0.064718395 0.048153747 0.010188681 0.06011441 -0.031585928 0.056480072 -0.05983253 -0.032069907 -0.0092797605 0.029864956 0.13804403 -0.15936363 -0.0809799 0.007104885 0.100323394 0.00014063308 0.09717929 -0.038726702 0.030024022 0.056069527 -0.0002596412 0.036380995 0.0023460297 -0.08592962 -0.046156295 0.07669169 -0.010149402 -0.01749881 -0.016219378 0.013849408 0.0366218 0.00020177884 -0.05399984 -0.048930217 0.014421887 0.09810315 -0.018347412 0.084572054 0.035335246 0.02666166 0.07517407 0.013961851 -0.06560497 0.16290665 0.06559404 0.028947907 0.041505817 -0.10884896 0.055073332 0.036753777 -0.0039461046 0.08619642 -0.09144007 -0.085728735 0.015974626 0.02049206 -0.004099406 -0.0014322351 0.056146767 -0.02878453 -0.07005868 0.012746728 -0.0725981 -0.01963259 -0.063411325 -0.06916017 0.015006375 -0.018701209 0.0016383736 -0.018906267 0.036962807 -0.04926119 0.09390979 0.020571074 0.030955639 -0.032338593 -0.03970071 -0.08584719 -0.020120857 -0.0069224294 0.0015059977 0.012587388 0.0068972446 0.08353609 0.0054571554 -0.036417697 -0.025636453 -0.08697619 0.082862906
work -0.061158624 -0.11809285 0.05327684 -0.06575035 0.1380809 0.028598743 0.18465643 0.019981582 -0.056520294 0.02852439 -0.024765387 -0.00974878 -0.051797904 0.05259237 -0.071498305 -0.08473775 0.010670695 0.01444279 -0.009010597 -0.050213903 0.0011198872 0.21286753 -0.19546346 -0.1662567 0.08179102 0.11688483 0.030746805 0.11411287 -0.03428433 0.023885977 0.14635798 0.061081544 -0.104425445 0.15015428 0.070776775 -0.07813126 -0.096745014 -0.111162275 -0.034373492 -0.11644281 -0.059807204 0.07666074 -0.18803234 -0.054269798 -0.056123167 -0.06638903 0.07222359 0.032160353 -0.035933033 0.1280725 -0.00092945434 -0.07490182 -0.048828665 -0.014445684 0.010549488 0.011566465 -0.017195895 0.11715121 -0.029853582 0.08086792 0.11213732 0.19542259 -0.0339061 -0.1761631 -0.13337739 0.01754464 -0.03802524 0.098822206 0.097723395 0.16527729 -0.05206703 -0.2152825 -0.04510908 -0.1711034 -0.009376658 0.08489734 -0.0029849657 0.08328186 0.081470415 0.13325381 -0.13795814 0.18721259 -0.1721418 -0.06731269 0.06302991 -0.052436877 -0.14490871 0.15047544 -0.07377158 0.07815027 0.035506107 0.11122203 0.02045909 0.11481229 -5.971099e-05 0.03361745 -0.14852653 0.02171697 -0.123674504 0.07459683
